{"learner":{"attributes":{"scikit_learn":"{\"_estimator_type\": \"classifier\"}"},"feature_names":[],"feature_types":[],"gradient_booster":{"model":{"cats":{"enc":[],"feature_segments":[],"sorted_idx":[]},"gbtree_model_param":{"num_parallel_tree":"1","num_trees":"120"},"iteration_indptr":[0,1,2,3,4,5,6,7,8,9,10,11,12,13,14,15,16,17,18,19,20,21,22,23,24,25,26,27,28,29,30,31,32,33,34,35,36,37,38,39,40,41,42,43,44,45,46,47,48,49,50,51,52,53,54,55,56,57,58,59,60,61,62,63,64,65,66,67,68,69,70,71,72,73,74,75,76,77,78,79,80,81,82,83,84,85,86,87,88,89,90,91,92,93,94,95,96,97,98,99,100,101,102,103,104,105,106,107,108,109,110,111,112,113,114,115,116,117,118,119,120],"tree_info":[0,0,0,0,0,0,0,0,0,0,0,0,0,0,0,0,0,0,0,0,0,0,0,0,0,0,0,0,0,0,0,0,0,0,0,0,0,0,0,0,0,0,0,0,0,0,0,0,0,0,0,0,0,0,0,0,0,0,0,0,0,0,0,0,0,0,0,0,0,0,0,0,0,0,0,0,0,0,0,0,0,0,0,0,0,0,0,0,0,0,0,0,0,0,0,0,0,0,0,0,0,0,0,0,0,0,0,0,0,0,0,0,0,0,0,0,0,0,0,0],"trees":[{"base_weights":[-3.1792108E-4,1.0075154E0,-7.9966956E-1,1.238398E0,-1.5113453E0,1.2255126E0,-1.0966089E0,1.337408E0,-1.4552442E0,-1.6337645E0,1.2724638E0,1.6094135E0,-1.5350924E0,-1.6391547E0,-6.5779984E-1,1.1453823E-1,-8.305701E-2,1.1742148E-1,-1.410318E-1,-3.6888886E-2,-1.3754444E-1,-8.492307E-2,1.4041379E-1,1.4035065E-1,-4.4558138E-2,6.0936168E-2,-1.4797604E-1,-1.4502783E-1,-5.0681017E-2,-4.5662485E-3,-1.1547069E-1],"categories":[],"categories_nodes":[],"categories_segments":[],"categories_sizes":[],"default_left":[0,0,0,0,0,0,0,0,0,0,0,0,0,0,0,0,0,0,0,0,0,0,0,0,0,0,0,0,0,0,0],"id":0,"left_children":[1,3,5,7,9,11,13,15,17,19,21,23,25,27,29,-1,-1,-1,-1,-1,-1,-1,-1,-1,-1,-1,-1,-1,-1,-1,-1],"loss_changes":[1.7485412E4,5.5849736E3,7.280299E3,2.3474727E3,2.769635E2,1.643311E3,2.512038E3,1.9024111E3,2.8341553E2,7.652881E1,4.080174E1,4.2814136E2,1.3844858E2,8.2302246E2,2.7549392E3,0E0,0E0,0E0,0E0,0E0,0E0,0E0,0E0,0E0,0E0,0E0,0E0,0E0,0E0,0E0,0E0],"parents":[2147483647,0,0,1,1,2,2,3,3,4,4,5,5,6,6,7,7,8,8,9,9,10,10,11,11,12,12,13,13,14,14],"right_children":[2,4,6,8,10,12,14,16,18,20,22,24,26,28,30,-1,-1,-1,-1,-1,-1,-1,-1,-1,-1,-1,-1,-1,-1,-1,-1],"split_conditions":[1.1323714E1,2.0899794E2,7.517911E0,-2.241442E-1,6.7521774E1,-5.4371545E2,-2.9607596E2,1.1418879E0,1.6193995E0,4.1018867E1,-4.0000748E2,2.2464565E1,8.403961E0,1.9389727E0,-1.2879113E0,1.1453823E-1,-8.305701E-2,1.1742148E-1,-1.410318E-1,-3.6888886E-2,-1.3754444E-1,-8.492307E-2,1.4041379E-1,1.4035065E-1,-4.4558138E-2,6.0936168E-2,-1.4797604E-1,-1.4502783E-1,-5.0681017E-2,-4.5662485E-3,-1.1547069E-1],"split_indices":[132,40,129,8,296,362,160,6,67,361,160,127,135,274,24,0,0,0,0,0,0,0,0,0,0,0,0,0,0,0,0],"split_type":[0,0,0,0,0,0,0,0,0,0,0,0,0,0,0,0,0,0,0,0,0,0,0,0,0,0,0,0,0,0,0],"sum_hessian":[2.17025E4,9.59925E3,1.210325E4,8.79375E3,8.055E2,1.54725E3,1.0556E4,8.4825E3,3.1125E2,7.72E2,3.35E1,1.35875E3,1.885E2,4.71875E3,5.83725E3,8.159E3,3.235E2,2.925E1,2.82E2,5.3E1,7.19E2,5.5E0,2.8E1,1.27375E3,8.5E1,2.25E1,1.66E2,4.023E3,6.9575E2,3.3085E3,2.52875E3],"tree_param":{"num_deleted":"0","num_feature":"365","num_nodes":"31","size_leaf_vector":"1"}},{"base_weights":[-1.3196113E-3,-1.4051652E0,3.5992417E-1,-1.7671666E0,-1.409508E-1,8.899007E-1,-6.8010217E-1,-1.8420036E0,-4.9172205E-1,1.1091216E0,-6.396204E-1,1.0505627E0,-1.234229E0,5.1902365E-2,-1.3456903E0,-1.4796959E-1,-1.5423119E-2,1.1431021E-1,-1.3712674E-1,-9.293432E-2,1.1426201E-1,1.1949349E-2,-1.1323992E-1,9.578464E-2,-2.195884E-2,5.318681E-2,-1.2434901E-1,4.298284E-2,-1.0706769E-1,-9.142724E-3,-1.2509324E-1],"categories":[],"categories_nodes":[],"categories_segments":[],"categories_sizes":[],"default_left":[0,0,0,0,0,0,0,0,0,0,0,0,0,0,0,0,0,0,0,0,0,0,0,0,0,0,0,0,0,0,0],"id":1,"left_children":[1,3,5,7,9,11,13,15,17,19,21,23,25,27,29,-1,-1,-1,-1,-1,-1,-1,-1,-1,-1,-1,-1,-1,-1,-1,-1],"loss_changes":[1.1022409E4,2.0353047E3,9.528698E3,3.2891992E2,6.18644E2,3.9093389E3,2.8434612E3,4.0460938E1,4.5578357E2,2.067865E2,4.3457245E2,2.0706611E3,4.9093384E2,1.8766653E3,8.201089E2,0E0,0E0,0E0,0E0,0E0,0E0,0E0,0E0,0E0,0E0,0E0,0E0,0E0,0E0,0E0,0E0],"parents":[2147483647,0,0,1,1,2,2,3,3,4,4,5,5,6,6,7,7,8,8,9,9,10,10,11,11,12,12,13,13,14,14],"right_children":[2,4,6,8,10,12,14,16,18,20,22,24,26,28,30,-1,-1,-1,-1,-1,-1,-1,-1,-1,-1,-1,-1,-1,-1,-1,-1],"split_conditions":[-6.170697E2,-2.5871164E2,2.039028E1,7.409807E1,2.3671677E0,-8.807242E-1,3.397262E1,1.184333E1,3.3930318E0,-4.6971947E1,6.3366705E2,3.8579476E-1,3.5835576E0,-1.2619803E0,-1.6018639E1,-1.4796959E-1,-1.5423119E-2,1.1431021E-1,-1.3712674E-1,-9.293432E-2,1.1426201E-1,1.1949349E-2,-1.1323992E-1,9.578464E-2,-2.195884E-2,5.318681E-2,-1.2434901E-1,4.298284E-2,-1.0706769E-1,-9.142724E-3,-1.2509324E-1],"split_indices":[80,160,128,41,65,12,125,59,65,86,280,261,138,8,174,0,0,0,0,0,0,0,0,0,0,0,0,0,0,0,0],"split_type":[0,0,0,0,0,0,0,0,0,0,0,0,0,0,0,0,0,0,0,0,0,0,0,0,0,0,0,0,0,0,0],"sum_hessian":[2.1732658E4,4.4472783E3,1.7285379E4,3.4569272E3,9.903509E2,1.1450616E4,5.834763E3,3.2648396E3,1.9208768E2,2.8200128E2,7.083496E2,1.0645944E4,8.046713E2,2.7791091E3,3.0556543E3,3.2496501E3,1.5189288E1,7.46093E1,1.1747837E2,3.438639E1,2.4761488E2,3.515444E2,3.568052E2,9.584645E3,1.0612997E3,1.1587871E2,6.887926E2,2.0604287E3,7.186805E2,4.5984396E2,2.5958103E3],"tree_param":{"num_deleted":"0","num_feature":"365","num_nodes":"31","size_leaf_vector":"1"}},{"base_weights":[-2.5322463E-3,9.4252217E-1,-6.700129E-1,1.1445743E0,-1.3076385E0,1.1685376E0,-9.240913E-1,1.2182239E0,-1.41599E0,-1.4175441E0,1.1756983E0,1.4891975E0,-6.3668984E-1,5.150116E-1,-1.0936133E0,-6.643145E-2,1.0385661E-1,1.03650436E-1,-1.2730218E-1,-2.5181589E-3,-1.1933157E-1,-1.21856995E-1,1.2740096E-1,1.3213347E-1,-7.5399026E-2,-6.7716422E-3,-1.2030264E-1,-8.235577E-2,8.7535955E-2,-4.603306E-2,-1.1410172E-1],"categories":[],"categories_nodes":[],"categories_segments":[],"categories_sizes":[],"default_left":[0,0,0,0,0,0,0,0,0,0,0,0,0,0,0,0,0,0,0,0,0,0,0,0,0,0,0,0,0,0,0],"id":2,"left_children":[1,3,5,7,9,11,13,15,17,19,21,23,25,27,29,-1,-1,-1,-1,-1,-1,-1,-1,-1,-1,-1,-1,-1,-1,-1,-1],"loss_changes":[1.3598438E4,4.058416E3,5.9028945E3,1.5459385E3,2.0247656E2,8.8922705E2,2.708749E3,1.3054482E3,1.1111224E2,7.220752E1,3.80782E1,5.1652515E2,1.108102E2,1.048135E3,1.7109678E3,0E0,0E0,0E0,0E0,0E0,0E0,0E0,0E0,0E0,0E0,0E0,0E0,0E0,0E0,0E0,0E0],"parents":[2147483647,0,0,1,1,2,2,3,3,4,4,5,5,6,6,7,7,8,8,9,9,10,10,11,11,12,12,13,13,14,14],"right_children":[2,4,6,8,10,12,14,16,18,20,22,24,26,28,30,-1,-1,-1,-1,-1,-1,-1,-1,-1,-1,-1,-1,-1,-1,-1,-1],"split_conditions":[1.0742584E1,2.0816852E2,7.632482E0,-5.8204424E-2,6.7521774E1,9.608096E1,7.4357743E0,-2.1169388E2,1.6193995E0,4.004954E1,2.1927223E-1,-5.4033386E2,2.4390195E2,4.673251E-2,1.599724E1,-6.643145E-2,1.0385661E-1,1.03650436E-1,-1.2730218E-1,-2.5181589E-3,-1.1933157E-1,-1.21856995E-1,1.2740096E-1,1.3213347E-1,-7.5399026E-2,-6.7716422E-3,-1.2030264E-1,-8.235577E-2,8.7535955E-2,-4.603306E-2,-1.1410172E-1],"split_indices":[132,40,127,8,296,123,130,200,67,361,33,80,320,37,132,0,0,0,0,0,0,0,0,0,0,0,0,0,0,0,0],"split_type":[0,0,0,0,0,0,0,0,0,0,0,0,0,0,0,0,0,0,0,0,0,0,0,0,0,0,0,0,0,0,0],"sum_hessian":[2.1555303E4,8.922208E3,1.2633096E4,8.1875464E3,7.346613E2,1.5333735E3,1.1099722E4,7.9591797E3,2.2836674E2,7.039748E2,3.0686514E1,1.3022816E3,2.3109193E2,1.1694473E3,9.930274E3,2.9867264E2,7.660507E3,1.3443267E1,2.1492348E2,3.5866024E1,6.6810876E2,3.7179687E0,2.6968546E1,1.2210596E3,8.1222046E1,1.4193831E2,8.915363E1,3.1868738E2,8.507598E2,3.8836035E3,6.0466714E3],"tree_param":{"num_deleted":"0","num_feature":"365","num_nodes":"31","size_leaf_vector":"1"}},{"base_weights":[3.2707145E-3,7.8239274E-1,-7.0135707E-1,1.0664418E0,-5.3808427E-1,9.554727E-1,-9.7125036E-1,1.1911925E0,-5.9040797E-1,-1.1361511E0,9.4329244E-1,1.3352747E0,-1.2984022E0,-6.868162E-1,-1.5807908E0,1.0261118E-1,-7.947488E-2,2.7145071E-2,-1.2404161E-1,-1.1845865E-1,-4.8214246E-2,-1.0578235E-1,1.05528794E-1,-4.7915343E-2,1.2013771E-1,5.6903977E-2,-1.2309436E-1,-9.885297E-2,-9.994261E-4,-5.5703662E-2,-1.3203429E-1],"categories":[],"categories_nodes":[],"categories_segments":[],"categories_sizes":[],"default_left":[0,0,0,0,0,0,0,0,0,0,0,0,0,0,0,0,0,0,0,0,0,0,0,0,0,0,0,0,0,0,0],"id":3,"left_children":[1,3,5,7,9,11,13,15,17,19,21,23,25,27,29,-1,-1,-1,-1,-1,-1,-1,-1,-1,-1,-1,-1,-1,-1,-1,-1],"loss_changes":[1.1712646E4,3.8009053E3,5.010513E3,1.7243076E3,1.5907314E3,1.3454814E3,1.6690059E3,1.5506152E3,5.2239307E2,2.3395862E2,4.41549E2,4.3365186E2,1.1071585E2,2.4317021E3,1.8736621E2,0E0,0E0,0E0,0E0,0E0,0E0,0E0,0E0,0E0,0E0,0E0,0E0,0E0,0E0,0E0,0E0],"parents":[2147483647,0,0,1,1,2,2,3,3,4,4,5,5,6,6,7,7,8,8,9,9,10,10,11,11,12,12,13,13,14,14],"right_children":[2,4,6,8,10,12,14,16,18,20,22,24,26,28,30,-1,-1,-1,-1,-1,-1,-1,-1,-1,-1,-1,-1,-1,-1,-1,-1],"split_conditions":[1.2058153E1,2.667469E2,8.35758E0,-3.858033E-1,2.1207644E1,-5.47669E2,-1.4301053E0,1.1418879E0,4.108288E0,-5.852843E2,1.0414421E-1,-2.0932855E-1,1.8468006E0,-2.8359702E2,3.897619E0,1.0261118E-1,-7.947488E-2,2.7145071E-2,-1.2404161E-1,-1.1845865E-1,-4.8214246E-2,-1.0578235E-1,1.05528794E-1,-4.7915343E-2,1.2013771E-1,5.6903977E-2,-1.2309436E-1,-9.885297E-2,-9.994261E-4,-5.5703662E-2,-1.3203429E-1],"split_indices":[132,320,129,24,324,80,12,6,3,80,275,31,136,160,140,0,0,0,0,0,0,0,0,0,0,0,0,0,0,0,0],"split_type":[0,0,0,0,0,0,0,0,0,0,0,0,0,0,0,0,0,0,0,0,0,0,0,0,0,0,0,0,0,0,0],"sum_hessian":[2.1332844E4,1.0130911E4,1.1201934E4,8.337658E3,1.793253E3,1.5687467E3,9.633187E3,7.754158E3,5.834995E2,1.2777113E3,5.1554175E2,1.3429049E3,2.2584186E2,6.5697764E3,3.06341E3,7.443055E3,3.1110327E2,2.9671704E2,2.8678247E2,7.7509625E2,5.02615E2,7.295522E1,4.4258652E2,1.0615197E2,1.2367529E3,2.386406E1,2.019778E2,3.6213242E3,2.9484524E3,2.2449174E2,2.8389182E3],"tree_param":{"num_deleted":"0","num_feature":"365","num_nodes":"31","size_leaf_vector":"1"}},{"base_weights":[-2.7540748E-3,-1.2424763E0,2.9292396E-1,5.769E-1,-1.4141461E0,7.854186E-1,-5.181267E-1,1.0910748E0,-1.4490955E0,-1.5243509E0,-4.438949E-1,9.98449E-1,-2.6262942E-1,7.685802E-2,-1.1252458E0,1.1161092E-1,-9.183628E-2,8.534894E-2,-1.2836681E-1,-5.6460135E-2,-1.2576193E-1,-1.3035083E-1,1.1414732E-2,-2.0357551E-2,9.1947585E-2,7.005584E-2,-9.656651E-2,3.5052404E-2,-1.14650466E-1,-4.158305E-3,-1.0777702E-1],"categories":[],"categories_nodes":[],"categories_segments":[],"categories_sizes":[],"default_left":[0,0,0,0,0,0,0,0,0,0,0,0,0,0,0,0,0,0,0,0,0,0,0,0,0,0,0,0,0,0,0],"id":4,"left_children":[1,3,5,7,9,11,13,15,17,19,21,23,25,27,29,-1,-1,-1,-1,-1,-1,-1,-1,-1,-1,-1,-1,-1,-1,-1,-1],"loss_changes":[7.7357314E3,1.2702256E3,6.8066143E3,3.6725427E2,3.9624658E2,2.3674434E3,2.3258418E3,1.92668E2,2.971791E1,1.2879785E2,2.6485098E2,1.6662803E3,1.9273483E3,1.7749169E3,7.5897046E2,0E0,0E0,0E0,0E0,0E0,0E0,0E0,0E0,0E0,0E0,0E0,0E0,0E0,0E0,0E0,0E0],"parents":[2147483647,0,0,1,1,2,2,3,3,4,4,5,5,6,6,7,7,8,8,9,9,10,10,11,11,12,12,13,13,14,14],"right_children":[2,4,6,8,10,12,14,16,18,20,22,24,26,28,30,-1,-1,-1,-1,-1,-1,-1,-1,-1,-1,-1,-1,-1,-1,-1,-1],"split_conditions":[-6.1896735E2,2.4850745E0,1.9209137E1,2.127987E2,-2.1478934E2,-3.044183E1,3.441339E1,9.300096E0,3.8607327E1,2.9041393E0,-6.4699646E2,-2.1853296E2,8.197168E0,-6.46094E-1,-1.668613E1,1.1161092E-1,-9.183628E-2,8.534894E-2,-1.2836681E-1,-5.6460135E-2,-1.2576193E-1,-1.3035083E-1,1.1414732E-2,-2.0357551E-2,9.1947585E-2,7.005584E-2,-9.656651E-2,3.5052404E-2,-1.14650466E-1,-4.158305E-3,-1.0777702E-1],"split_indices":[80,65,128,40,160,90,125,140,361,65,80,200,144,24,172,0,0,0,0,0,0,0,0,0,0,0,0,0,0,0,0],"split_type":[0,0,0,0,0,0,0,0,0,0,0,0,0,0,0,0,0,0,0,0,0,0,0,0,0,0,0,0,0,0,0],"sum_hessian":[2.1101414E4,4.0630303E3,1.7038385E4,3.5006412E2,3.712966E3,1.060118E4,6.4372046E3,2.7961246E2,7.045166E1,3.333644E3,3.7932205E2,8.810472E3,1.7907085E3,3.2514495E3,3.185755E3,2.4655206E2,3.3060383E1,3.7220025E0,6.672966E1,1.8444461E2,3.1491995E3,1.2502871E2,2.5429335E2,9.4689136E2,7.86358E3,8.119952E2,9.7871326E2,2.6243047E3,6.271448E2,5.462382E2,2.6395166E3],"tree_param":{"num_deleted":"0","num_feature":"365","num_nodes":"31","size_leaf_vector":"1"}},{"base_weights":[-1.0166493E-3,6.825961E-1,-6.4491767E-1,8.602096E-1,-1.2017025E0,1.1069533E0,-8.7569237E-1,1.121538E0,1.6741146E-1,-1.323343E0,8.893696E-1,-5.2495295E-1,1.4272381E0,4.1715282E-1,-1.0173801E0,9.387157E-2,-9.672131E-2,4.0110383E-2,-7.032982E-2,-6.510639E-2,-1.1662522E-1,-1.0125121E-1,1.115693E-1,-9.408535E-2,6.3931696E-2,1.2531623E-1,-7.843232E-2,-5.223407E-2,9.1625124E-2,2.201824E-2,-8.958282E-2],"categories":[],"categories_nodes":[],"categories_segments":[],"categories_sizes":[],"default_left":[0,0,0,0,0,0,0,0,0,0,0,0,0,0,0,0,0,0,0,0,0,0,0,0,0,0,0,0,0,0,0],"id":5,"left_children":[1,3,5,7,9,11,13,15,17,19,21,23,25,27,29,-1,-1,-1,-1,-1,-1,-1,-1,-1,-1,-1,-1,-1,-1,-1,-1],"loss_changes":[9.135157E3,3.3699087E3,4.3216196E3,1.6652671E3,2.2186938E2,6.5122705E2,1.7303989E3,8.086885E2,8.8151935E2,5.4784668E1,5.4303043E1,1.7757166E2,3.5035303E2,7.2808905E2,1.1270449E3,0E0,0E0,0E0,0E0,0E0,0E0,0E0,0E0,0E0,0E0,0E0,0E0,0E0,0E0,0E0,0E0],"parents":[2147483647,0,0,1,1,2,2,3,3,4,4,5,5,6,6,7,7,8,8,9,9,10,10,11,11,12,12,13,13,14,14],"right_children":[2,4,6,8,10,12,14,16,18,20,22,24,26,28,30,-1,-1,-1,-1,-1,-1,-1,-1,-1,-1,-1,-1,-1,-1,-1,-1],"split_conditions":[1.22285595E1,2.0899794E2,7.2025747E0,9.13932E0,6.285425E1,2.4213417E1,7.3116636E0,-5.8204424E-2,1.919292E1,2.1637807E2,-1.0934041E-2,-8.1497765E-1,-5.4149243E2,4.8572716E-1,-1.8827969E1,9.387157E-2,-9.672131E-2,4.0110383E-2,-7.032982E-2,-6.510639E-2,-1.1662522E-1,-1.0125121E-1,1.115693E-1,-9.408535E-2,6.3931696E-2,1.2531623E-1,-7.843232E-2,-5.223407E-2,9.1625124E-2,2.201824E-2,-8.958282E-2],"split_indices":[132,40,127,138,297,145,130,8,130,40,37,167,80,37,174,0,0,0,0,0,0,0,0,0,0,0,0,0,0,0,0],"split_type":[0,0,0,0,0,0,0,0,0,0,0,0,0,0,0,0,0,0,0,0,0,0,0,0,0,0,0,0,0,0,0],"sum_hessian":[2.075129E4,1.0065159E4,1.0686131E4,9.19869E3,8.664694E2,1.243345E3,9.442785E3,6.6786807E3,2.5200095E3,8.192287E2,4.724072E1,2.0383243E2,1.0395126E3,9.3239514E2,8.510391E3,6.533837E3,1.4484372E2,1.9108414E3,6.0916815E2,1.7269305E2,6.4653564E2,8.648725E0,3.8591995E1,1.3676619E2,6.706623E1,9.830609E2,5.645169E1,3.77541E2,5.548542E2,6.2453564E2,7.8858545E3],"tree_param":{"num_deleted":"0","num_feature":"365","num_nodes":"31","size_leaf_vector":"1"}},{"base_weights":[-1.7086357E-3,-1.2027601E0,2.5196466E-1,2.9540715E-1,-1.3737677E0,6.013508E-1,-6.914337E-1,8.33403E-1,-1.4202707E0,-1.4492998E0,-5.4940724E-1,7.922032E-1,-9.2630184E-1,1.9835009E-1,-1.074031E0,1.0313008E-1,-7.1333654E-2,-1.20297395E-1,4.5505006E-2,-1.1972551E-1,-2.6958108E-2,-1.15080126E-1,8.506267E-3,7.1613185E-2,-4.8233975E-2,4.3541107E-2,-9.77032E-2,6.738417E-2,-7.151074E-2,-5.1876824E-2,-1.13802485E-1],"categories":[],"categories_nodes":[],"categories_segments":[],"categories_sizes":[],"default_left":[0,0,0,0,0,0,0,0,0,0,0,0,0,0,0,0,0,0,0,0,0,0,0,0,0,0,0,0,0,0,0],"id":6,"left_children":[1,3,5,7,9,11,13,15,17,19,21,23,25,27,29,-1,-1,-1,-1,-1,-1,-1,-1,-1,-1,-1,-1,-1,-1,-1,-1],"loss_changes":[6.225466E3,9.133794E2,5.5608413E3,3.387745E2,1.9814893E2,3.5901108E3,1.552512E3,2.206493E2,1.5497284E1,1.5332324E2,1.5779897E2,1.572688E3,5.9401636E2,9.656003E2,4.71802E2,0E0,0E0,0E0,0E0,0E0,0E0,0E0,0E0,0E0,0E0,0E0,0E0,0E0,0E0,0E0,0E0],"parents":[2147483647,0,0,1,1,2,2,3,3,4,4,5,5,6,6,7,7,8,8,9,9,10,10,11,11,12,12,13,13,14,14],"right_children":[2,4,6,8,10,12,14,16,18,20,22,24,26,28,30,-1,-1,-1,-1,-1,-1,-1,-1,-1,-1,-1,-1,-1,-1,-1,-1],"split_conditions":[-6.227254E2,2.6185932E0,1.9291403E1,2.1519196E2,-2.0785736E2,-1.170644E0,6.521804E0,1.1980203E1,-1.0765041E2,7.508975E1,-6.4415717E2,2.942899E1,4.144397E0,4.642293E0,-2.6428165E0,1.0313008E-1,-7.1333654E-2,-1.20297395E-1,4.5505006E-2,-1.1972551E-1,-2.6958108E-2,-1.15080126E-1,8.506267E-3,7.1613185E-2,-4.8233975E-2,4.3541107E-2,-9.77032E-2,6.738417E-2,-7.151074E-2,-5.1876824E-2,-1.13802485E-1],"split_indices":[80,65,130,40,160,12,138,137,0,41,80,127,138,63,10,0,0,0,0,0,0,0,0,0,0,0,0,0,0,0,0],"split_type":[0,0,0,0,0,0,0,0,0,0,0,0,0,0,0,0,0,0,0,0,0,0,0,0,0,0,0,0,0,0,0],"sum_hessian":[2.043085E4,3.5621252E3,1.6868725E4,3.6480658E2,3.1973186E3,1.2310148E4,4.5585757E3,2.7815598E2,8.665059E1,2.9281475E3,2.691713E2,1.0943504E4,1.3666447E3,1.3708025E3,3.1877732E3,2.2027524E2,5.788075E1,8.34442E1,3.2063916E0,2.8083682E3,1.19779076E2,1.1381345E2,1.5535785E2,1.0191772E4,7.5173145E2,2.281408E2,1.1385038E3,8.6257306E2,5.0822946E2,1.4366078E3,1.7511654E3],"tree_param":{"num_deleted":"0","num_feature":"365","num_nodes":"31","size_leaf_vector":"1"}},{"base_weights":[-1.7784139E-3,8.3856326E-1,-4.3496725E-1,9.866004E-1,-1.0245206E0,9.8163587E-1,-6.157379E-1,1.0595697E0,-8.0875325E-1,-1.2896475E0,-4.857222E-1,1.279867E0,-1.0991858E0,-2.2107753E-1,-1.0573361E0,8.941055E-2,-8.653487E-2,7.40342E-2,-9.8489456E-2,-1.3719339E-2,-1.0936912E-1,1.3327628E-3,-1.06075555E-1,1.1019315E-1,-3.9503794E-2,5.2262526E-2,-1.1721911E-1,-1.0012405E-1,9.241802E-4,3.8045067E-2,-9.185696E-2],"categories":[],"categories_nodes":[],"categories_segments":[],"categories_sizes":[],"default_left":[0,0,0,0,0,0,0,0,0,0,0,0,0,0,0,0,0,0,0,0,0,0,0,0,0,0,0,0,0,0,0],"id":7,"left_children":[1,3,5,7,9,11,13,15,17,19,21,23,25,27,29,-1,-1,-1,-1,-1,-1,-1,-1,-1,-1,-1,-1,-1,-1,-1,-1],"loss_changes":[7.3312114E3,1.8903511E3,3.4036318E3,8.323213E2,7.129016E1,9.348867E2,2.053691E3,7.5950244E2,1.8310217E2,2.8847229E1,7.113905E1,2.2848364E2,1.2231929E2,1.4924032E3,7.753882E2,0E0,0E0,0E0,0E0,0E0,0E0,0E0,0E0,0E0,0E0,0E0,0E0,0E0,0E0,0E0,0E0],"parents":[2147483647,0,0,1,1,2,2,3,3,4,4,5,5,6,6,7,7,8,8,9,9,10,10,11,11,12,12,13,13,14,14],"right_children":[2,4,6,8,10,12,14,16,18,20,22,24,26,28,30,-1,-1,-1,-1,-1,-1,-1,-1,-1,-1,-1,-1,-1,-1,-1,-1],"split_conditions":[9.250801E0,2.0816852E2,6.8681602E0,-2.283329E-1,2.0466325E-1,-5.448723E2,1.6755508E1,-2.241442E-1,5.116205E0,2.5051472E0,2.3285384E2,-2.9931004E1,3.5247238E0,-2.1669868E2,-1.1443764E1,8.941055E-2,-8.653487E-2,7.40342E-2,-9.8489456E-2,-1.3719339E-2,-1.0936912E-1,1.3327628E-3,-1.06075555E-1,1.1019315E-1,-3.9503794E-2,5.2262526E-2,-1.1721911E-1,-1.0012405E-1,9.241802E-4,3.8045067E-2,-9.185696E-2],"split_indices":[132,40,129,24,35,80,132,8,131,63,40,90,130,200,179,0,0,0,0,0,0,0,0,0,0,0,0,0,0,0,0],"split_type":[0,0,0,0,0,0,0,0,0,0,0,0,0,0,0,0,0,0,0,0,0,0,0,0,0,0,0,0,0,0,0],"sum_hessian":[2.0137326E4,6.849274E3,1.3288052E4,6.3455894E3,5.0368445E2,1.5032107E3,1.1784842E4,6.098203E3,2.4738625E2,3.3651584E2,1.6716861E2,1.3151512E3,1.880594E2,6.2240645E3,5.560777E3,5.9377207E3,1.6048224E2,4.817159E1,1.9921466E2,2.2095354E1,3.1442047E2,1.0515561E2,6.2013E1,1.2468569E3,6.8294365E1,3.2311462E1,1.5574794E2,1.1455787E3,5.078486E3,3.1091452E2,5.2498623E3],"tree_param":{"num_deleted":"0","num_feature":"365","num_nodes":"31","size_leaf_vector":"1"}},{"base_weights":[2.5401115E-3,7.1590877E-1,-4.5597127E-1,9.768678E-1,-3.280032E-1,9.6070623E-1,-6.40288E-1,1.0493073E0,-1.0111655E0,9.938241E-1,-7.5002104E-1,-2.8897685E-1,1.2845743E0,2.8912036E-2,-8.877741E-1,9.007565E-2,-2.2308605E-2,9.170873E-2,-1.0476776E-1,-1.09988935E-1,9.8177716E-2,-2.3885991E-2,-9.359814E-2,-1.07461505E-1,3.8840026E-2,1.13048606E-1,-6.562979E-2,2.8704638E-2,-9.192835E-2,-1.6225057E-2,-8.601751E-2],"categories":[],"categories_nodes":[],"categories_segments":[],"categories_sizes":[],"default_left":[0,0,0,0,0,0,0,0,0,0,0,0,0,0,0,0,0,0,0,0,0,0,0,0,0,0,0,0,0,0,0],"id":8,"left_children":[1,3,5,7,9,11,13,15,17,19,21,23,25,27,29,-1,-1,-1,-1,-1,-1,-1,-1,-1,-1,-1,-1,-1,-1,-1,-1],"loss_changes":[6.4804844E3,2.1121685E3,3.1498186E3,8.9423096E2,8.659114E2,5.625764E2,1.7677139E3,6.095513E2,1.4220612E2,2.093854E2,2.225086E2,2.3475578E2,2.9970398E2,1.1204563E3,1.000022E3,0E0,0E0,0E0,0E0,0E0,0E0,0E0,0E0,0E0,0E0,0E0,0E0,0E0,0E0,0E0,0E0],"parents":[2147483647,0,0,1,1,2,2,3,3,4,4,5,5,6,6,7,7,8,8,9,9,10,10,11,11,12,12,13,13,14,14],"right_children":[2,4,6,8,10,12,14,16,18,20,22,24,26,28,30,-1,-1,-1,-1,-1,-1,-1,-1,-1,-1,-1,-1,-1,-1,-1,-1],"split_conditions":[1.0322378E1,2.4716101E2,7.4237375E0,1.0030893E0,-1.1185188E0,2.4213417E1,6.62873E0,-3.858033E-1,4.0599413E0,5.446912E0,5.842953E2,-2.3618103E2,-5.362779E2,2.981341E2,1.1173603E1,9.007565E-2,-2.2308605E-2,9.170873E-2,-1.0476776E-1,-1.09988935E-1,9.8177716E-2,-2.3885991E-2,-9.359814E-2,-1.07461505E-1,3.8840026E-2,1.13048606E-1,-6.562979E-2,2.8704638E-2,-9.192835E-2,-1.6225057E-2,-8.601751E-2],"split_indices":[132,320,127,5,215,145,138,24,129,78,280,160,362,320,130,0,0,0,0,0,0,0,0,0,0,0,0,0,0,0,0],"split_type":[0,0,0,0,0,0,0,0,0,0,0,0,0,0,0,0,0,0,0,0,0,0,0,0,0,0,0,0,0,0,0],"sum_hessian":[1.9810605E4,7.7509907E3,1.2059615E4,6.2010107E3,1.5499799E3,1.3878328E3,1.0671783E4,5.9835073E3,2.1750345E2,3.7471637E2,1.1752634E3,2.8560214E2,1.1022306E3,2.881288E3,7.7904946E3,5.6572954E3,3.2621188E2,2.6043604E1,1.9145984E2,3.313358E1,3.415828E2,5.673356E2,6.079279E2,1.2069513E2,1.64907E2,1.0391534E3,6.3077133E1,2.2515393E3,6.2974884E2,1.6744249E3,6.11607E3],"tree_param":{"num_deleted":"0","num_feature":"365","num_nodes":"31","size_leaf_vector":"1"}},{"base_weights":[3.2566995E-3,5.159874E-1,-5.8287865E-1,7.58734E-1,-4.859337E-1,8.466288E-1,-7.9522187E-1,8.631539E-1,-1.0474608E0,-9.6067584E-1,6.98217E-1,-6.583282E-1,1.2082529E0,7.4626285E-1,-8.8297075E-1,8.093563E-2,-1.9070406E-2,6.0454004E-2,-1.0181579E-1,-5.0558176E-2,-1.1077194E-1,-8.54337E-2,8.503159E-2,-8.9667454E-2,4.8045415E-2,1.08192645E-1,-1.4612625E-2,-7.117922E-2,1.00435436E-1,-4.9088784E-2,-1.0625809E-1],"categories":[],"categories_nodes":[],"categories_segments":[],"categories_sizes":[],"default_left":[0,0,0,0,0,0,0,0,0,0,0,0,0,0,0,0,0,0,0,0,0,0,0,0,0,0,0,0,0,0,0],"id":9,"left_children":[1,3,5,7,9,11,13,15,17,19,21,23,25,27,29,-1,-1,-1,-1,-1,-1,-1,-1,-1,-1,-1,-1,-1,-1,-1,-1],"loss_changes":[5.827688E3,2.5160627E3,2.7471375E3,1.5713164E3,1.1350414E3,6.379294E2,1.0663247E3,1.288395E3,1.8599557E2,1.9971704E2,3.7339243E2,1.3312077E2,1.8968799E2,3.5502045E2,8.930464E2,0E0,0E0,0E0,0E0,0E0,0E0,0E0,0E0,0E0,0E0,0E0,0E0,0E0,0E0,0E0,0E0],"parents":[2147483647,0,0,1,1,2,2,3,3,4,4,5,5,6,6,7,7,8,8,9,9,10,10,11,11,12,12,13,13,14,14],"right_children":[2,4,6,8,10,12,14,16,18,20,22,24,26,28,30,-1,-1,-1,-1,-1,-1,-1,-1,-1,-1,-1,-1,-1,-1,-1,-1],"split_conditions":[1.3260414E1,2.667469E2,8.000047E0,9.2416805E-1,2.091988E1,4.367947E1,2.5485406E0,-6.2243086E-1,-8.466188E1,7.263859E1,1.8126144E-1,-1.9340734E-1,-3.3111126E1,1.4624473E-3,-1.7786746E0,8.093563E-2,-1.9070406E-2,6.0454004E-2,-1.0181579E-1,-5.0558176E-2,-1.1077194E-1,-8.54337E-2,8.503159E-2,-8.9667454E-2,4.8045415E-2,1.08192645E-1,-1.4612625E-2,-7.117922E-2,1.00435436E-1,-4.9088784E-2,-1.0625809E-1],"split_indices":[132,320,127,6,324,305,136,24,84,287,275,167,91,39,12,0,0,0,0,0,0,0,0,0,0,0,0,0,0,0,0],"split_type":[0,0,0,0,0,0,0,0,0,0,0,0,0,0,0,0,0,0,0,0,0,0,0,0,0,0,0,0,0,0,0],"sum_hessian":[1.9389418E4,1.0342475E4,9.046944E3,8.325665E3,2.0168093E3,1.169609E3,7.8773354E3,7.8711924E3,4.5447256E2,1.4398336E3,5.7697577E2,2.2638293E2,9.432261E2,4.2379984E2,7.4535356E3,6.9360415E3,9.351509E2,5.0155205E1,4.0431735E2,8.125811E2,6.272525E2,9.83694E1,4.7860638E2,1.6569582E2,6.0687115E1,8.547397E2,8.8486404E1,1.00369E2,3.2343085E2,4.6456885E3,2.8078467E3],"tree_param":{"num_deleted":"0","num_feature":"365","num_nodes":"31","size_leaf_vector":"1"}},{"base_weights":[-8.9090585E-4,7.208715E-1,-3.697102E-1,8.451712E-1,-1.0051426E0,2.1180285E-2,-8.634102E-1,9.7504723E-1,-7.7755176E-2,-1.0583655E0,1.0444098E0,-1.0158939E0,3.2735834E-1,6.809273E-2,-1.0130559E0,-7.739856E-2,8.243201E-2,8.127839E-2,-8.238411E-2,-2.736631E-2,-9.386424E-2,6.419835E-4,1.1464805E-1,-1.0428624E-1,9.817241E-3,4.749542E-2,-7.1780324E-2,-5.8944676E-2,9.445559E-2,-2.2102749E-2,-9.42133E-2],"categories":[],"categories_nodes":[],"categories_segments":[],"categories_sizes":[],"default_left":[0,0,0,0,0,0,0,0,0,0,0,0,0,0,0,0,0,0,0,0,0,0,0,0,0,0,0,0,0,0,0],"id":10,"left_children":[1,3,5,7,9,11,13,15,17,19,21,23,25,27,29,-1,-1,-1,-1,-1,-1,-1,-1,-1,-1,-1,-1,-1,-1,-1,-1],"loss_changes":[5.0454546E3,1.376012E3,2.4208682E3,7.169409E2,4.8121338E1,2.2235369E3,7.7285596E2,5.646792E2,7.700511E2,3.4077057E1,4.422452E0,5.231101E2,1.763915E3,6.8877E2,5.7877344E2,0E0,0E0,0E0,0E0,0E0,0E0,0E0,0E0,0E0,0E0,0E0,0E0,0E0,0E0,0E0,0E0],"parents":[2147483647,0,0,1,1,2,2,3,3,4,4,5,5,6,6,7,7,8,8,9,9,10,10,11,11,12,12,13,13,14,14],"right_children":[2,4,6,8,10,12,14,16,18,20,22,24,26,28,30,-1,-1,-1,-1,-1,-1,-1,-1,-1,-1,-1,-1,-1,-1,-1,-1],"split_conditions":[9.250801E0,2.1079889E2,1.6906723E1,-2.8134117E1,7.769879E1,-6.151667E2,3.0873997E0,-6.2674994E2,2.5395195E0,5.693065E2,8.232146E0,-2.4536346E2,-1.322805E0,6.533497E1,-1.17817955E1,-7.739856E-2,8.243201E-2,8.127839E-2,-8.238411E-2,-2.736631E-2,-9.386424E-2,6.419835E-4,1.1464805E-1,-1.0428624E-1,9.817241E-3,4.749542E-2,-7.1780324E-2,-5.8944676E-2,9.445559E-2,-2.2102749E-2,-9.42133E-2],"split_indices":[132,40,130,90,296,80,65,80,65,280,51,160,12,41,176,0,0,0,0,0,0,0,0,0,0,0,0,0,0,0,0],"split_type":[0,0,0,0,0,0,0,0,0,0,0,0,0,0,0,0,0,0,0,0,0,0,0,0,0,0,0,0,0,0,0],"sum_hessian":[1.8951762E4,6.4088027E3,1.2542958E4,5.9788047E3,4.2999796E2,7.0007886E3,5.54217E3,5.2412915E3,7.3751294E2,4.196333E2,1.0364656E1,1.595142E3,5.4056465E3,7.6709485E2,4.775075E3,1.4470775E2,5.096584E3,3.431366E2,3.9437634E2,5.869493E1,3.609384E2,3.1755247E0,7.1891317E0,1.2733555E3,3.2178647E2,4.440502E3,9.651444E2,4.4523895E2,3.218559E2,8.726247E2,3.9024504E3],"tree_param":{"num_deleted":"0","num_feature":"365","num_nodes":"31","size_leaf_vector":"1"}},{"base_weights":[5.40759E-3,4.2584172E-1,-5.666702E-1,6.9414765E-1,-3.6113134E-1,8.9069295E-1,-7.616848E-1,7.943454E-1,-1.1264788E0,-7.46768E-1,6.3926345E-1,-1.4090659E-1,1.3278339E0,5.9198234E-2,-9.208778E-1,7.26787E-2,-4.2693105E-2,7.9132386E-2,-1.14908695E-1,-2.085479E-2,-8.8355556E-2,8.704527E-2,-8.455644E-2,8.297428E-2,-4.1354064E-2,1.1193258E-1,-1.1455438E-1,-6.711234E-2,5.6346893E-2,-8.015065E-3,-8.2357146E-2],"categories":[],"categories_nodes":[],"categories_segments":[],"categories_sizes":[],"default_left":[0,0,0,0,0,0,0,0,0,0,0,0,0,0,0,0,0,0,0,0,0,0,0,0,0,0,0,0,0,0,0],"id":11,"left_children":[1,3,5,7,9,11,13,15,17,19,21,23,25,27,29,-1,-1,-1,-1,-1,-1,-1,-1,-1,-1,-1,-1,-1,-1,-1,-1],"loss_changes":[4.4546245E3,2.2543818E3,2.2303894E3,1.4532329E3,1.0478225E3,4.180346E2,9.0445166E2,1.144458E3,2.7397443E2,3.4033923E2,5.7652185E2,1.2298516E2,1.300979E2,6.52324E2,5.163198E2,0E0,0E0,0E0,0E0,0E0,0E0,0E0,0E0,0E0,0E0,0E0,0E0,0E0,0E0,0E0,0E0],"parents":[2147483647,0,0,1,1,2,2,3,3,4,4,5,5,6,6,7,7,8,8,9,9,10,10,11,11,12,12,13,13,14,14],"right_children":[2,4,6,8,10,12,14,16,18,20,22,24,26,28,30,-1,-1,-1,-1,-1,-1,-1,-1,-1,-1,-1,-1,-1,-1,-1,-1],"split_conditions":[1.4112177E1,2.4936551E2,7.2025747E0,-3.7201267E-1,1.2383975E0,5.581138E1,6.183959E0,-3.559724E-1,1.7556416E0,2.885183E2,-1.1670811E1,3.1276455E0,-5.420539E2,2.6019411E1,-1.4021217E1,7.26787E-2,-4.2693105E-2,7.9132386E-2,-1.14908695E-1,-2.085479E-2,-8.8355556E-2,8.704527E-2,-8.455644E-2,8.297428E-2,-4.1354064E-2,1.1193258E-1,-1.1455438E-1,-6.711234E-2,5.6346893E-2,-8.015065E-3,-8.2357146E-2],"split_indices":[132,320,127,8,275,297,134,24,65,320,170,136,80,159,176,0,0,0,0,0,0,0,0,0,0,0,0,0,0,0,0],"split_type":[0,0,0,0,0,0,0,0,0,0,0,0,0,0,0,0,0,0,0,0,0,0,0,0,0,0,0,0,0,0,0],"sum_hessian":[1.8518781E4,1.067436E4,7.8444214E3,7.960574E3,2.7137861E3,9.2532153E2,6.9190996E3,7.545906E3,4.146683E2,1.9589824E3,7.5480383E2,2.755369E2,6.497846E2,1.1238646E3,5.7952354E3,6.9490474E3,5.968584E2,5.26561E1,3.620122E2,8.3127966E2,1.1277026E3,5.972065E2,1.5759735E2,6.617703E1,2.0935986E2,6.3393054E2,1.5854064E1,4.6963126E2,6.542334E2,6.775096E2,5.1177256E3],"tree_param":{"num_deleted":"0","num_feature":"365","num_nodes":"31","size_leaf_vector":"1"}},{"base_weights":[-1.012481E-3,-6.013807E-1,3.339919E-1,1.895525E-1,-1.074318E0,5.167986E-1,-1.093344E0,7.6807237E-1,-1.0509894E0,-1.1568431E0,-2.6115045E-2,6.6914564E-1,-9.3351084E-1,1.0126064E0,-1.2618295E0,-4.9110245E-2,9.0994515E-2,-3.5581656E-2,-1.0441992E-1,-9.67015E-2,4.2735305E-2,5.0100923E-2,-9.2040636E-2,6.114005E-2,-9.70067E-2,8.639945E-2,-9.086865E-2,-1.1288242E-1,1.0609289E-1,-4.1667912E-2,-1.0853914E-1],"categories":[],"categories_nodes":[],"categories_segments":[],"categories_sizes":[],"default_left":[0,0,0,0,0,0,0,0,0,0,0,0,0,0,0,0,0,0,0,0,0,0,0,0,0,0,0,0,0,0,0],"id":12,"left_children":[1,3,5,7,9,11,13,15,17,19,21,23,25,27,29,-1,-1,-1,-1,-1,-1,-1,-1,-1,-1,-1,-1,-1,-1,-1,-1],"loss_changes":[3.6566797E3,2.4360374E3,3.0453374E3,1.7500479E3,3.5236963E2,2.2863667E3,4.7148694E2,8.4953516E2,1.1878357E2,3.3242432E2,2.1975772E2,1.6763975E3,4.0204175E2,7.6848976E1,8.542798E1,0E0,0E0,0E0,0E0,0E0,0E0,0E0,0E0,0E0,0E0,0E0,0E0,0E0,0E0,0E0,0E0],"parents":[2147483647,0,0,1,1,2,2,3,3,4,4,5,5,6,6,7,7,8,8,9,9,10,10,11,11,12,12,13,13,14,14],"right_children":[2,4,6,8,10,12,14,16,18,20,22,24,26,28,30,-1,-1,-1,-1,-1,-1,-1,-1,-1,-1,-1,-1,-1,-1,-1,-1],"split_conditions":[-2.8147208E2,-1.617595E1,7.4885994E-1,-1.4518087E1,1.950402E1,1.3853186E0,2.8099859E0,1.1436453E-1,-5.7151937E0,6.7521774E1,7.1935735E0,1.1418879E0,-5.288394E0,1.3896746E-4,4.7039366E0,-4.9110245E-2,9.0994515E-2,-3.5581656E-2,-1.0441992E-1,-9.67015E-2,4.2735305E-2,5.0100923E-2,-9.2040636E-2,6.114005E-2,-9.70067E-2,8.639945E-2,-9.086865E-2,-1.1288242E-1,1.0609289E-1,-4.1667912E-2,-1.0853914E-1],"split_indices":[160,166,5,170,332,29,130,35,10,296,60,6,360,37,146,0,0,0,0,0,0,0,0,0,0,0,0,0,0,0,0],"split_type":[0,0,0,0,0,0,0,0,0,0,0,0,0,0,0,0,0,0,0,0,0,0,0,0,0,0,0,0,0,0,0],"sum_hessian":[1.8178908E4,6.5106113E3,1.1668297E4,2.4364004E3,4.074211E3,1.034417E4,1.3241266E3,1.6618617E3,7.745386E2,3.7766743E3,2.9753653E2,9.361413E3,9.8275714E2,9.767349E1,1.2264531E3,3.502975E2,1.3115642E3,2.2979419E2,5.447444E2,3.6644949E3,1.12179565E2,1.8851408E2,1.0902244E2,8.911653E3,4.4975943E2,8.930232E1,8.9345483E2,1.0751354E1,8.6922134E1,1.4011186E2,1.0863412E3],"tree_param":{"num_deleted":"0","num_feature":"365","num_nodes":"31","size_leaf_vector":"1"}},{"base_weights":[-2.505762E-3,6.342405E-1,-3.146509E-1,8.571167E-1,-1.6768432E-1,-9.793477E-2,-1.0831559E0,9.788033E-1,-3.5394542E-2,4.570979E-1,-8.460786E-1,1.3677244E-1,-1.0789338E0,-4.61515E-2,-1.211418E0,8.30586E-2,-4.253816E-2,6.888708E-2,-7.919868E-2,7.022397E-2,-7.181731E-2,-8.8282414E-2,-1.0229821E-2,4.6577457E-2,-3.1623133E-2,-9.4239935E-2,3.4437653E-2,9.973662E-2,-5.5222496E-2,5.664604E-2,-9.818203E-2],"categories":[],"categories_nodes":[],"categories_segments":[],"categories_sizes":[],"default_left":[0,0,0,0,0,0,0,0,0,0,0,0,0,0,0,0,0,0,0,0,0,0,0,0,0,0,0,0,0,0,0],"id":13,"left_children":[1,3,5,7,9,11,13,15,17,19,21,23,25,27,29,-1,-1,-1,-1,-1,-1,-1,-1,-1,-1,-1,-1,-1,-1,-1,-1],"loss_changes":[3.5231033E3,1.0423767E3,1.9808367E3,4.9570874E2,5.382328E2,2.1368457E3,3.4780542E2,3.610923E2,4.7013538E2,3.7759833E2,1.12297424E2,1.7751431E3,2.6849976E2,2.4156021E2,7.178613E1,0E0,0E0,0E0,0E0,0E0,0E0,0E0,0E0,0E0,0E0,0E0,0E0,0E0,0E0,0E0,0E0],"parents":[2147483647,0,0,1,1,2,2,3,3,4,4,5,5,6,6,7,7,8,8,9,9,10,10,11,11,12,12,13,13,14,14],"right_children":[2,4,6,8,10,12,14,16,18,20,22,24,26,28,30,-1,-1,-1,-1,-1,-1,-1,-1,-1,-1,-1,-1,-1,-1,-1,-1],"split_conditions":[9.163473E0,2.3551828E2,2.5946915E1,-2.778841E1,-2.7200966E0,2.456696E0,-1.6525318E1,-7.548813E-1,2.5395195E0,-5.880695E0,6.857164E1,-3.8615544E0,1.0492818E1,4.9844155E0,-1.490024E1,8.30586E-2,-4.253816E-2,6.888708E-2,-7.919868E-2,7.022397E-2,-7.181731E-2,-8.8282414E-2,-1.0229821E-2,4.6577457E-2,-3.1623133E-2,-9.4239935E-2,3.4437653E-2,9.973662E-2,-5.5222496E-2,5.664604E-2,-9.818203E-2],"split_indices":[132,320,127,90,15,246,172,8,65,8,41,10,2,63,214,0,0,0,0,0,0,0,0,0,0,0,0,0,0,0,0],"split_type":[0,0,0,0,0,0,0,0,0,0,0,0,0,0,0,0,0,0,0,0,0,0,0,0,0,0,0,0,0,0,0],"sum_hessian":[1.7723816E4,5.829941E3,1.1893875E4,4.5620747E3,1.267866E3,9.278596E3,2.615279E3,4.0147168E3,5.4735815E2,6.601058E2,6.077602E2,7.48786E3,1.790736E3,2.8810208E2,2.327177E3,3.8631082E3,1.5160855E2,2.8226648E2,2.650917E2,5.0402118E2,1.5608458E2,4.4689008E2,1.6087013E2,4.075726E3,3.4121335E3,1.6807129E3,1.10022964E2,9.544325E1,1.9265883E2,1.8658401E1,2.3085186E3],"tree_param":{"num_deleted":"0","num_feature":"365","num_nodes":"31","size_leaf_vector":"1"}},{"base_weights":[-2.9581557E-3,3.4317088E-1,-5.383314E-1,-8.9038956E-1,4.8349124E-1,7.0358187E-1,-7.42409E-1,4.1186446E-1,-1.1297239E0,5.930997E-1,-1.070077E0,1.0196128E0,-1.0689601E0,-8.8783634E-1,1.0386769E-1,8.742979E-2,-5.3262454E-2,-9.665183E-2,4.3912258E-2,5.991141E-2,-3.4381937E-2,-1.05579294E-1,3.909692E-3,9.3668014E-2,-6.425973E-2,5.0292537E-2,-1.0155366E-1,1.0631767E-2,-7.7288136E-2,-8.461745E-2,5.5177465E-2],"categories":[],"categories_nodes":[],"categories_segments":[],"categories_sizes":[],"default_left":[0,0,0,0,0,0,0,0,0,0,0,0,0,0,0,0,0,0,0,0,0,0,0,0,0,0,0,0,0,0,0],"id":14,"left_children":[1,3,5,7,9,11,13,15,17,19,21,23,25,27,29,-1,-1,-1,-1,-1,-1,-1,-1,-1,-1,-1,-1,-1,-1,-1,-1],"loss_changes":[3.2342864E3,1.8351998E3,1.737485E3,3.3805304E2,1.6213845E3,5.4315845E2,7.246538E2,1.24644325E2,1.2119983E2,1.4172908E3,1.7551172E2,2.2753937E2,5.084079E1,4.0154004E2,5.886847E2,0E0,0E0,0E0,0E0,0E0,0E0,0E0,0E0,0E0,0E0,0E0,0E0,0E0,0E0,0E0,0E0],"parents":[2147483647,0,0,1,1,2,2,3,3,4,4,5,5,6,6,7,7,8,8,9,9,10,10,11,11,12,12,13,13,14,14],"right_children":[2,4,6,8,10,12,14,16,18,20,22,24,26,28,30,-1,-1,-1,-1,-1,-1,-1,-1,-1,-1,-1,-1,-1,-1,-1,-1],"split_conditions":[1.4726354E1,-6.2783234E2,8.35758E0,2.4568415E0,9.2416805E-1,-5.493482E2,1.506699E1,4.72762E0,7.5889656E1,-5.729739E-1,-5.2766113E2,1.0101375E2,2.1078134E0,4.179342E0,-2.2198935E2,8.742979E-2,-5.3262454E-2,-9.665183E-2,4.3912258E-2,5.991141E-2,-3.4381937E-2,-1.05579294E-1,3.909692E-3,9.3668014E-2,-6.425973E-2,5.0292537E-2,-1.0155366E-1,1.0631767E-2,-7.7288136E-2,-8.461745E-2,5.5177465E-2],"split_indices":[132,80,129,65,6,80,334,140,41,24,80,123,136,134,200,0,0,0,0,0,0,0,0,0,0,0,0,0,0,0,0],"split_type":[0,0,0,0,0,0,0,0,0,0,0,0,0,0,0,0,0,0,0,0,0,0,0,0,0,0,0,0,0,0,0],"sum_hessian":[1.7451451E4,1.0599102E4,6.8523496E3,1.0819132E3,9.517188E3,9.666808E2,5.8856685E3,1.6779216E2,9.1412103E2,8.890613E3,6.265744E2,8.208166E2,1.4586423E2,5.02263E3,8.6303864E2,1.0286575E2,6.492641E1,8.7364496E2,4.047609E1,7.715794E3,1.1748198E3,5.122001E2,1.143743E2,7.5831396E2,6.2502598E1,1.5126809E1,1.3073743E2,3.5754694E2,4.665083E3,2.8901758E2,5.7402106E2],"tree_param":{"num_deleted":"0","num_feature":"365","num_nodes":"31","size_leaf_vector":"1"}},{"base_weights":[8.877067E-4,1.6997471E-1,-9.9259764E-1,-8.980329E-1,3.4819314E-1,8.8814616E-1,-1.1713214E0,-1.5278254E-1,-1.2121452E0,5.5291146E-1,-4.8841566E-1,-1.19946E0,1.2075555E0,-5.0787127E-1,-1.2564462E0,5.3001583E-2,-9.5061585E-2,-7.3866835E-3,-9.873721E-2,5.5071123E-2,-4.507923E-2,-6.955593E-2,3.2323197E-2,3.60776E-2,-1.18502796E-1,1.0436443E-1,-9.104618E-2,4.238815E-2,-7.698129E-2,3.415319E-2,-1.02354914E-1],"categories":[],"categories_nodes":[],"categories_segments":[],"categories_sizes":[],"default_left":[0,0,0,0,0,0,0,0,0,0,0,0,0,0,0,0,0,0,0,0,0,0,0,0,0,0,0,0,0,0,0],"id":15,"left_children":[1,3,5,7,9,11,13,15,17,19,21,23,25,27,29,-1,-1,-1,-1,-1,-1,-1,-1,-1,-1,-1,-1,-1,-1,-1,-1],"loss_changes":[2.862551E3,2.7720767E3,8.3413794E2,4.8723193E2,2.137857E3,1.4521045E2,1.270354E2,5.23247E2,3.5958252E1,1.5170701E3,8.349233E2,1.42924E1,4.4169006E1,1.227946E2,7.82478E1,0E0,0E0,0E0,0E0,0E0,0E0,0E0,0E0,0E0,0E0,0E0,0E0,0E0,0E0,0E0,0E0],"parents":[2147483647,0,0,1,1,2,2,3,3,4,4,5,5,6,6,7,7,8,8,9,9,10,10,11,11,12,12,13,13,14,14],"right_children":[2,4,6,8,10,12,14,16,18,20,22,24,26,28,30,-1,-1,-1,-1,-1,-1,-1,-1,-1,-1,-1,-1,-1,-1,-1,-1],"split_conditions":[5.0979E-1,-6.2369855E2,4.8005624E0,8.558064E0,2.0683613E1,1.4798276E-1,4.7039366E0,2.127987E2,6.5651493E0,1.4864643E0,-1.3781265E1,6.8776855E0,1.2896761E1,7.5740643E0,2.5363643E0,5.3001583E-2,-9.5061585E-2,-7.3866835E-3,-9.873721E-2,5.5071123E-2,-4.507923E-2,-6.955593E-2,3.2323197E-2,3.60776E-2,-1.18502796E-1,1.0436443E-1,-9.104618E-2,4.238815E-2,-7.698129E-2,3.415319E-2,-1.02354914E-1],"split_indices":[5,80,129,48,130,37,146,40,129,29,105,135,130,45,133,0,0,0,0,0,0,0,0,0,0,0,0,0,0,0,0],"split_type":[0,0,0,0,0,0,0,0,0,0,0,0,0,0,0,0,0,0,0,0,0,0,0,0,0,0,0,0,0,0,0],"sum_hessian":[1.7038953E4,1.4561566E4,2.4773875E3,2.0817407E3,1.2479825E4,2.1459845E2,2.262789E3,6.177934E2,1.4639473E3,1.0026739E4,2.4530864E3,2.8069904E1,1.8652855E2,2.58241E2,2.0045481E3,3.4579306E2,2.7200037E2,2.848239E1,1.4354648E3,8.942073E3,1.0846653E3,1.7192089E3,7.338775E2,3.954787E0,2.4115118E1,1.7958842E2,6.9401255E0,7.852458E1,1.7971642E2,2.6712597E1,1.9778354E3],"tree_param":{"num_deleted":"0","num_feature":"365","num_nodes":"31","size_leaf_vector":"1"}},{"base_weights":[-1.0213223E-3,4.436365E-1,-3.6013517E-1,6.0016614E-1,-1.0622665E0,8.103986E-1,-5.3411025E-1,7.59725E-1,-9.1629297E-1,-9.099916E-2,-1.1065582E0,-4.3144703E-1,1.1144098E0,5.109107E-1,-6.8754846E-1,6.931587E-2,-4.9110364E-2,-1.1056803E-1,7.2761774E-2,7.3915124E-2,-6.733922E-2,-9.607119E-2,-6.8213254E-2,-7.63146E-2,2.7192274E-2,1.0016412E-1,-5.1917236E-2,6.913084E-2,-8.056257E-2,1.600454E-2,-6.4280264E-2],"categories":[],"categories_nodes":[],"categories_segments":[],"categories_sizes":[],"default_left":[0,0,0,0,0,0,0,0,0,0,0,0,0,0,0,0,0,0,0,0,0,0,0,0,0,0,0,0,0,0,0],"id":16,"left_children":[1,3,5,7,9,11,13,15,17,19,21,23,25,27,29,-1,-1,-1,-1,-1,-1,-1,-1,-1,-1,-1,-1,-1,-1,-1,-1],"loss_changes":[2.6604827E3,1.7552375E3,1.8774463E3,1.6323997E3,2.9944153E1,4.509519E2,1.28719E3,8.9511914E2,5.476475E2,2.4976194E1,1.48272705E1,9.520633E1,2.3357092E2,5.5202356E2,7.2050195E2,0E0,0E0,0E0,0E0,0E0,0E0,0E0,0E0,0E0,0E0,0E0,0E0,0E0,0E0,0E0,0E0],"parents":[2147483647,0,0,1,1,2,2,3,3,4,4,5,5,6,6,7,7,8,8,9,9,10,10,11,11,12,12,13,13,14,14],"right_children":[2,4,6,8,10,12,14,16,18,20,22,24,26,28,30,-1,-1,-1,-1,-1,-1,-1,-1,-1,-1,-1,-1,-1,-1,-1,-1],"split_conditions":[7.6494675E0,2.0899794E2,7.2025747E0,1.7000778E1,2.5315611E0,4.367947E1,-1.8901056E1,-4.1389456E-1,-5.362779E2,1.47561035E1,5.966733E1,-1.1650612E0,-5.4371545E2,-5.2955407E-1,7.3116636E0,6.931587E-2,-4.9110364E-2,-1.1056803E-1,7.2761774E-2,7.3915124E-2,-6.733922E-2,-9.607119E-2,-6.8213254E-2,-7.63146E-2,2.7192274E-2,1.0016412E-1,-5.1917236E-2,6.913084E-2,-8.056257E-2,1.600454E-2,-6.4280264E-2],"split_indices":[138,40,127,47,59,305,172,24,80,42,41,167,80,6,130,0,0,0,0,0,0,0,0,0,0,0,0,0,0,0,0],"split_type":[0,0,0,0,0,0,0,0,0,0,0,0,0,0,0,0,0,0,0,0,0,0,0,0,0,0,0,0,0,0,0],"sum_hessian":[1.6659102E4,7.442822E3,9.216279E3,6.742633E3,7.0018866E2,1.1920092E3,8.02427E3,6.101238E3,6.413952E2,3.076916E1,6.694195E2,2.3427574E2,9.577334E2,1.026962E3,6.997308E3,5.6617827E3,4.3945517E2,5.1125906E2,1.3013615E2,1.2927871E1,1.784129E1,4.850714E2,1.8434808E2,1.3960512E2,9.467061E1,8.8871094E2,6.9022415E1,8.335028E2,1.9345924E2,8.083101E2,6.188998E3],"tree_param":{"num_deleted":"0","num_feature":"365","num_nodes":"31","size_leaf_vector":"1"}},{"base_weights":[-2.3894503E-3,1.4464915E-1,-1.0061336E0,-9.6018606E-1,2.913468E-1,8.2759506E-1,-1.1709073E0,1.1049558E0,-1.2140775E0,5.503064E-1,-2.71847E-1,-1.1137509E0,1.1664282E0,-8.506598E-1,-1.2971741E0,1.0606886E-1,-4.8108347E-2,1.7271535E-2,-9.87801E-2,5.524922E-2,-6.1551273E-2,-5.107626E-2,4.574567E-2,-1.1076757E-1,4.8627008E-2,1.01059265E-1,-7.7998504E-2,3.099052E-4,-8.30438E-2,-9.2113344E-4,-1.0499806E-1],"categories":[],"categories_nodes":[],"categories_segments":[],"categories_sizes":[],"default_left":[0,0,0,0,0,0,0,0,0,0,0,0,0,0,0,0,0,0,0,0,0,0,0,0,0,0,0,0,0,0,0],"id":17,"left_children":[1,3,5,7,9,11,13,15,17,19,21,23,25,27,29,-1,-1,-1,-1,-1,-1,-1,-1,-1,-1,-1,-1,-1,-1,-1,-1],"loss_changes":[2.4040522E3,2.302832E3,6.2986206E2,8.7456555E2,1.8294392E3,1.14533005E2,7.5921875E1,6.9777695E1,4.422827E1,1.5915364E3,1.2224436E3,1.30644E1,3.1753998E1,8.710324E1,2.6761719E1,0E0,0E0,0E0,0E0,0E0,0E0,0E0,0E0,0E0,0E0,0E0,0E0,0E0,0E0,0E0,0E0],"parents":[2147483647,0,0,1,1,2,2,3,3,4,4,5,5,6,6,7,7,8,8,9,9,10,10,11,11,12,12,13,13,14,14],"right_children":[2,4,6,8,10,12,14,16,18,20,22,24,26,28,30,-1,-1,-1,-1,-1,-1,-1,-1,-1,-1,-1,-1,-1,-1,-1,-1],"split_conditions":[7.4885994E-1,-2.3494234E2,4.8005624E0,-1.2458382E1,2.4496622E2,1.8599425E-1,1.5061896E0,-7.35184E0,5.5079083E0,-5.1792675E-1,6.111137E0,-1.1044471E1,-2.778841E1,5.2149115E0,3.0471802E0,1.0606886E-1,-4.8108347E-2,1.7271535E-2,-9.87801E-2,5.524922E-2,-6.1551273E-2,-5.107626E-2,4.574567E-2,-1.1076757E-1,4.8627008E-2,1.01059265E-1,-7.7998504E-2,3.099052E-4,-8.30438E-2,-9.2113344E-4,-1.0499806E-1],"split_indices":[5,200,129,216,320,37,5,218,129,20,339,117,90,150,133,0,0,0,0,0,0,0,0,0,0,0,0,0,0,0,0],"split_type":[0,0,0,0,0,0,0,0,0,0,0,0,0,0,0,0,0,0,0,0,0,0,0,0,0,0,0,0,0,0,0],"sum_hessian":[1.6286247E4,1.420597E4,2.0802778E3,1.6644142E3,1.2541556E4,1.711343E2,1.9091436E3,1.8181256E2,1.4826016E3,8.591389E3,3.9501665E3,2.5046738E1,1.4608755E2,5.422859E2,1.3668575E3,1.6122179E2,2.0590767E1,2.0925777E1,1.4616758E3,7.7662417E3,8.2514685E2,2.753867E3,1.1962996E3,2.1861305E1,3.1854334E0,1.4020567E2,5.8818803E0,9.760932E1,4.446766E2,1.6174162E1,1.3506835E3],"tree_param":{"num_deleted":"0","num_feature":"365","num_nodes":"31","size_leaf_vector":"1"}},{"base_weights":[-4.3170224E-3,1.4911738E-1,-9.0536886E-1,-8.5132295E-1,3.0038238E-1,-2.3683485E-2,-1.0750645E0,2.2532035E-1,-1.0744476E0,4.085895E-1,-9.6541816E-1,-1.2185735E0,5.370387E-1,-5.9867424E-1,-1.2289866E0,-7.9899296E-2,6.686282E-2,-8.937648E-2,4.0796876E-2,4.395597E-2,-3.7493613E-2,2.9936813E-2,-9.0195484E-2,-2.8575258E-2,-1.078301E-1,7.992461E-2,-5.846257E-2,-8.5141264E-2,4.4698976E-2,9.193728E-3,-9.96366E-2],"categories":[],"categories_nodes":[],"categories_segments":[],"categories_sizes":[],"default_left":[0,0,0,0,0,0,0,0,0,0,0,0,0,0,0,0,0,0,0,0,0,0,0,0,0,0,0,0,0,0,0],"id":18,"left_children":[1,3,5,7,9,11,13,15,17,19,21,23,25,27,29,-1,-1,-1,-1,-1,-1,-1,-1,-1,-1,-1,-1,-1,-1,-1,-1],"loss_changes":[2.213617E3,2.070587E3,3.4844202E2,4.3202563E2,1.6282206E3,2.5341356E2,1.4233496E2,2.3189766E2,1.0149243E2,1.3533496E3,2.0370508E2,1.2804916E1,1.5148975E2,2.5886823E2,3.291577E1,0E0,0E0,0E0,0E0,0E0,0E0,0E0,0E0,0E0,0E0,0E0,0E0,0E0,0E0,0E0,0E0],"parents":[2147483647,0,0,1,1,2,2,3,3,4,4,5,5,6,6,7,7,8,8,9,9,10,10,11,11,12,12,13,13,14,14],"right_children":[2,4,6,8,10,12,14,16,18,20,22,24,26,28,30,-1,-1,-1,-1,-1,-1,-1,-1,-1,-1,-1,-1,-1,-1,-1,-1],"split_conditions":[2.794673E1,-6.2674994E2,-1.604829E1,2.8338048E0,-7.936109E-1,-1.9996924E2,3.7595944E0,-4.0327522E1,7.671616E1,3.8849503E1,1.1602783E1,7.809205E1,5.865829E0,8.702563E0,-7.1591954E0,-7.9899296E-2,6.686282E-2,-8.937648E-2,4.0796876E-2,4.395597E-2,-3.7493613E-2,2.9936813E-2,-9.0195484E-2,-2.8575258E-2,-1.078301E-1,7.992461E-2,-5.846257E-2,-8.5141264E-2,4.4698976E-2,9.193728E-3,-9.96366E-2],"split_indices":[127,80,172,65,12,200,63,86,41,126,42,285,63,52,224,0,0,0,0,0,0,0,0,0,0,0,0,0,0,0,0],"split_type":[0,0,0,0,0,0,0,0,0,0,0,0,0,0,0,0,0,0,0,0,0,0,0,0,0,0,0,0,0,0,0],"sum_hessian":[1.6008901E4,1.3680124E4,2.328778E3,1.7960531E3,1.188407E4,3.7615E2,1.9526279E3,3.082409E2,1.4878121E3,1.0948862E4,9.352088E2,1.198202E2,2.563298E2,4.7818375E2,1.4744442E3,1.02305405E2,2.059355E2,1.4490643E3,3.8747826E1,9.434473E3,1.5143894E3,1.0069928E2,8.345095E2,1.6230772E1,1.03589424E2,1.8808043E2,6.824937E1,3.4112598E2,1.3705777E2,1.7706102E1,1.4567382E3],"tree_param":{"num_deleted":"0","num_feature":"365","num_nodes":"31","size_leaf_vector":"1"}},{"base_weights":[-2.1337904E-3,6.254807E-1,-2.189642E-1,8.0528146E-1,-9.552117E-2,-3.4042865E-2,-9.2098886E-1,-1.6294456E0,8.448465E-1,-1.0673394E0,3.7093297E-1,1.18227154E-1,-1.081456E0,-8.2527936E-2,-1.095731E0,-1.5937215E-1,6.784122E-2,6.974422E-2,-1.7767024E-1,-1.0540932E-1,1.6012345E-2,5.491054E-2,-6.321612E-2,2.5966605E-2,-4.495815E-2,-3.3117097E-2,-9.796295E-2,6.023205E-2,-5.53016E-2,-7.4058786E-2,-1.0181751E-1],"categories":[],"categories_nodes":[],"categories_segments":[],"categories_sizes":[],"default_left":[0,0,0,0,0,0,0,0,0,0,0,0,0,0,0,0,0,0,0,0,0,0,0,0,0,0,0,0,0,0,0],"id":19,"left_children":[1,3,5,7,9,11,13,15,17,19,21,23,25,27,29,-1,-1,-1,-1,-1,-1,-1,-1,-1,-1,-1,-1,-1,-1,-1,-1],"loss_changes":[2.130303E3,5.2122327E2,1.5103069E3,3.1123364E2,3.645081E2,1.4691644E3,3.551819E2,4.8305145E1,2.634973E2,8.310077E1,1.9953122E2,1.128973E3,1.109939E2,2.138641E2,5.8990723E1,0E0,0E0,0E0,0E0,0E0,0E0,0E0,0E0,0E0,0E0,0E0,0E0,0E0,0E0,0E0,0E0],"parents":[2147483647,0,0,1,1,2,2,3,3,4,4,5,5,6,6,7,7,8,8,9,9,10,10,11,11,12,12,13,13,14,14],"right_children":[2,4,6,8,10,12,14,16,18,20,22,24,26,28,30,-1,-1,-1,-1,-1,-1,-1,-1,-1,-1,-1,-1,-1,-1,-1,-1],"split_conditions":[7.67215E0,2.3457516E2,2.5807968E1,-1.1987218E2,2.4108368E1,2.7045462E-1,-1.4738224E1,2.383119E1,4.309204E0,2.0235918E0,5.881817E2,8.578325E-3,9.253934E0,5.2855415E0,-7.5411123E-1,-1.5937215E-1,6.784122E-2,6.974422E-2,-1.7767024E-1,-1.0540932E-1,1.6012345E-2,5.491054E-2,-6.321612E-2,2.5966605E-2,-4.495815E-2,-3.3117097E-2,-9.796295E-2,6.023205E-2,-5.53016E-2,-7.4058786E-2,-1.0181751E-1],"split_indices":[132,320,127,82,157,6,172,44,120,13,280,21,136,63,28,0,0,0,0,0,0,0,0,0,0,0,0,0,0,0,0],"split_type":[0,0,0,0,0,0,0,0,0,0,0,0,0,0,0,0,0,0,0,0,0,0,0,0,0,0,0,0,0,0,0],"sum_hessian":[1.5652396E4,4.018506E3,1.1633891E4,3.2164275E3,8.0207874E2,9.209258E3,2.424633E3,5.0749184E1,3.1656782E3,2.5977838E2,5.4230035E2,8.041062E3,1.1681957E3,4.1851706E2,2.006116E3,4.4474293E1,6.2748923E0,3.1388274E3,2.685085E1,2.1697435E2,4.2804016E1,4.2683566E2,1.154647E2,6.1699395E3,1.8711223E3,2.0701843E2,9.6117725E2,1.7624287E2,2.422742E2,1.0267361E3,9.793799E2],"tree_param":{"num_deleted":"0","num_feature":"365","num_nodes":"31","size_leaf_vector":"1"}},{"base_weights":[-4.4029974E-3,1.3260023E-1,-9.723251E-1,-7.886992E-1,2.980668E-1,6.3300115E-1,-1.230559E0,9.359928E-1,-1.0968603E0,6.847799E-1,-1.5651844E-1,1.0371121E0,-5.6135005E-1,-2.3819365E-2,-1.2779765E0,9.520618E-2,-9.373988E-2,-5.6380708E-2,-9.997824E-2,7.637618E-2,7.097051E-3,5.2395486E-3,-7.715368E-2,9.352164E-2,-3.5439454E-2,3.606341E-2,-8.575675E-2,9.4221085E-2,-7.297749E-2,-8.7117314E-2,-1.111172E-1],"categories":[],"categories_nodes":[],"categories_segments":[],"categories_sizes":[],"default_left":[0,0,0,0,0,0,0,0,0,0,0,0,0,0,0,0,0,0,0,0,0,0,0,0,0,0,0,0,0,0,0],"id":20,"left_children":[1,3,5,7,9,11,13,15,17,19,21,23,25,27,29,-1,-1,-1,-1,-1,-1,-1,-1,-1,-1,-1,-1,-1,-1,-1,-1],"loss_changes":[2.0411628E3,2.0556274E3,7.920337E2,1.0922222E3,2.0096885E3,1.2856924E2,9.393799E1,1.683353E2,1.03360596E2,9.9363696E2,9.427439E2,3.934056E1,3.5482174E1,6.8591965E1,3.1431396E1,0E0,0E0,0E0,0E0,0E0,0E0,0E0,0E0,0E0,0E0,0E0,0E0,0E0,0E0,0E0,0E0],"parents":[2147483647,0,0,1,1,2,2,3,3,4,4,5,5,6,6,7,7,8,8,9,9,10,10,11,11,12,12,13,13,14,14],"right_children":[2,4,6,8,10,12,14,16,18,20,22,24,26,28,30,-1,-1,-1,-1,-1,-1,-1,-1,-1,-1,-1,-1,-1,-1,-1,-1],"split_conditions":[-1.0757797E0,-2.2198935E2,2.0971262E0,-1.0652937E1,-3.631073E1,3.1095394E1,1.1677394E1,-9.125596E0,7.687709E1,2.334162E2,2.4278265E1,1.2850697E-1,4.2942276E0,8.725041E0,-5.852843E2,9.520618E-2,-9.373988E-2,-5.6380708E-2,-9.997824E-2,7.637618E-2,7.097051E-3,5.2395486E-3,-7.715368E-2,9.352164E-2,-3.5439454E-2,3.606341E-2,-8.575675E-2,9.4221085E-2,-7.297749E-2,-8.7117314E-2,-1.111172E-1],"split_indices":[8,200,65,216,92,125,1,10,287,320,127,29,146,130,80,0,0,0,0,0,0,0,0,0,0,0,0,0,0,0,0],"split_type":[0,0,0,0,0,0,0,0,0,0,0,0,0,0,0,0,0,0,0,0,0,0,0,0,0,0,0,0,0,0,0],"sum_hessian":[1.5389798E4,1.3482233E4,1.907565E3,2.0520845E3,1.1430148E4,2.6407687E2,1.643488E3,3.1071832E2,1.7413661E3,6.175986E3,5.254163E3,1.974759E2,6.660097E1,6.227406E1,1.581214E3,2.7772223E2,3.29961E1,4.902228E2,1.2511433E3,4.2504473E3,1.9255385E3,4.1221777E3,1.1319852E3,1.8157181E2,1.5904111E1,2.2306253E1,4.4294716E1,2.6284847E1,3.598921E1,5.8932446E2,9.9188947E2],"tree_param":{"num_deleted":"0","num_feature":"365","num_nodes":"31","size_leaf_vector":"1"}},{"base_weights":[1.9846302E-3,1.8660036E-1,-6.676872E-1,-7.982118E-1,3.3778858E-1,1.2928452E-1,-9.3115926E-1,-1.0888116E0,-9.573175E-2,6.7644906E-1,-1.16966136E-1,-4.7010425E-1,1.0234329E0,-5.396479E-1,-1.3110625E0,-9.1972925E-2,1.9107014E-2,6.5819405E-2,-3.9524574E-2,6.0311124E-2,-6.657493E-2,-5.83398E-2,1.8891895E-2,2.7981743E-2,-8.3592534E-2,1.0163669E-1,-7.421007E-2,-5.077235E-3,-8.612571E-2,-1.1548592E-1,-9.067457E-2],"categories":[],"categories_nodes":[],"categories_segments":[],"categories_sizes":[],"default_left":[0,0,0,0,0,0,0,0,0,0,0,0,0,0,0,0,0,0,0,0,0,0,0,0,0,0,0,0,0,0,0],"id":21,"left_children":[1,3,5,7,9,11,13,15,17,19,21,23,25,27,29,-1,-1,-1,-1,-1,-1,-1,-1,-1,-1,-1,-1,-1,-1,-1,-1],"loss_changes":[1.8657218E3,1.7616345E3,6.849855E2,3.2122913E2,1.5797072E3,4.3520834E2,3.6368237E2,9.033667E1,1.6939027E2,6.874419E2,9.4689636E2,2.2955154E2,1.5827002E2,3.089174E2,2.7368408E1,0E0,0E0,0E0,0E0,0E0,0E0,0E0,0E0,0E0,0E0,0E0,0E0,0E0,0E0,0E0,0E0],"parents":[2147483647,0,0,1,1,2,2,3,3,4,4,5,5,6,6,7,7,8,8,9,9,10,10,11,11,12,12,13,13,14,14],"right_children":[2,4,6,8,10,12,14,16,18,20,22,24,26,28,30,-1,-1,-1,-1,-1,-1,-1,-1,-1,-1,-1,-1,-1,-1,-1,-1],"split_conditions":[2.1167673E1,-6.227254E2,3.3489668E0,-2.5473242E2,-3.54638E1,6.7278854E1,-2.6740072E0,7.442777E1,4.0362325E0,1.1418879E0,2.6447351E1,2.4568415E0,-1.4801493E0,1.6704115E1,4.2538296E1,-9.1972925E-2,1.9107014E-2,6.5819405E-2,-3.9524574E-2,6.0311124E-2,-6.657493E-2,-5.83398E-2,1.8891895E-2,2.7981743E-2,-8.3592534E-2,1.0163669E-1,-7.421007E-2,-5.077235E-3,-8.612571E-2,-1.1548592E-1,-9.067457E-2],"split_indices":[130,362,65,160,92,41,10,41,140,6,155,65,8,47,361,0,0,0,0,0,0,0,0,0,0,0,0,0,0,0,0],"split_type":[0,0,0,0,0,0,0,0,0,0,0,0,0,0,0,0,0,0,0,0,0,0,0,0,0,0,0,0,0,0,0],"sum_hessian":[1.5089317E4,1.1829124E4,3.260193E3,1.573659E3,1.0255466E4,8.100421E2,2.450151E3,1.1126777E3,4.6098138E2,5.8778804E3,4.377585E3,4.8517166E2,3.2487048E2,1.2079623E3,1.2421887E3,1.0641157E3,4.856204E1,1.3904634E2,3.2193503E2,5.591432E3,2.8644806E2,1.6009117E3,2.7766733E3,2.0004819E2,2.8512347E2,2.887159E2,3.6154575E1,6.4088434E2,5.6707794E2,7.0704517E2,5.3514355E2],"tree_param":{"num_deleted":"0","num_feature":"365","num_nodes":"31","size_leaf_vector":"1"}},{"base_weights":[-3.1079298E-3,1.2595552E-1,-9.4039464E-1,-8.5731643E-1,2.4928083E-1,8.68612E-1,-1.0945468E0,9.0516114E-1,-1.1318109E0,4.034559E-1,-6.0583586E-1,1.1030617E0,-1.1272783E0,4.1195846E-1,-1.1232876E0,9.05323E-2,-7.785602E-2,-9.3599655E-2,-1.930523E-2,4.099897E-2,-6.8328775E-2,1.832325E-2,-8.899847E-2,-9.208973E-2,9.6293665E-2,-0E0,-1.15913495E-1,-1.0130556E-1,9.423962E-2,-6.555519E-2,-1.00160345E-1],"categories":[],"categories_nodes":[],"categories_segments":[],"categories_sizes":[],"default_left":[0,0,0,0,0,0,0,0,0,0,0,0,0,0,0,0,0,0,0,0,0,0,0,0,0,0,0,0,0,0,0],"id":22,"left_children":[1,3,5,7,9,11,13,15,17,19,21,23,25,27,29,-1,-1,-1,-1,-1,-1,-1,-1,-1,-1,-1,-1,-1,-1,-1,-1],"loss_changes":[1.7835665E3,1.5715636E3,4.9860706E2,6.998013E2,1.5183933E3,6.7047356E1,7.175391E1,8.4136215E1,4.208716E1,1.3382365E3,7.445239E2,3.0056961E1,5.5622845E0,4.1928177E1,6.190747E1,0E0,0E0,0E0,0E0,0E0,0E0,0E0,0E0,0E0,0E0,0E0,0E0,0E0,0E0,0E0,0E0],"parents":[2147483647,0,0,1,1,2,2,3,3,4,4,5,5,6,6,7,7,8,8,9,9,10,10,11,11,12,12,13,13,14,14],"right_children":[2,4,6,8,10,12,14,16,18,20,22,24,26,28,30,-1,-1,-1,-1,-1,-1,-1,-1,-1,-1,-1,-1,-1,-1,-1,-1],"split_conditions":[7.4885994E-1,-2.3301569E2,4.0599413E0,-1.1529169E1,9.870934E-1,-6.12724E-2,3.2261622E-1,-9.804735E0,8.1356585E-2,6.490723E-1,-5.334856E0,-4.1198167E-1,2.437263E0,2.9874372E-1,1.5061896E0,9.05323E-2,-7.785602E-2,-9.3599655E-2,-1.930523E-2,4.099897E-2,-6.8328775E-2,1.832325E-2,-8.899847E-2,-9.208973E-2,9.6293665E-2,-0E0,-1.15913495E-1,-1.0130556E-1,9.423962E-2,-6.555519E-2,-1.00160345E-1],"split_indices":[5,200,129,216,29,23,136,179,238,6,10,29,3,37,5,0,0,0,0,0,0,0,0,0,0,0,0,0,0,0,0],"split_type":[0,0,0,0,0,0,0,0,0,0,0,0,0,0,0,0,0,0,0,0,0,0,0,0,0,0,0,0,0,0,0],"sum_hessian":[1.4741288E4,1.2957774E4,1.7835138E3,1.4433322E3,1.1514442E4,1.3963113E2,1.6438827E3,1.9413919E2,1.2491929E3,9.756092E3,1.7583505E3,1.2539848E2,1.4232645E1,3.0459688E1,1.613423E3,1.7365112E2,2.0488064E1,1.197421E3,5.1771935E1,8.97834E3,7.7775195E2,6.64199E2,1.0941515E3,4.8691077E0,1.2052937E2,3.3627422E0,1.0869903E1,9.300342E0,2.1159348E1,4.8252435E2,1.1308987E3],"tree_param":{"num_deleted":"0","num_feature":"365","num_nodes":"31","size_leaf_vector":"1"}},{"base_weights":[-6.158619E-3,4.6213865E-1,-2.5620976E-1,6.3428515E-1,-4.1137606E-1,-6.910649E-2,-9.568802E-1,-9.7066057E-1,7.106461E-1,-7.784504E-1,4.62431E-1,-8.1455106E-1,1.3513637E-1,-3.2573843E-1,-1.1827039E0,2.509094E-3,-1.3802937E-1,6.0673695E-2,-1.4014982E-1,-7.489826E-2,3.961863E-2,-5.1768567E-2,8.41575E-2,-7.493401E-2,7.9887494E-2,3.0845111E-2,-5.2465063E-2,2.3362689E-2,-6.2221836E-2,-3.165317E-2,-9.957383E-2],"categories":[],"categories_nodes":[],"categories_segments":[],"categories_sizes":[],"default_left":[0,0,0,0,0,0,0,0,0,0,0,0,0,0,0,0,0,0,0,0,0,0,0,0,0,0,0,0,0,0,0],"id":23,"left_children":[1,3,5,7,9,11,13,15,17,19,21,23,25,27,29,-1,-1,-1,-1,-1,-1,-1,-1,-1,-1,-1,-1,-1,-1,-1,-1],"loss_changes":[1.6954274E3,7.581356E2,1.2372633E3,5.1669653E2,2.6668494E2,1.134586E3,2.829685E2,1.4511746E2,4.7417236E2,1.18084076E2,1.6172424E2,3.5580334E2,1.1588125E3,1.470696E2,7.0768555E1,0E0,0E0,0E0,0E0,0E0,0E0,0E0,0E0,0E0,0E0,0E0,0E0,0E0,0E0,0E0,0E0],"parents":[2147483647,0,0,1,1,2,2,3,3,4,4,5,5,6,6,7,7,8,8,9,9,10,10,11,11,12,12,13,13,14,14],"right_children":[2,4,6,8,10,12,14,16,18,20,22,24,26,28,30,-1,-1,-1,-1,-1,-1,-1,-1,-1,-1,-1,-1,-1,-1,-1,-1],"split_conditions":[6.252804E0,2.7487042E2,-2.0811577E0,-1.07652145E2,1.5606994E1,-6.099781E2,2.0143765E-1,-3.617344E1,4.309204E0,7.477733E1,7.008522E-1,-3.4146477E1,-3.336734E1,-5.8581775E2,2.6185932E0,2.509094E-3,-1.3802937E-1,6.0673695E-2,-1.4014982E-1,-7.489826E-2,3.961863E-2,-5.1768567E-2,8.41575E-2,-7.493401E-2,7.9887494E-2,3.0845111E-2,-5.2465063E-2,2.3362689E-2,-6.2221836E-2,-3.165317E-2,-9.957383E-2],"split_indices":[138,320,8,82,326,362,241,90,120,41,35,88,90,362,65,0,0,0,0,0,0,0,0,0,0,0,0,0,0,0,0],"split_type":[0,0,0,0,0,0,0,0,0,0,0,0,0,0,0,0,0,0,0,0,0,0,0,0,0,0,0,0,0,0,0],"sum_hessian":[1.4476836E4,5.0388325E3,9.438004E3,4.209617E3,8.292153E2,7.449871E3,1.9881322E3,1.9059932E2,4.0190178E3,5.8407635E2,2.4513889E2,1.6016561E3,5.848215E3,5.246638E2,1.4634684E3,8.223792E1,1.083614E2,3.943248E3,7.5769936E1,5.200042E2,6.407219E1,8.4964455E1,1.6017444E2,1.501089E3,1.0056712E2,4.4423374E3,1.4058774E3,2.217468E2,3.0291705E2,1.0747536E2,1.355993E3],"tree_param":{"num_deleted":"0","num_feature":"365","num_nodes":"31","size_leaf_vector":"1"}},{"base_weights":[-1.3396193E-3,1.2697674E-1,-8.3746487E-1,2.778295E-1,-6.4369977E-1,7.712005E-1,-9.964733E-1,3.8354853E-1,-8.60685E-1,6.155446E-1,-9.478424E-1,-1.0002875E0,1.0650682E0,-2.2845198E-1,-1.0837896E0,4.677008E-2,-1.7609587E-2,-7.966821E-2,6.717894E-2,7.7284865E-2,-1.0904542E-1,1.3003097E-3,-9.036887E-2,2.4857514E-2,-9.85459E-2,-9.0605564E-2,9.134463E-2,6.1983146E-2,-5.6877084E-2,5.084167E-2,-8.8598765E-2],"categories":[],"categories_nodes":[],"categories_segments":[],"categories_sizes":[],"default_left":[0,0,0,0,0,0,0,0,0,0,0,0,0,0,0,0,0,0,0,0,0,0,0,0,0,0,0,0,0,0,0],"id":24,"left_children":[1,3,5,7,9,11,13,15,17,19,21,23,25,27,29,-1,-1,-1,-1,-1,-1,-1,-1,-1,-1,-1,-1,-1,-1,-1,-1],"loss_changes":[1.5235824E3,1.4313735E3,4.8408142E2,1.2395729E3,7.7251056E2,8.981288E1,1.14960815E2,1.1438741E3,2.0198102E2,2.7357864E2,2.8469043E2,7.9790287E0,2.6041672E1,8.620698E1,6.3651E1,0E0,0E0,0E0,0E0,0E0,0E0,0E0,0E0,0E0,0E0,0E0,0E0,0E0,0E0,0E0,0E0],"parents":[2147483647,0,0,1,1,2,2,3,3,4,4,5,5,6,6,7,7,8,8,9,9,10,10,11,11,12,12,13,13,14,14],"right_children":[2,4,6,8,10,12,14,16,18,20,22,24,26,28,30,-1,-1,-1,-1,-1,-1,-1,-1,-1,-1,-1,-1,-1,-1,-1,-1],"split_conditions":[5.0979E-1,1.9509277E-1,4.8005624E0,2.0990645E2,-2.6250834E1,1.4798276E-1,2.4568415E0,7.8688866E1,6.5672424E1,-5.5039886E2,7.3116636E0,6.4405003E0,-2.6362702E-1,4.4713144E0,1.3715069E0,4.677008E-2,-1.7609587E-2,-7.966821E-2,6.717894E-2,7.7284865E-2,-1.0904542E-1,1.3003097E-3,-9.036887E-2,2.4857514E-2,-9.85459E-2,-9.0605564E-2,9.134463E-2,6.1983146E-2,-5.6877084E-2,5.084167E-2,-8.8598765E-2],"split_indices":[5,21,129,40,107,37,65,287,297,80,130,135,30,150,131,0,0,0,0,0,0,0,0,0,0,0,0,0,0,0,0],"split_type":[0,0,0,0,0,0,0,0,0,0,0,0,0,0,0,0,0,0,0,0,0,0,0,0,0,0,0,0,0,0,0],"sum_hessian":[1.419814E4,1.2309747E4,1.8883927E3,1.0295306E4,2.0144413E3,1.6946463E2,1.718928E3,9.42123E3,8.740759E2,3.91628E2,1.6228132E3,2.3721714E1,1.4574292E2,1.7596103E2,1.5429669E3,7.067346E3,2.353884E3,8.101498E2,6.3926186E1,3.3316864E2,5.8459377E1,2.5748398E2,1.3653293E3,3.444478E0,2.0277235E1,4.409303E0,1.4133362E2,5.6880898E1,1.1908014E2,2.0567276E1,1.5223997E3],"tree_param":{"num_deleted":"0","num_feature":"365","num_nodes":"31","size_leaf_vector":"1"}},{"base_weights":[-2.8812392E-3,1.06302984E-1,-9.63506E-1,-8.440708E-1,2.2388753E-1,5.5476284E-1,-1.1628441E0,8.542559E-1,-1.1017593E0,4.4654557E-1,-3.8878947E-1,1.0542548E0,-4.6469998E-1,-7.5792246E-2,-1.2080636E0,9.065039E-2,-5.832751E-2,4.3630145E-2,-9.029872E-2,5.7127297E-2,-9.432578E-3,5.1125634E-2,-6.761179E-2,9.579019E-2,-3.0079594E-2,8.2600504E-2,-6.566918E-2,7.089049E-2,-1.0740223E-1,-8.216132E-2,-1.04081884E-1],"categories":[],"categories_nodes":[],"categories_segments":[],"categories_sizes":[],"default_left":[0,0,0,0,0,0,0,0,0,0,0,0,0,0,0,0,0,0,0,0,0,0,0,0,0,0,0,0,0,0,0],"id":25,"left_children":[1,3,5,7,9,11,13,15,17,19,21,23,25,27,29,-1,-1,-1,-1,-1,-1,-1,-1,-1,-1,-1,-1,-1,-1,-1,-1],"loss_changes":[1.4606084E3,1.39741E3,4.308518E2,6.035098E2,1.5182236E3,8.485699E1,6.1554688E1,8.1183014E1,5.380945E1,1.2328002E3,1.3920901E3,2.3355026E1,3.0193987E1,6.379854E1,1.8734253E1,0E0,0E0,0E0,0E0,0E0,0E0,0E0,0E0,0E0,0E0,0E0,0E0,0E0,0E0,0E0,0E0],"parents":[2147483647,0,0,1,1,2,2,3,3,4,4,5,5,6,6,7,7,8,8,9,9,10,10,11,11,12,12,13,13,14,14],"right_children":[2,4,6,8,10,12,14,16,18,20,22,24,26,28,30,-1,-1,-1,-1,-1,-1,-1,-1,-1,-1,-1,-1,-1,-1,-1,-1],"split_conditions":[-8.655591E-1,-2.3494234E2,1.9233377E0,-1.1529169E1,-9.6282625E-1,5.412118E0,1.3754723E0,-1.9104551E1,4.0599413E0,2.4716101E2,8.883663E0,3.6672874E1,3.0367785E0,4.352885E0,3.8668923E0,9.065039E-2,-5.832751E-2,4.3630145E-2,-9.029872E-2,5.7127297E-2,-9.432578E-3,5.1125634E-2,-6.761179E-2,9.579019E-2,-3.0079594E-2,8.2600504E-2,-6.566918E-2,7.089049E-2,-1.0740223E-1,-8.216132E-2,-1.04081884E-1],"split_indices":[8,200,65,216,24,150,134,170,129,320,127,125,146,55,61,0,0,0,0,0,0,0,0,0,0,0,0,0,0,0,0],"split_type":[0,0,0,0,0,0,0,0,0,0,0,0,0,0,0,0,0,0,0,0,0,0,0,0,0,0,0,0,0,0,0],"sum_hessian":[1.3923006E4,1.2502735E4,1.4202706E3,1.3758046E3,1.1126931E4,1.6456538E2,1.2557053E3,1.8089458E2,1.19491E3,8.1613726E3,2.9655576E3,1.1049276E2,5.407263E1,5.0344357E1,1.205361E3,1.5410051E2,2.6794071E1,1.888401E1,1.176026E3,5.536861E3,2.6245117E3,9.116405E2,2.0539172E3,1.0065329E2,9.839464E0,9.972329E0,4.4100304E1,2.8740868E1,2.1603489E1,4.1338455E2,7.919764E2],"tree_param":{"num_deleted":"0","num_feature":"365","num_nodes":"31","size_leaf_vector":"1"}},{"base_weights":[-1.7955168E-3,2.1388607E-1,-4.771165E-1,-8.349136E-1,3.338618E-1,3.4213972E-1,-6.877778E-1,-1.983784E-1,-1.0866355E0,5.9364015E-1,-1.460912E-1,-7.775461E-1,7.342343E-1,-3.173791E-1,-1.0688388E0,3.5346787E-2,-8.474091E-2,-8.8633E-2,7.952478E-3,5.2544422E-2,-8.3442196E-2,-8.307807E-2,8.554364E-3,1.636729E-2,-8.414413E-2,8.526894E-2,-5.227275E-2,-6.891908E-2,4.2761117E-3,-1.7929744E-2,-8.947486E-2],"categories":[],"categories_nodes":[],"categories_segments":[],"categories_sizes":[],"default_left":[0,0,0,0,0,0,0,0,0,0,0,0,0,0,0,0,0,0,0,0,0,0,0,0,0,0,0,0,0,0,0],"id":26,"left_children":[1,3,5,7,9,11,13,15,17,19,21,23,25,27,29,-1,-1,-1,-1,-1,-1,-1,-1,-1,-1,-1,-1,-1,-1,-1,-1],"loss_changes":[1.3921232E3,1.1755488E3,7.3178296E2,1.5331805E2,1.0452725E3,3.8143292E2,4.7546423E2,1.5105304E2,1.7545288E1,5.629387E2,6.650315E2,6.101889E1,2.966846E2,3.4545773E2,6.9225586E1,0E0,0E0,0E0,0E0,0E0,0E0,0E0,0E0,0E0,0E0,0E0,0E0,0E0,0E0,0E0,0E0],"parents":[2147483647,0,0,1,1,2,2,3,3,4,4,5,5,6,6,7,7,8,8,9,9,10,10,11,11,12,12,13,13,14,14],"right_children":[2,4,6,8,10,12,14,16,18,20,22,24,26,28,30,-1,-1,-1,-1,-1,-1,-1,-1,-1,-1,-1,-1,-1,-1,-1,-1],"split_conditions":[1.8331455E1,-6.2783234E2,3.0873997E0,7.841963E0,-3.3125645E1,1.9634036E2,-6.3902063E0,6.621513E2,4.338022E1,3.0821967E-1,-2.9844016E-1,6.3440332E0,-1.1665225E0,-6.3435287E1,3.907803E0,3.5346787E-2,-8.474091E-2,-8.8633E-2,7.952478E-3,5.2544422E-2,-8.3442196E-2,-8.307807E-2,8.554364E-3,1.636729E-2,-8.414413E-2,8.526894E-2,-5.227275E-2,-6.891908E-2,4.2761117E-3,-1.7929744E-2,-8.947486E-2],"split_indices":[130,80,65,48,92,121,170,280,137,16,39,132,8,87,132,0,0,0,0,0,0,0,0,0,0,0,0,0,0,0,0],"split_type":[0,0,0,0,0,0,0,0,0,0,0,0,0,0,0,0,0,0,0,0,0,0,0,0,0,0,0,0,0,0,0],"sum_hessian":[1.3577055E4,9.339503E3,4.237552E3,9.5801013E2,8.381492E3,8.6653235E2,3.3710195E3,2.7210834E2,6.859018E2,5.438067E3,2.9434255E3,2.2442224E2,6.421101E2,1.7104875E3,1.6605321E3,1.5626744E2,1.1584089E2,6.7396136E2,1.1940425E1,5.236626E3,2.0144116E2,6.49606E2,2.2938196E3,4.896457E1,1.7545767E2,5.184998E2,1.23610275E2,6.928436E2,1.01764386E3,9.250783E1,1.5680243E3],"tree_param":{"num_deleted":"0","num_feature":"365","num_nodes":"31","size_leaf_vector":"1"}},{"base_weights":[-9.3308697E-4,1.20057374E-1,-8.208026E-1,2.1909356E-1,-9.0640855E-1,-1.1452404E0,-4.124395E-1,3.6002854E-1,-5.5169964E-1,8.05267E-2,-1.0429479E0,-4.061564E-2,-1.2058797E0,-8.6047477E-1,2.2406052E-1,3.5526555E-2,-7.158947E-2,2.1152351E-2,-8.6559266E-2,6.960317E-2,-3.9816223E-2,-4.2733695E-2,-9.463218E-2,8.2617484E-2,-5.7981014E-2,-3.0508958E-2,-9.896527E-2,-9.21723E-2,-3.73359E-2,-2.7265184E-2,7.7970065E-2],"categories":[],"categories_nodes":[],"categories_segments":[],"categories_sizes":[],"default_left":[0,0,0,0,0,0,0,0,0,0,0,0,0,0,0,0,0,0,0,0,0,0,0,0,0,0,0,0,0,0,0],"id":27,"left_children":[1,3,5,7,9,11,13,15,17,19,21,23,25,27,29,-1,-1,-1,-1,-1,-1,-1,-1,-1,-1,-1,-1,-1,-1,-1,-1],"loss_changes":[1.3247333E3,1.1830734E3,2.2690295E2,1.153147E3,1.3817572E2,6.3884644E1,2.175707E2,9.46875E2,7.105166E2,5.766964E1,6.3263428E1,3.8084854E1,2.2674072E1,5.0702057E1,1.3416391E2,0E0,0E0,0E0,0E0,0E0,0E0,0E0,0E0,0E0,0E0,0E0,0E0,0E0,0E0,0E0,0E0],"parents":[2147483647,0,0,1,1,2,2,3,3,4,4,5,5,6,6,7,7,8,8,9,9,10,10,11,11,12,12,13,13,14,14],"right_children":[2,4,6,8,10,12,14,16,18,20,22,24,26,28,30,-1,-1,-1,-1,-1,-1,-1,-1,-1,-1,-1,-1,-1,-1,-1,-1],"split_conditions":[2.8330475E1,6.490723E-1,-5.0404106E1,2.1737519E-1,6.4242797E0,-3.0755534E0,-6.2679832E1,-5.66384E-1,-2.861074E1,5.313306E2,1.0389624E1,-7.2605033E0,1.9035579E0,-1.7314869E1,1.16168585E1,3.5526555E-2,-7.158947E-2,2.1152351E-2,-8.6559266E-2,6.960317E-2,-3.9816223E-2,-4.2733695E-2,-9.463218E-2,8.2617484E-2,-5.7981014E-2,-3.0508958E-2,-9.896527E-2,-9.21723E-2,-3.73359E-2,-2.7265184E-2,7.7970065E-2],"split_indices":[127,6,86,21,132,228,82,8,95,280,136,7,138,103,332,0,0,0,0,0,0,0,0,0,0,0,0,0,0,0,0],"split_type":[0,0,0,0,0,0,0,0,0,0,0,0,0,0,0,0,0,0,0,0,0,0,0,0,0,0,0,0,0,0,0],"sum_hessian":[1.3351952E4,1.1635587E4,1.7163649E3,1.0612544E4,1.02304266E3,9.553252E2,7.610397E2,8.972617E3,1.6399275E3,1.2429445E2,8.987482E2,4.9886887E1,9.054383E2,4.465302E2,3.1450943E2,8.410035E3,5.625811E2,6.460251E2,9.939024E2,5.2406727E1,7.188772E1,1.950851E2,7.0366315E2,1.9164583E1,3.0722303E1,3.3597813E1,8.718405E2,2.5526764E2,1.9126257E2,1.7968855E2,1.3482088E2],"tree_param":{"num_deleted":"0","num_feature":"365","num_nodes":"31","size_leaf_vector":"1"}},{"base_weights":[-3.5098735E-3,4.417294E-1,-2.1388096E-1,5.527809E-1,-8.233587E-1,-4.7624797E-2,-9.2288446E-1,6.679257E-1,-6.2163335E-1,-2.806289E-1,-1.0186329E0,-4.1850084E-1,3.3741328E-1,3.4324273E-1,-1.0819497E0,5.679477E-2,-1.299414E-1,6.168938E-2,-1.02509335E-1,3.3427168E-2,-5.485095E-2,-9.1327585E-2,-3.6477376E-2,1.1200128E-2,-5.9758224E-2,4.6284452E-2,-4.4916052E-2,-6.87726E-2,7.6412335E-2,-2.4055268E-3,-9.144861E-2],"categories":[],"categories_nodes":[],"categories_segments":[],"categories_sizes":[],"default_left":[0,0,0,0,0,0,0,0,0,0,0,0,0,0,0,0,0,0,0,0,0,0,0,0,0,0,0,0,0,0,0],"id":28,"left_children":[1,3,5,7,9,11,13,15,17,19,21,23,25,27,29,-1,-1,-1,-1,-1,-1,-1,-1,-1,-1,-1,-1,-1,-1,-1,-1],"loss_changes":[1.2277377E3,5.9131494E2,1.0491956E3,5.233672E2,3.558986E1,1.0300682E3,3.409624E2,3.4024548E2,3.1871985E2,2.6171585E1,1.6569763E1,6.742278E2,7.67416E2,1.4023904E2,9.64978E1,0E0,0E0,0E0,0E0,0E0,0E0,0E0,0E0,0E0,0E0,0E0,0E0,0E0,0E0,0E0,0E0],"parents":[2147483647,0,0,1,1,2,2,3,3,4,4,5,5,6,6,7,7,8,8,9,9,10,10,11,11,12,12,13,13,14,14],"right_children":[2,4,6,8,10,12,14,16,18,20,22,24,26,28,30,-1,-1,-1,-1,-1,-1,-1,-1,-1,-1,-1,-1,-1,-1,-1,-1],"split_conditions":[5.876381E0,2.0899794E2,-5.824256E-1,7.4792714E0,3.2901838E0,4.1567728E-1,6.5699234E0,4.309204E0,-2.082325E1,2.1901094E2,-5.761896E2,4.384864E0,-3.4415695E1,5.2141468E1,1.8548462E1,5.679477E-2,-1.299414E-1,6.168938E-2,-1.02509335E-1,3.3427168E-2,-5.485095E-2,-9.1327585E-2,-3.6477376E-2,1.1200128E-2,-5.9758224E-2,4.6284452E-2,-4.4916052E-2,-6.87726E-2,7.6412335E-2,-2.4055268E-3,-9.144861E-2],"split_indices":[138,40,17,60,63,37,127,120,166,40,80,63,90,297,312,0,0,0,0,0,0,0,0,0,0,0,0,0,0,0,0],"split_type":[0,0,0,0,0,0,0,0,0,0,0,0,0,0,0,0,0,0,0,0,0,0,0,0,0,0,0,0,0,0,0],"sum_hessian":[1.3105923E4,4.2049E3,8.901023E3,3.8661636E3,3.387362E2,7.2112466E3,1.6897766E3,3.521424E3,3.447395E2,9.040919E1,2.4832701E2,3.6732627E3,3.5379841E3,1.8839597E2,1.5013806E3,3.458769E3,6.265487E1,1.10707214E2,2.3403229E2,3.308055E1,5.7328632E1,2.0280125E2,4.5525753E1,1.3604268E3,2.3128357E3,2.789973E3,7.4801117E2,6.333103E1,1.25064926E2,8.2667946E1,1.4187126E3],"tree_param":{"num_deleted":"0","num_feature":"365","num_nodes":"31","size_leaf_vector":"1"}},{"base_weights":[-3.222146E-3,1.0822131E-1,-8.1369764E-1,-8.275039E-1,2.1418945E-1,4.641101E-1,-9.861549E-1,7.556572E-1,-1.086226E0,3.9353684E-1,-3.0801377E-1,1.1446773E0,-2.360035E-1,5.0701535E-1,-1.0407692E0,8.522106E-2,-8.207483E-2,-5.629897E-2,-9.4566174E-2,4.0417776E-2,-5.678586E-2,3.0623985E-2,-7.563025E-2,-5.307409E-2,9.7365424E-2,9.695338E-2,-7.1490124E-2,8.075026E-2,-7.744877E-2,-9.720798E-3,-8.7866254E-2],"categories":[],"categories_nodes":[],"categories_segments":[],"categories_sizes":[],"default_left":[0,0,0,0,0,0,0,0,0,0,0,0,0,0,0,0,0,0,0,0,0,0,0,0,0,0,0,0,0,0,0],"id":29,"left_children":[1,3,5,7,9,11,13,15,17,19,21,23,25,27,29,-1,-1,-1,-1,-1,-1,-1,-1,-1,-1,-1,-1,-1,-1,-1,-1],"loss_changes":[1.1631123E3,1.1225698E3,3.435459E2,4.7256934E2,9.5254395E2,8.885173E1,1.1246045E2,9.062215E1,3.528772E1,9.332031E2,1.1452611E3,1.32211075E1,8.893975E1,3.730549E1,6.979529E1,0E0,0E0,0E0,0E0,0E0,0E0,0E0,0E0,0E0,0E0,0E0,0E0,0E0,0E0,0E0,0E0],"parents":[2147483647,0,0,1,1,2,2,3,3,4,4,5,5,6,6,7,7,8,8,9,9,10,10,11,11,12,12,13,13,14,14],"right_children":[2,4,6,8,10,12,14,16,18,20,22,24,26,28,30,-1,-1,-1,-1,-1,-1,-1,-1,-1,-1,-1,-1,-1,-1,-1,-1],"split_conditions":[-1.0489988E0,-2.368995E2,5.938505E0,-1.7792427E1,-3.214934E1,5.7871323E0,3.5067992E0,9.543966E1,7.281269E1,4.0817103E-1,3.3930318E0,-2.8730667E0,3.049986E0,6.575869E-1,3.8855636E0,8.522106E-2,-8.207483E-2,-5.629897E-2,-9.4566174E-2,4.0417776E-2,-5.678586E-2,3.0623985E-2,-7.563025E-2,-5.307409E-2,9.7365424E-2,9.695338E-2,-7.1490124E-2,8.075026E-2,-7.744877E-2,-9.720798E-3,-8.7866254E-2],"split_indices":[12,200,45,176,90,146,131,123,287,6,65,360,131,321,142,0,0,0,0,0,0,0,0,0,0,0,0,0,0,0,0],"split_type":[0,0,0,0,0,0,0,0,0,0,0,0,0,0,0,0,0,0,0,0,0,0,0,0,0,0,0,0,0,0,0],"sum_hessian":[1.2874614E4,1.1318958E4,1.5556565E3,1.1506528E3,1.0168305E4,1.8471979E2,1.3709368E3,1.6130354E2,9.893493E2,7.569162E3,2.5991428E3,9.341788E1,9.13019E1,4.8017303E1,1.3229194E3,1.378126E2,2.3490946E1,2.0012952E2,7.892198E2,6.8739893E3,6.951727E2,1.2473896E3,1.351753E3,3.2286935E0,9.0189186E1,2.8205513E1,6.309639E1,3.6105038E1,1.1912266E1,7.823864E1,1.2446808E3],"tree_param":{"num_deleted":"0","num_feature":"365","num_nodes":"31","size_leaf_vector":"1"}},{"base_weights":[-9.816292E-4,9.507794E-2,-9.153056E-1,2.4316381E-1,-5.082268E-1,6.80522E-1,-1.0685532E0,3.7270242E-1,-5.92857E-1,-8.704183E-1,3.4055936E-1,1.0539412E0,-9.869094E-1,-7.580228E-1,-1.1686962E0,-8.408437E-2,3.543628E-2,1.4354212E-3,-8.813805E-2,-7.3543E-2,4.5285184E-2,-5.7769E-2,6.3363515E-2,9.26664E-2,-6.4492546E-2,2.0672034E-2,-9.9436864E-2,-8.2840845E-2,-1.7534447E-3,-4.364844E-3,-9.508578E-2],"categories":[],"categories_nodes":[],"categories_segments":[],"categories_sizes":[],"default_left":[0,0,0,0,0,0,0,0,0,0,0,0,0,0,0,0,0,0,0,0,0,0,0,0,0,0,0,0,0,0,0],"id":30,"left_children":[1,3,5,7,9,11,13,15,17,19,21,23,25,27,29,-1,-1,-1,-1,-1,-1,-1,-1,-1,-1,-1,-1,-1,-1,-1,-1],"loss_changes":[1.106888E3,1.018903E3,2.937885E2,9.918682E2,6.913246E2,6.675748E1,3.293091E1,7.934846E2,3.8205057E2,1.11173096E2,3.2341418E2,1.781482E1,6.725851E0,5.497583E1,1.8077148E1,0E0,0E0,0E0,0E0,0E0,0E0,0E0,0E0,0E0,0E0,0E0,0E0,0E0,0E0,0E0,0E0],"parents":[2147483647,0,0,1,1,2,2,3,3,4,4,5,5,6,6,7,7,8,8,9,9,10,10,11,11,12,12,13,13,14,14],"right_children":[2,4,6,8,10,12,14,16,18,20,22,24,26,28,30,-1,-1,-1,-1,-1,-1,-1,-1,-1,-1,-1,-1,-1,-1,-1,-1],"split_conditions":[1.0030893E0,2.823007E2,5.140938E0,2.6607642E-1,2.0278461E1,5.8076425E0,1.6118577E0,-1.17024956E2,-1.7139865E0,6.900373E1,9.163785E-1,-8.641306E-2,2.5472503E0,3.5916426E0,3.2261622E-1,-8.408437E-2,3.543628E-2,1.4354212E-3,-8.813805E-2,-7.3543E-2,4.5285184E-2,-5.7769E-2,6.3363515E-2,9.26664E-2,-6.4492546E-2,2.0672034E-2,-9.9436864E-2,-8.2840845E-2,-1.7534447E-3,-4.364844E-3,-9.508578E-2],"split_indices":[5,320,129,21,324,136,5,82,15,296,275,24,130,2,136,0,0,0,0,0,0,0,0,0,0,0,0,0,0,0,0],"split_type":[0,0,0,0,0,0,0,0,0,0,0,0,0,0,0,0,0,0,0,0,0,0,0,0,0,0,0,0,0,0,0],"sum_hessian":[1.2599755E4,1.1402578E4,1.1971769E3,9.155943E3,2.2466353E3,1.0453366E2,1.0926432E3,7.928173E3,1.2277699E3,1.5747534E3,6.7188184E2,8.57565E1,1.8777164E1,2.6877493E2,8.238683E2,3.720743E2,7.5560986E3,5.58348E2,6.6942194E2,1.5233584E3,5.139499E1,2.0009402E2,4.717878E2,8.1607704E1,4.148795E0,3.1342032E0,1.5642961E1,1.9479929E2,7.3975655E1,1.4593942E1,8.0927435E2],"tree_param":{"num_deleted":"0","num_feature":"365","num_nodes":"31","size_leaf_vector":"1"}},{"base_weights":[-1.0161534E-2,3.4911236E-1,-2.4541913E-1,-6.883036E-1,4.9906975E-1,1.5375273E-2,-6.8935436E-1,3.3624494E-1,-1.1239495E0,6.4856243E-1,-6.1988133E-1,-6.6269493E-1,3.1232202E-1,2.3916604E-1,-8.5635066E-1,-6.8628475E-2,6.2628984E-2,6.9034815E-2,-9.181592E-2,5.7042878E-2,-9.159426E-2,4.7368757E-2,-1.058936E-1,2.146929E-2,-7.557874E-2,3.880979E-2,-7.6844096E-2,3.3712525E-2,-9.02649E-2,1.8742602E-2,-7.328808E-2],"categories":[],"categories_nodes":[],"categories_segments":[],"categories_sizes":[],"default_left":[0,0,0,0,0,0,0,0,0,0,0,0,0,0,0,0,0,0,0,0,0,0,0,0,0,0,0,0,0,0,0],"id":31,"left_children":[1,3,5,7,9,11,13,15,17,19,21,23,25,27,29,-1,-1,-1,-1,-1,-1,-1,-1,-1,-1,-1,-1,-1,-1,-1,-1],"loss_changes":[1.0480009E3,7.635845E2,8.675862E2,2.771724E2,7.1756384E2,9.507393E2,4.3025342E2,9.968128E1,2.155957E1,4.381648E2,4.322234E2,3.7793665E2,7.227317E2,1.059209E2,1.5346436E2,0E0,0E0,0E0,0E0,0E0,0E0,0E0,0E0,0E0,0E0,0E0,0E0,0E0,0E0,0E0,0E0],"parents":[2147483647,0,0,1,1,2,2,3,3,4,4,5,5,6,6,7,7,8,8,9,9,10,10,11,11,12,12,13,13,14,14],"right_children":[2,4,6,8,10,12,14,16,18,20,22,24,26,28,30,-1,-1,-1,-1,-1,-1,-1,-1,-1,-1,-1,-1,-1,-1,-1,-1],"split_conditions":[-3.939229E1,-6.0912146E2,2.1141764E1,6.830764E0,-1.8524287E0,2.3454296E1,6.906728E0,-7.449521E-1,1.4282206E1,-8.989479E-1,3.5021796E0,2.6185932E0,-5.932213E-1,1.1511885E1,-1.782644E1,-6.8628475E-2,6.2628984E-2,6.9034815E-2,-9.181592E-2,5.7042878E-2,-9.159426E-2,4.7368757E-2,-1.058936E-1,2.146929E-2,-7.557874E-2,3.880979E-2,-7.6844096E-2,3.3712525E-2,-9.02649E-2,1.8742602E-2,-7.328808E-2],"split_indices":[92,80,133,3,8,155,132,23,319,10,63,65,12,138,172,0,0,0,0,0,0,0,0,0,0,0,0,0,0,0,0],"split_type":[0,0,0,0,0,0,0,0,0,0,0,0,0,0,0,0,0,0,0,0,0,0,0,0,0,0,0,0,0,0,0],"sum_hessian":[1.23972705E4,4.9052715E3,7.4919995E3,6.1896564E2,4.2863057E3,4.719953E3,2.772046E3,1.8466669E2,4.3429898E2,3.781592E3,5.047137E2,1.4370099E3,3.2829434E3,4.2240268E2,2.3496433E3,4.9956234E1,1.3471045E2,4.6628075E0,4.2963617E2,3.6510015E3,1.3059042E2,1.8541982E2,3.1929388E2,3.34026E2,1.1029839E3,2.8911494E3,3.9179398E2,3.7340485E2,4.8997837E1,1.2180075E2,2.2278425E3],"tree_param":{"num_deleted":"0","num_feature":"365","num_nodes":"31","size_leaf_vector":"1"}},{"base_weights":[-1.8858293E-3,1.0475066E-1,-8.112358E-1,2.0267229E-1,-7.468069E-1,-1.1715616E0,-4.4730347E-1,4.2577988E-1,-2.5116348E-1,-1.0809295E0,9.3060946E-1,-5.4001007E-2,-1.2079101E0,1.3846439E-1,-9.197979E-1,4.3660156E-2,-6.941779E-2,4.2981118E-2,-5.122999E-2,8.3138414E-2,-1.0048314E-1,-3.5007343E-2,9.7352915E-2,7.360634E-2,-6.779287E-2,-7.430927E-2,-1.035542E-1,-4.6665687E-2,6.8987414E-2,3.785684E-5,-7.94473E-2],"categories":[],"categories_nodes":[],"categories_segments":[],"categories_sizes":[],"default_left":[0,0,0,0,0,0,0,0,0,0,0,0,0,0,0,0,0,0,0,0,0,0,0,0,0,0,0,0,0,0,0],"id":32,"left_children":[1,3,5,7,9,11,13,15,17,19,21,23,25,27,29,-1,-1,-1,-1,-1,-1,-1,-1,-1,-1,-1,-1,-1,-1,-1,-1],"loss_changes":[1.0433676E3,8.907363E2,1.8387177E2,9.701682E2,6.184567E2,2.8505493E1,1.9448543E2,9.972396E2,9.694212E2,3.425818E2,7.248126E1,1.8846699E1,1.5089966E1,1.6468622E2,2.6321991E1,0E0,0E0,0E0,0E0,0E0,0E0,0E0,0E0,0E0,0E0,0E0,0E0,0E0,0E0,0E0,0E0],"parents":[2147483647,0,0,1,1,2,2,3,3,4,4,5,5,6,6,7,7,8,8,9,9,10,10,11,11,12,12,13,13,14,14],"right_children":[2,4,6,8,10,12,14,16,18,20,22,24,26,28,30,-1,-1,-1,-1,-1,-1,-1,-1,-1,-1,-1,-1,-1,-1,-1,-1],"split_conditions":[2.8744171E1,1.988689E1,-5.290551E1,-1.1302171E0,5.0327362E1,-3.831421E0,-3.919162E1,-1.2136004E0,9.447264E0,-1.8182896E1,8.251314E0,-6.712336E0,-4.540553E0,-6.3029484E1,5.831675E0,4.3660156E-2,-6.941779E-2,4.2981118E-2,-5.122999E-2,8.3138414E-2,-1.0048314E-1,-3.5007343E-2,9.7352915E-2,7.360634E-2,-6.779287E-2,-7.430927E-2,-1.035542E-1,-4.6665687E-2,6.8987414E-2,3.785684E-5,-7.94473E-2],"split_indices":[127,47,86,24,304,228,92,8,127,4,57,7,7,82,132,0,0,0,0,0,0,0,0,0,0,0,0,0,0,0,0],"split_type":[0,0,0,0,0,0,0,0,0,0,0,0,0,0,0,0,0,0,0,0,0,0,0,0,0,0,0,0,0,0,0],"sum_hessian":[1.2086329E4,1.0679934E4,1.4063954E3,9.57928E3,1.1006536E3,7.054461E2,7.009493E2,6.422322E3,3.1569583E3,9.18178E2,1.8247559E2,2.2386683E1,6.830594E2,3.1318195E2,3.8776733E2,5.877811E3,5.445107E2,1.0431688E3,2.1137896E3,6.962922E1,8.4854877E2,3.142443E1,1.5105115E2,9.92093E0,1.2465753E1,1.6471086E2,5.183486E2,1.5684572E2,1.5633624E2,2.857752E1,3.5918982E2],"tree_param":{"num_deleted":"0","num_feature":"365","num_nodes":"31","size_leaf_vector":"1"}},{"base_weights":[-6.6034356E-3,7.209184E-2,-1.0414333E0,2.0500082E-1,-5.457392E-1,-7.4448295E-2,-1.165258E0,3.2238203E-1,-4.8654386E-1,-8.877669E-1,2.1972172E-1,5.2398646E-1,-8.037197E-1,8.511321E-2,-1.2737411E0,3.2559674E-2,-4.9417246E-2,-6.971088E-2,1.7553043E-2,-7.380973E-2,5.2718297E-2,4.9427904E-2,-5.524889E-2,6.5267615E-2,-7.041533E-2,-8.511892E-2,4.884069E-2,7.0891805E-2,-8.295279E-2,3.9207876E-2,-1.0313226E-1],"categories":[],"categories_nodes":[],"categories_segments":[],"categories_sizes":[],"default_left":[0,0,0,0,0,0,0,0,0,0,0,0,0,0,0,0,0,0,0,0,0,0,0,0,0,0,0,0,0,0,0],"id":33,"left_children":[1,3,5,7,9,11,13,15,17,19,21,23,25,27,29,-1,-1,-1,-1,-1,-1,-1,-1,-1,-1,-1,-1,-1,-1,-1,-1],"loss_changes":[9.6738544E2,9.065006E2,1.003111E2,7.37615E2,5.119284E2,4.254614E1,1.0115509E2,6.180973E2,3.584926E2,7.34729E1,2.194265E2,2.264227E1,1.6870798E1,5.5069218E1,1.9327759E1,0E0,0E0,0E0,0E0,0E0,0E0,0E0,0E0,0E0,0E0,0E0,0E0,0E0,0E0,0E0,0E0],"parents":[2147483647,0,0,1,1,2,2,3,3,4,4,5,5,6,6,7,7,8,8,9,9,10,10,11,11,12,12,13,13,14,14],"right_children":[2,4,6,8,10,12,14,16,18,20,22,24,26,28,30,-1,-1,-1,-1,-1,-1,-1,-1,-1,-1,-1,-1,-1,-1,-1,-1],"split_conditions":[1.9124879E-1,2.8974716E2,4.0272303E0,2.2769285E1,2.0124897E1,9.250801E0,6.8681602E0,1.7666324E0,-1.4154591E1,9.812474E0,-2.9572303E0,2.4394875E1,2.2318044E2,-5.6612885E2,-5.445882E0,3.2559674E-2,-4.9417246E-2,-6.971088E-2,1.7553043E-2,-7.380973E-2,5.2718297E-2,4.9427904E-2,-5.524889E-2,6.5267615E-2,-7.041533E-2,-8.511892E-2,4.884069E-2,7.0891805E-2,-8.295279E-2,3.9207876E-2,-1.0313226E-1],"split_indices":[17,320,138,130,324,132,129,29,105,59,15,127,121,80,252,0,0,0,0,0,0,0,0,0,0,0,0,0,0,0,0],"split_type":[0,0,0,0,0,0,0,0,0,0,0,0,0,0,0,0,0,0,0,0,0,0,0,0,0,0,0,0,0,0,0],"sum_hessian":[1.1875943E4,1.1037419E4,8.385242E2,9.084067E3,1.9533516E3,9.5459595E1,7.430646E2,7.766481E3,1.3175864E3,1.3500743E3,6.0327716E2,5.251255E1,4.2947044E1,5.926558E1,6.83799E2,7.125794E3,6.406869E2,8.52672E2,4.6491443E2,1.3207797E3,2.9294659E1,4.200171E2,1.832601E2,4.3881893E1,8.630658E0,3.654067E1,6.4063783E0,3.475363E1,2.4511951E1,5.60022E0,6.781988E2],"tree_param":{"num_deleted":"0","num_feature":"365","num_nodes":"31","size_leaf_vector":"1"}},{"base_weights":[-4.114017E-3,2.909605E-1,-2.625429E-1,3.878807E-1,-8.0553436E-1,1.3318385E-1,-5.987975E-1,5.179755E-1,-5.2519816E-1,-3.1365028E-1,-9.465848E-1,-1.0349611E0,3.2838604E-1,-1.5587907E-1,-8.623243E-1,4.5045502E-2,-1.3296565E-1,4.9846347E-2,-8.883064E-2,-4.2341713E-2,8.1303604E-2,-8.448989E-2,-2.9741665E-2,-6.30829E-2,-1.13903224E-1,4.0687304E-2,-6.268623E-2,4.756371E-2,-5.276521E-2,-1.2197514E-2,-8.1867255E-2],"categories":[],"categories_nodes":[],"categories_segments":[],"categories_sizes":[],"default_left":[0,0,0,0,0,0,0,0,0,0,0,0,0,0,0,0,0,0,0,0,0,0,0,0,0,0,0,0,0,0,0],"id":34,"left_children":[1,3,5,7,9,11,13,15,17,19,21,23,25,27,29,-1,-1,-1,-1,-1,-1,-1,-1,-1,-1,-1,-1,-1,-1,-1,-1],"loss_changes":[8.9087506E2,5.799306E2,8.288934E2,5.9566125E2,3.0327332E1,6.528313E2,3.928191E2,4.3216785E2,4.2103613E2,2.928724E1,2.1110992E1,3.7933136E1,4.9188544E2,4.7572266E2,2.4100342E2,0E0,0E0,0E0,0E0,0E0,0E0,0E0,0E0,0E0,0E0,0E0,0E0,0E0,0E0,0E0,0E0],"parents":[2147483647,0,0,1,1,2,2,3,3,4,4,5,5,6,6,7,7,8,8,9,9,10,10,11,11,12,12,13,13,14,14],"right_children":[2,4,6,8,10,12,14,16,18,20,22,24,26,28,30,-1,-1,-1,-1,-1,-1,-1,-1,-1,-1,-1,-1,-1,-1,-1,-1],"split_conditions":[7.8814893E0,2.0899794E2,-2.0134706E0,7.357099E0,3.1315851E0,2.005811E1,1.0091964E1,4.309204E0,-1.883214E1,9.012419E0,9.418427E-1,-5.5475183E2,3.4173055E0,-2.2261224E0,2.0143765E-1,4.5045502E-2,-1.3296565E-1,4.9846347E-2,-8.883064E-2,-4.2341713E-2,8.1303604E-2,-8.448989E-2,-2.9741665E-2,-6.30829E-2,-1.13903224E-1,4.0687304E-2,-6.268623E-2,4.756371E-2,-5.276521E-2,-1.2197514E-2,-8.1867255E-2],"split_indices":[138,40,15,60,63,155,136,120,166,52,35,80,246,24,321,0,0,0,0,0,0,0,0,0,0,0,0,0,0,0,0],"split_type":[0,0,0,0,0,0,0,0,0,0,0,0,0,0,0,0,0,0,0,0,0,0,0,0,0,0,0,0,0,0,0],"sum_hessian":[1.1680757E4,5.453467E3,6.22729E3,5.011255E3,4.4221213E2,2.8608079E3,3.3664822E3,4.386773E3,6.24482E2,9.942409E1,3.4278806E2,4.0891727E2,2.4518906E3,1.2565413E3,2.109941E3,4.298645E3,8.812795E1,2.1073405E2,4.1374796E2,8.613623E1,1.328785E1,2.8707132E2,5.5716717E1,2.5230278E2,1.5661449E2,2.1104956E3,3.4139508E2,5.0450977E2,7.520315E2,3.9058405E2,1.7193568E3],"tree_param":{"num_deleted":"0","num_feature":"365","num_nodes":"31","size_leaf_vector":"1"}},{"base_weights":[-8.943841E-3,8.2011506E-2,-8.38398E-1,1.4813365E-1,-1.0025433E0,-1.1262301E0,-4.5520943E-1,2.4670455E-1,-7.089453E-1,6.522271E-1,-1.0728711E0,2.2473128E-1,-1.161895E0,4.4059098E-1,-7.2307336E-1,-3.396282E-2,3.0634329E-2,-8.246495E-2,8.201754E-2,9.655987E-2,-1.5829517E-2,6.965246E-2,-8.812784E-2,-1.09374836E-1,6.1508197E-2,-3.549691E-4,-9.518477E-2,5.0306704E-2,-1.1804826E-1,-8.060644E-2,-1.7772954E-3],"categories":[],"categories_nodes":[],"categories_segments":[],"categories_sizes":[],"default_left":[0,0,0,0,0,0,0,0,0,0,0,0,0,0,0,0,0,0,0,0,0,0,0,0,0,0,0,0,0,0,0],"id":35,"left_children":[1,3,5,7,9,11,13,15,17,19,21,23,25,27,29,-1,-1,-1,-1,-1,-1,-1,-1,-1,-1,-1,-1,-1,-1,-1,-1],"loss_changes":[8.650581E2,7.4102454E2,1.243053E2,8.229537E2,6.984314E1,3.1492065E1,1.1741363E2,7.989533E2,5.6187366E2,1.2021766E1,3.2806396E1,1.6052385E1,2.0225952E1,4.154549E1,7.485565E1,0E0,0E0,0E0,0E0,0E0,0E0,0E0,0E0,0E0,0E0,0E0,0E0,0E0,0E0,0E0,0E0],"parents":[2147483647,0,0,1,1,2,2,3,3,4,4,5,5,6,6,7,7,8,8,9,9,10,10,11,11,12,12,13,13,14,14],"right_children":[2,4,6,8,10,12,14,16,18,20,22,24,26,28,30,-1,-1,-1,-1,-1,-1,-1,-1,-1,-1,-1,-1,-1,-1,-1,-1],"split_conditions":[2.9672386E1,-4.3167755E-1,-5.023823E1,1.988689E1,9.587772E0,-1.3528551E1,7.067498E0,5.496876E1,2.7504301E1,5.519761E0,6.210989E-1,8.5175026E1,-9.76818E0,2.0683239E1,1.052714E1,-3.396282E-2,3.0634329E-2,-8.246495E-2,8.201754E-2,9.655987E-2,-1.5829517E-2,6.965246E-2,-8.812784E-2,-1.09374836E-1,6.1508197E-2,-3.549691E-4,-9.518477E-2,5.0306704E-2,-1.1804826E-1,-8.060644E-2,-1.7772954E-3],"split_indices":[127,12,86,47,132,212,132,122,143,150,131,201,188,141,52,0,0,0,0,0,0,0,0,0,0,0,0,0,0,0,0],"split_type":[0,0,0,0,0,0,0,0,0,0,0,0,0,0,0,0,0,0,0,0,0,0,0,0,0,0,0,0,0,0,0],"sum_hessian":[1.1463422E4,1.0331305E4,1.1321179E3,9.73853E3,5.9277423E2,6.452433E2,4.8687463E2,8.734789E3,1.00374146E3,2.377058E1,5.690036E2,1.638759E1,6.288557E2,1.1183932E2,3.750353E2,1.4731355E3,7.2616533E3,8.469989E2,1.5674252E2,1.4200895E1,9.569684E0,7.8102484E0,5.6119336E2,3.7423358E0,1.2645255E1,1.492074E1,6.1393494E2,1.0249449E2,9.344824E0,2.663375E2,1.0869781E2],"tree_param":{"num_deleted":"0","num_feature":"365","num_nodes":"31","size_leaf_vector":"1"}},{"base_weights":[8.400151E-4,1.1233657E-1,-6.531615E-1,-9.4972426E-1,1.8597758E-1,8.801836E-1,-8.014311E-1,-1.103681E0,7.96054E-1,2.9047117E-1,-6.122938E-1,-1.0709343E0,1.0635066E0,2.4879274E-1,-9.136109E-1,-0E0,-8.9528635E-2,8.8706814E-2,-8.950322E-2,2.8852973E-2,-7.560228E-2,3.399341E-2,-8.067066E-2,-6.463052E-3,-1.0832904E-1,9.360448E-2,-4.1620906E-2,7.400417E-2,-3.2479413E-2,-8.2000054E-2,-3.230775E-2],"categories":[],"categories_nodes":[],"categories_segments":[],"categories_sizes":[],"default_left":[0,0,0,0,0,0,0,0,0,0,0,0,0,0,0,0,0,0,0,0,0,0,0,0,0,0,0,0,0,0,0],"id":36,"left_children":[1,3,5,7,9,11,13,15,17,19,21,23,25,27,29,-1,-1,-1,-1,-1,-1,-1,-1,-1,-1,-1,-1,-1,-1,-1,-1],"loss_changes":[8.264571E2,7.574873E2,3.760017E2,1.6969843E2,7.5561774E2,5.3349007E1,1.7770032E2,9.930969E0,3.203747E1,6.948601E2,4.3125253E2,3.3889065E0,2.3282867E1,6.508658E1,7.671265E1,0E0,0E0,0E0,0E0,0E0,0E0,0E0,0E0,0E0,0E0,0E0,0E0,0E0,0E0,0E0,0E0],"parents":[2147483647,0,0,1,1,2,2,3,3,4,4,5,5,6,6,7,7,8,8,9,9,10,10,11,11,12,12,13,13,14,14],"right_children":[2,4,6,8,10,12,14,16,18,20,22,24,26,28,30,-1,-1,-1,-1,-1,-1,-1,-1,-1,-1,-1,-1,-1,-1,-1,-1],"split_conditions":[2.0881146E-1,-2.5232974E2,1.0020484E0,1.1531335E1,1.3385671E0,-2.4076642E-1,2.1703339E0,-3.7008567E0,-2.9646175E1,1.3666638E0,-1.4776784E1,-6.64941E1,1.3185217E1,4.5817156E0,6.843612E1,-0E0,-8.9528635E-2,8.8706814E-2,-8.950322E-2,2.8852973E-2,-7.560228E-2,3.399341E-2,-8.067066E-2,-6.463052E-3,-1.0832904E-1,9.360448E-2,-4.1620906E-2,7.400417E-2,-3.2479413E-2,-8.2000054E-2,-3.230775E-2],"split_indices":[5,200,136,59,29,36,65,259,167,6,170,84,135,150,41,0,0,0,0,0,0,0,0,0,0,0,0,0,0,0,0],"split_type":[0,0,0,0,0,0,0,0,0,0,0,0,0,0,0,0,0,0,0,0,0,0,0,0,0,0,0,0,0,0,0],"sum_hessian":[1.1332654E4,9.682865E3,1.6497888E3,6.269955E2,9.05587E3,1.4496875E2,1.5048201E3,5.7657367E2,5.0421803E1,8.008341E3,1.0475292E3,1.1988382E1,1.3298036E2,1.4502167E2,1.3597983E3,7.8844833E0,5.686892E2,4.3748787E1,6.6730175E0,7.578577E3,4.2976376E2,2.8939246E2,7.581368E2,3.0305085E0,8.957873E0,1.2490183E2,8.078536E0,7.121308E1,7.3808586E1,1.1149589E3,2.448395E2],"tree_param":{"num_deleted":"0","num_feature":"365","num_nodes":"31","size_leaf_vector":"1"}},{"base_weights":[-3.7277818E-3,1.5127975E-1,-4.58364E-1,2.1822312E-1,-9.9375993E-1,1.0212805E-1,-8.038426E-1,-8.6206436E-1,2.908836E-1,4.5896128E-2,-1.1129384E0,-6.175926E-1,6.9839424E-1,3.9752358E-1,-8.783704E-1,3.5789568E-2,-7.9605356E-2,3.5021685E-2,-1.994485E-2,4.1657656E-2,-9.667817E-2,-2.1822965E-2,-9.9068366E-2,1.3869177E-2,-7.3644206E-2,6.7746736E-2,-9.040519E-2,7.181855E-2,-5.5234827E-2,-8.069267E-2,-2.0379562E-2],"categories":[],"categories_nodes":[],"categories_segments":[],"categories_sizes":[],"default_left":[0,0,0,0,0,0,0,0,0,0,0,0,0,0,0,0,0,0,0,0,0,0,0,0,0,0,0,0,0,0,0],"id":37,"left_children":[1,3,5,7,9,11,13,15,17,19,21,23,25,27,29,-1,-1,-1,-1,-1,-1,-1,-1,-1,-1,-1,-1,-1,-1,-1,-1],"loss_changes":[7.844657E2,6.3641956E2,5.4821735E2,6.158407E2,5.6979095E1,4.6395593E2,1.5719714E2,8.661365E1,5.8331506E2,2.917167E1,4.2875763E1,1.176136E2,1.6140482E2,5.664229E1,1.3362903E2,0E0,0E0,0E0,0E0,0E0,0E0,0E0,0E0,0E0,0E0,0E0,0E0,0E0,0E0,0E0,0E0],"parents":[2147483647,0,0,1,1,2,2,3,3,4,4,5,5,6,6,7,7,8,8,9,9,10,10,11,11,12,12,13,13,14,14],"right_children":[2,4,6,8,10,12,14,16,18,20,22,24,26,28,30,-1,-1,-1,-1,-1,-1,-1,-1,-1,-1,-1,-1,-1,-1,-1,-1],"split_conditions":[3.8156616E1,2.7750978E-1,-2.9242659E0,-2.4067914E2,5.9287357E0,4.67961E1,4.7735662E0,-1.0652937E1,-8.234239E-1,-1.7685608E1,4.326173E0,1.872301E2,4.4638515E-3,1.0699892E1,9.987362E0,3.5789568E-2,-7.9605356E-2,3.5021685E-2,-1.994485E-2,4.1657656E-2,-9.667817E-2,-2.1822965E-2,-9.9068366E-2,1.3869177E-2,-7.3644206E-2,6.7746736E-2,-9.040519E-2,7.181855E-2,-5.5234827E-2,-8.069267E-2,-2.0379562E-2],"split_indices":[125,17,15,200,127,304,131,216,24,104,138,363,248,133,54,0,0,0,0,0,0,0,0,0,0,0,0,0,0,0,0],"split_type":[0,0,0,0,0,0,0,0,0,0,0,0,0,0,0,0,0,0,0,0,0,0,0,0,0,0,0,0,0,0,0],"sum_hessian":[1.1129166E4,8.299807E3,2.8293594E3,7.842218E3,4.575891E2,1.0790929E3,1.7502665E3,4.934567E2,7.348761E3,4.703697E1,4.1055215E2,4.888387E2,5.902542E2,1.01905365E2,1.6483611E3,4.5212864E1,4.4824384E2,5.7780044E3,1.5707571E3,3.4603077E1,1.2433889E1,5.3841995E1,3.5671014E2,1.3541075E2,3.5342795E2,5.464807E2,4.3773464E1,6.999204E1,3.1913319E1,1.3628555E3,2.8550568E2],"tree_param":{"num_deleted":"0","num_feature":"365","num_nodes":"31","size_leaf_vector":"1"}},{"base_weights":[-9.331291E-4,8.4064275E-2,-8.2719564E-1,2.2995909E-1,-4.1606566E-1,7.061317E-1,-1.0198742E0,3.4013334E-1,-5.0997156E-1,3.1598222E-1,-7.16959E-1,1.0477535E0,-4.4324273E-1,-1.0981532E-1,-1.0768813E0,3.1740453E-2,-7.988429E-2,1.1516529E-2,-8.0068864E-2,4.9748644E-2,-6.63472E-2,-2.460229E-2,-7.48343E-2,9.12965E-2,-6.1987195E-2,5.712809E-2,-7.545954E-2,6.089706E-2,-9.820501E-2,-2.4289053E-3,-8.8455535E-2],"categories":[],"categories_nodes":[],"categories_segments":[],"categories_sizes":[],"default_left":[0,0,0,0,0,0,0,0,0,0,0,0,0,0,0,0,0,0,0,0,0,0,0,0,0,0,0,0,0,0,0],"id":38,"left_children":[1,3,5,7,9,11,13,15,17,19,21,23,25,27,29,-1,-1,-1,-1,-1,-1,-1,-1,-1,-1,-1,-1,-1,-1,-1,-1],"loss_changes":[7.673601E2,7.228927E2,3.0185223E2,6.25408E2,4.9308475E2,4.5406773E1,4.675879E1,5.064121E2,3.194043E2,2.2902444E2,1.4145465E2,1.5991234E1,1.6219707E1,5.4154583E1,2.555072E1,0E0,0E0,0E0,0E0,0E0,0E0,0E0,0E0,0E0,0E0,0E0,0E0,0E0,0E0,0E0,0E0],"parents":[2147483647,0,0,1,1,2,2,3,3,4,4,5,5,6,6,7,7,8,8,9,9,10,10,11,11,12,12,13,13,14,14],"right_children":[2,4,6,8,10,12,14,16,18,20,22,24,26,28,30,-1,-1,-1,-1,-1,-1,-1,-1,-1,-1,-1,-1,-1,-1,-1,-1],"split_conditions":[-8.655591E-1,2.7487042E2,1.7556416E0,2.6607642E-1,-1.8490974E1,3.0653015E1,1.7470005E0,-2.7915284E-1,-2.7890045E1,-5.7617674E0,-6.1545124E0,1.5811357E-1,3.36726E0,4.856898E0,1.7046605E0,3.1740453E-2,-7.988429E-2,1.1516529E-2,-8.0068864E-2,4.9748644E-2,-6.63472E-2,-2.460229E-2,-7.48343E-2,9.12965E-2,-6.1987195E-2,5.712809E-2,-7.545954E-2,6.089706E-2,-9.820501E-2,-2.4289053E-3,-8.8455535E-2],"split_indices":[8,320,65,21,164,125,134,10,95,10,171,29,146,53,67,0,0,0,0,0,0,0,0,0,0,0,0,0,0,0,0],"split_type":[0,0,0,0,0,0,0,0,0,0,0,0,0,0,0,0,0,0,0,0,0,0,0,0,0,0,0,0,0,0,0],"sum_hessian":[1.0923312E4,9.905148E3,1.0181627E3,7.6687954E3,2.2363535E3,1.1330475E2,9.04858E2,6.6755015E3,9.9329376E2,6.513331E2,1.5850204E3,8.747923E1,2.582552E1,5.361592E1,8.5124207E2,6.405353E3,2.7014838E2,4.261327E2,5.671611E2,5.144782E2,1.3685492E2,5.5248444E2,1.0325359E3,8.362035E1,3.85888E0,7.6017346E0,1.8223785E1,3.0262629E1,2.3353292E1,2.2956547E1,8.282855E2],"tree_param":{"num_deleted":"0","num_feature":"365","num_nodes":"31","size_leaf_vector":"1"}},{"base_weights":[1.6077217E-3,1.4736861E-1,-4.543224E-1,5.1630133E-1,-7.386087E-2,4.076728E-1,-6.772936E-1,-5.7773346E-1,6.746511E-1,-7.6041275E-1,9.249176E-2,6.979452E-1,-9.571088E-1,-2.829487E-2,-8.514246E-1,4.901414E-2,-7.519398E-2,5.8998954E-2,-3.8312428E-2,-9.017138E-2,3.6325975E-4,6.7561194E-2,-5.5032996E-3,-5.939394E-2,8.111961E-2,9.4507076E-2,-9.529843E-2,1.9584935E-2,-7.677207E-2,5.1919084E-2,-7.2301894E-2],"categories":[],"categories_nodes":[],"categories_segments":[],"categories_sizes":[],"default_left":[0,0,0,0,0,0,0,0,0,0,0,0,0,0,0,0,0,0,0,0,0,0,0,0,0,0,0,0,0,0,0],"id":39,"left_children":[1,3,5,7,9,11,13,15,17,19,21,23,25,27,29,-1,-1,-1,-1,-1,-1,-1,-1,-1,-1,-1,-1,-1,-1,-1,-1],"loss_changes":[7.138513E2,6.644532E2,5.0043054E2,5.290667E2,5.8138226E2,2.1270285E2,2.3357452E2,1.6716614E2,1.936477E2,2.7864307E2,4.9710687E2,2.0201341E2,4.859208E1,1.1186822E2,1.2865869E2,0E0,0E0,0E0,0E0,0E0,0E0,0E0,0E0,0E0,0E0,0E0,0E0,0E0,0E0,0E0,0E0],"parents":[2147483647,0,0,1,1,2,2,3,3,4,4,5,5,6,6,7,7,8,8,9,9,10,10,11,11,12,12,13,13,14,14],"right_children":[2,4,6,8,10,12,14,16,18,20,22,24,26,28,30,-1,-1,-1,-1,-1,-1,-1,-1,-1,-1,-1,-1,-1,-1,-1,-1],"split_conditions":[2.3333406E1,-3.981166E1,-1.5856295E1,-2.0820775E2,-5.8758897E-1,-2.461737E0,6.25321E0,-1.3256368E1,-8.989479E-1,-1.3713697E1,6.5651493E0,-1.441826E0,3.5056593E0,-2.4911113E-1,-2.36735E1,4.901414E-2,-7.519398E-2,5.8998954E-2,-3.8312428E-2,-9.017138E-2,3.6325975E-4,6.7561194E-2,-5.5032996E-3,-5.939394E-2,8.111961E-2,9.4507076E-2,-9.529843E-2,1.9584935E-2,-7.677207E-2,5.1919084E-2,-7.2301894E-2],"split_indices":[128,92,174,200,35,24,134,4,10,105,129,27,65,28,4,0,0,0,0,0,0,0,0,0,0,0,0,0,0,0,0],"split_type":[0,0,0,0,0,0,0,0,0,0,0,0,0,0,0,0,0,0,0,0,0,0,0,0,0,0,0,0,0,0,0],"sum_hessian":[1.0740042E4,8.138924E3,2.6011184E3,3.0506438E3,5.08828E3,5.3429285E2,2.0668254E3,3.853044E2,2.6653394E3,9.9185156E2,4.096428E3,4.41049E2,9.3243866E1,4.3759903E2,1.6292264E3,8.965819E1,2.9564624E2,2.5280789E3,1.3726064E2,6.702037E2,3.216479E2,7.227598E2,3.3736685E3,7.906265E1,3.6198636E2,8.759785E0,8.448408E1,3.3886237E2,9.873667E1,5.4478306E1,1.574748E3],"tree_param":{"num_deleted":"0","num_feature":"365","num_nodes":"31","size_leaf_vector":"1"}},{"base_weights":[-2.5325117E-3,2.7100268E-1,-2.3785987E-1,-4.8840478E-1,3.962175E-1,5.286119E-1,-3.8135242E-1,5.4830515E-1,-8.1053764E-1,-8.8479507E-1,4.7882205E-1,8.7712944E-1,-8.968345E-1,9.533212E-2,-6.3152903E-1,6.606553E-2,-6.644457E-2,-7.45443E-2,6.348133E-2,-9.878302E-2,5.1501963E-2,4.5743804E-2,-5.367905E-2,-8.019379E-2,7.913823E-2,-9.35376E-2,5.230217E-3,5.99171E-2,-1.49733275E-2,-1.0270757E-1,-4.0502284E-2],"categories":[],"categories_nodes":[],"categories_segments":[],"categories_sizes":[],"default_left":[0,0,0,0,0,0,0,0,0,0,0,0,0,0,0,0,0,0,0,0,0,0,0,0,0,0,0,0,0,0,0],"id":40,"left_children":[1,3,5,7,9,11,13,15,17,19,21,23,25,27,29,-1,-1,-1,-1,-1,-1,-1,-1,-1,-1,-1,-1,-1,-1,-1,-1],"loss_changes":[6.7954047E2,4.6439725E2,6.243307E2,2.3135104E2,4.439201E2,4.4550772E2,5.702405E2,6.3599762E1,1.0344473E2,1.3684283E2,4.2139838E2,1.5266522E2,4.6396103E1,3.041668E2,2.5535242E2,0E0,0E0,0E0,0E0,0E0,0E0,0E0,0E0,0E0,0E0,0E0,0E0,0E0,0E0,0E0,0E0],"parents":[2147483647,0,0,1,1,2,2,3,3,4,4,5,5,6,6,7,7,8,8,9,9,10,10,11,11,12,12,13,13,14,14],"right_children":[2,4,6,8,10,12,14,16,18,20,22,24,26,28,30,-1,-1,-1,-1,-1,-1,-1,-1,-1,-1,-1,-1,-1,-1,-1,-1],"split_conditions":[7.762162E0,-6.1965637E1,8.642975E0,-8.499832E1,-1.0557681E2,-5.530895E2,-4.1344223E1,-4.424672E1,2.305159E2,4.3955135E1,2.0990645E2,1.5917358E1,-7.057121E1,8.087687E0,5.278671E1,6.606553E-2,-6.644457E-2,-7.45443E-2,6.348133E-2,-9.878302E-2,5.1501963E-2,4.5743804E-2,-5.367905E-2,-8.019379E-2,7.913823E-2,-9.35376E-2,5.230217E-3,5.99171E-2,-1.49733275E-2,-1.0270757E-1,-4.0502284E-2],"split_indices":[138,87,129,84,82,80,92,85,121,155,40,153,82,137,122,0,0,0,0,0,0,0,0,0,0,0,0,0,0,0,0],"split_type":[0,0,0,0,0,0,0,0,0,0,0,0,0,0,0,0,0,0,0,0,0,0,0,0,0,0,0,0,0,0,0],"sum_hessian":[1.0554786E4,4.8808745E3,5.6739116E3,6.9034503E2,4.1905293E3,8.941878E2,4.7797236E3,1.6341599E2,5.269291E2,2.5319032E2,3.937339E3,7.1887885E2,1.7530899E2,1.6451971E3,3.1345266E3,1.3643108E2,2.6984913E1,4.9034082E2,3.658825E1,2.0622836E2,4.6961964E1,3.643324E3,2.940153E2,3.9964302E1,6.789145E2,1.3654443E2,3.8764553E1,4.9608438E2,1.1491128E3,5.0329132E2,2.6312354E3],"tree_param":{"num_deleted":"0","num_feature":"365","num_nodes":"31","size_leaf_vector":"1"}},{"base_weights":[-3.2384258E-3,9.204107E-2,-6.810758E-1,-9.750824E-1,1.5322837E-1,-1.0759486E0,-3.516706E-1,2.866249E-1,-1.0375843E0,-1.0789024E0,2.1118279E-1,-1.1825466E0,-4.8213193E-1,-7.02704E-1,2.707716E-1,-7.448081E-2,5.9827704E-2,-8.6514376E-2,2.3297803E-2,6.862186E-2,-9.231814E-2,2.236161E-2,-6.748498E-2,-6.934857E-3,-9.711567E-2,6.978343E-2,-6.2209595E-2,-7.961249E-2,-2.2211432E-2,6.102999E-2,-7.180723E-2],"categories":[],"categories_nodes":[],"categories_segments":[],"categories_sizes":[],"default_left":[0,0,0,0,0,0,0,0,0,0,0,0,0,0,0,0,0,0,0,0,0,0,0,0,0,0,0,0,0,0,0],"id":41,"left_children":[1,3,5,7,9,11,13,15,17,19,21,23,25,27,29,-1,-1,-1,-1,-1,-1,-1,-1,-1,-1,-1,-1,-1,-1,-1,-1],"loss_changes":[6.6906696E2,5.930717E2,1.6554926E2,3.9215057E1,6.1356323E2,3.5980103E1,1.5267937E2,1.4131848E1,2.7753876E1,5.7141083E1,5.916162E2,1.665747E1,3.673234E1,5.5099777E1,1.4567953E2,0E0,0E0,0E0,0E0,0E0,0E0,0E0,0E0,0E0,0E0,0E0,0E0,0E0,0E0,0E0,0E0],"parents":[2147483647,0,0,1,1,2,2,3,3,4,4,5,5,6,6,7,7,8,8,9,9,10,10,11,11,12,12,13,13,14,14],"right_children":[2,4,6,8,10,12,14,16,18,20,22,24,26,28,30,-1,-1,-1,-1,-1,-1,-1,-1,-1,-1,-1,-1,-1,-1,-1,-1],"split_conditions":[2.794673E1,-6.4699646E2,-5.3940655E1,2.2332048E0,-1.2100716E2,4.29831E1,-5.8984413E1,-1.2869303E0,7.547727E1,-2.0999844E0,1.1418879E0,-1.0330246E1,7.9127545E0,-1.7199759E1,-3.5123558E1,-7.448081E-2,5.9827704E-2,-8.6514376E-2,2.3297803E-2,6.862186E-2,-9.231814E-2,2.236161E-2,-6.748498E-2,-6.934857E-3,-9.711567E-2,6.978343E-2,-6.2209595E-2,-7.961249E-2,-2.2211432E-2,6.102999E-2,-7.180723E-2],"split_indices":[127,80,86,63,82,155,82,14,41,229,6,218,139,103,92,0,0,0,0,0,0,0,0,0,0,0,0,0,0,0,0],"split_type":[0,0,0,0,0,0,0,0,0,0,0,0,0,0,0,0,0,0,0,0,0,0,0,0,0,0,0,0,0,0,0],"sum_hessian":[1.0356757E4,9.081011E3,1.275746E3,4.9155667E2,8.589454E3,5.790467E2,6.966993E2,2.2956427E1,4.6860025E2,3.8499466E2,8.20446E3,4.8993668E2,8.911001E1,4.4549115E2,2.5120813E2,5.9672794E0,1.6989145E1,4.5388522E2,1.4715022E1,1.3928433E1,3.7106622E2,7.7060137E3,4.9844565E2,1.3840416E1,4.7609625E2,1.5548782E1,7.3561226E1,2.629789E2,1.8251222E2,1.7706332E2,7.41448E1],"tree_param":{"num_deleted":"0","num_feature":"365","num_nodes":"31","size_leaf_vector":"1"}},{"base_weights":[-1.2121048E-3,6.136867E-2,-9.875151E-1,-9.209036E-1,1.25071E-1,-4.1944814E-1,-1.1395764E0,5.9165645E-1,-1.0663189E0,2.0464325E-1,-7.160792E-1,2.8727177E-1,-1.0953065E0,-3.122284E-1,-1.2137445E0,7.378666E-2,-7.938553E-2,-8.692579E-2,-2.1901663E-2,2.0824397E-2,-7.5200655E-2,3.374544E-2,-7.920977E-2,5.5097446E-2,-8.8543534E-2,2.0095741E-2,-9.314668E-2,-5.7673443E-2,6.1180227E-2,1.8590843E-2,-9.823701E-2],"categories":[],"categories_nodes":[],"categories_segments":[],"categories_sizes":[],"default_left":[0,0,0,0,0,0,0,0,0,0,0,0,0,0,0,0,0,0,0,0,0,0,0,0,0,0,0,0,0,0,0],"id":42,"left_children":[1,3,5,7,9,11,13,15,17,19,21,23,25,27,29,-1,-1,-1,-1,-1,-1,-1,-1,-1,-1,-1,-1,-1,-1,-1,-1],"loss_changes":[6.3089276E2,6.013578E2,5.204541E1,1.2941266E2,6.0420105E2,6.272596E1,2.8944275E1,2.8101374E1,8.144287E0,5.255875E2,2.4374841E2,3.682385E1,6.609688E0,1.8582602E1,9.439453E0,0E0,0E0,0E0,0E0,0E0,0E0,0E0,0E0,0E0,0E0,0E0,0E0,0E0,0E0,0E0,0E0],"parents":[2147483647,0,0,1,1,2,2,3,3,4,4,5,5,6,6,7,7,8,8,9,9,10,10,11,11,12,12,13,13,14,14],"right_children":[2,4,6,8,10,12,14,16,18,20,22,24,26,28,30,-1,-1,-1,-1,-1,-1,-1,-1,-1,-1,-1,-1,-1,-1,-1,-1],"split_conditions":[2.7750978E-1,-2.5232974E2,-6.2677856E1,-1.2458382E1,-8.655591E-1,3.3094307E1,3.2541444E0,-1.076823E1,3.7085255E1,-5.4118973E-1,2.0971262E0,-4.8399764E-1,6.822626E1,2.0857037E2,1.6112561E0,7.378666E-2,-7.938553E-2,-8.692579E-2,-2.1901663E-2,2.0824397E-2,-7.5200655E-2,3.374544E-2,-7.920977E-2,5.5097446E-2,-8.8543534E-2,2.0095741E-2,-9.314668E-2,-5.7673443E-2,6.1180227E-2,1.8590843E-2,-9.823701E-2],"split_indices":[17,200,87,216,8,124,138,8,3,12,65,15,123,121,65,0,0,0,0,0,0,0,0,0,0,0,0,0,0,0,0],"split_type":[0,0,0,0,0,0,0,0,0,0,0,0,0,0,0,0,0,0,0,0,0,0,0,0,0,0,0,0,0,0,0],"sum_hessian":[1.0217773E4,9.608925E3,6.0884845E2,5.8429114E2,9.024634E3,1.2949614E2,4.7935233E2,5.0916668E1,5.333745E2,8.245491E3,7.791424E2,6.3511505E1,6.598463E1,3.9976067E1,4.3937625E2,4.2520718E1,8.395948E0,5.1959894E2,1.3775538E1,7.8639463E3,3.8154523E2,1.5104796E2,6.280944E2,4.9759937E1,1.375157E1,3.0183444E0,6.296628E1,2.928612E1,1.0689945E1,4.0599103E0,4.3531635E2],"tree_param":{"num_deleted":"0","num_feature":"365","num_nodes":"31","size_leaf_vector":"1"}},{"base_weights":[-6.229194E-3,1.298936E-1,-4.536009E-1,2.1982493E-1,-6.555336E-1,5.167054E-1,-6.633021E-1,3.233295E-1,-5.4038E-1,1.565222E-1,-9.7894746E-1,8.085976E-1,-8.557616E-1,-2.3900205E-1,-9.874833E-1,4.4297837E-2,-8.897743E-3,-7.179765E-2,8.586168E-2,4.671783E-2,-6.827208E-2,-8.255777E-3,-8.9359224E-2,8.12765E-2,-4.8010375E-2,4.5654844E-2,-8.390624E-2,-6.38623E-2,1.8726617E-2,-2.335878E-2,-8.609753E-2],"categories":[],"categories_nodes":[],"categories_segments":[],"categories_sizes":[],"default_left":[0,0,0,0,0,0,0,0,0,0,0,0,0,0,0,0,0,0,0,0,0,0,0,0,0,0,0,0,0,0,0],"id":43,"left_children":[1,3,5,7,9,11,13,15,17,19,21,23,25,27,29,-1,-1,-1,-1,-1,-1,-1,-1,-1,-1,-1,-1,-1,-1,-1,-1],"loss_changes":[6.133685E2,5.455319E2,4.784742E2,5.4539294E2,2.086211E2,1.6816655E2,2.654853E2,6.108006E2,4.7958948E2,9.836758E1,6.8390625E1,1.0152162E2,2.0955383E1,2.2210973E2,6.713757E1,0E0,0E0,0E0,0E0,0E0,0E0,0E0,0E0,0E0,0E0,0E0,0E0,0E0,0E0,0E0,0E0],"parents":[2147483647,0,0,1,1,2,2,3,3,4,4,5,5,6,6,7,7,8,8,9,9,10,10,11,11,12,12,13,13,14,14],"right_children":[2,4,6,8,10,12,14,16,18,20,22,24,26,28,30,-1,-1,-1,-1,-1,-1,-1,-1,-1,-1,-1,-1,-1,-1,-1,-1],"split_conditions":[3.858445E1,1.3385671E0,8.35758E0,1.880755E1,-1.3871635E1,-1.2342685E0,-3.939229E1,-1.3567891E0,2.305207E1,-6.7381234E0,6.9278603E0,9.1954544E1,8.601867E0,-7.7246743E-1,-5.499086E0,4.4297837E-2,-8.897743E-3,-7.179765E-2,8.586168E-2,4.671783E-2,-6.827208E-2,-8.255777E-3,-8.9359224E-2,8.12765E-2,-4.8010375E-2,4.5654844E-2,-8.390624E-2,-6.38623E-2,1.8726617E-2,-2.335878E-2,-8.609753E-2],"split_indices":[125,29,129,47,170,15,92,24,144,8,130,123,135,27,5,0,0,0,0,0,0,0,0,0,0,0,0,0,0,0,0],"split_type":[0,0,0,0,0,0,0,0,0,0,0,0,0,0,0,0,0,0,0,0,0,0,0,0,0,0,0,0,0,0,0],"sum_hessian":[1.0069648E4,7.720884E3,2.3487644E3,6.9284272E3,7.9245667E2,4.1705807E2,1.9317064E3,6.098765E3,8.2966223E2,2.2577296E2,5.6668365E2,3.443141E2,7.2744E1,8.375441E2,1.0941622E3,3.985605E3,2.11316E3,6.797449E2,1.4991736E2,1.5899782E2,6.6775154E1,7.749893E1,4.8918475E2,3.0044034E2,4.3873734E1,8.377085E0,6.436692E1,3.8359064E2,4.5395352E2,1.24417076E2,9.697452E2],"tree_param":{"num_deleted":"0","num_feature":"365","num_nodes":"31","size_leaf_vector":"1"}},{"base_weights":[-3.7591981E-3,6.1845727E-2,-9.1771704E-1,-9.4904894E-1,1.1927535E-1,5.118292E-1,-1.0448352E0,-1.1221551E0,-8.077973E-3,-9.2356133E-1,1.7621009E-1,9.1225237E-1,-9.602874E-1,1.9991276E-1,-1.0617093E0,6.6109985E-2,-9.82337E-2,5.846804E-2,-9.591018E-2,-8.270074E-2,9.675192E-3,1.837192E-2,-8.059414E-2,-2.5833534E-2,8.578798E-2,-2.721946E-2,-8.952096E-2,-6.419651E-2,7.190686E-2,-3.470111E-2,-8.759977E-2],"categories":[],"categories_nodes":[],"categories_segments":[],"categories_sizes":[],"default_left":[0,0,0,0,0,0,0,0,0,0,0,0,0,0,0,0,0,0,0,0,0,0,0,0,0,0,0,0,0,0,0],"id":44,"left_children":[1,3,5,7,9,11,13,15,17,19,21,23,25,27,29,-1,-1,-1,-1,-1,-1,-1,-1,-1,-1,-1,-1,-1,-1,-1,-1],"loss_changes":[5.919857E2,5.3474146E2,1.2074884E2,8.0529816E1,5.176029E2,3.3058586E1,1.3061218E1,8.722174E1,6.9584465E1,5.2162445E1,5.2299243E2,9.022003E0,6.65185E-1,6.9585853E0,1.1908569E1,0E0,0E0,0E0,0E0,0E0,0E0,0E0,0E0,0E0,0E0,0E0,0E0,0E0,0E0,0E0,0E0],"parents":[2147483647,0,0,1,1,2,2,3,3,4,4,5,5,6,6,7,7,8,8,9,9,10,10,11,11,12,12,13,13,14,14],"right_children":[2,4,6,8,10,12,14,16,18,20,22,24,26,28,30,-1,-1,-1,-1,-1,-1,-1,-1,-1,-1,-1,-1,-1,-1,-1,-1],"split_conditions":[1.3212649E0,-1.1881989E2,5.3738565E0,6.5672424E1,-6.4699646E2,1.0100149E1,2.1928453E0,-2.0999844E0,-5.5475183E2,2.1757336E2,-5.6613445E-1,7.058612E-1,-3.8149657E0,9.7586244E-1,3.5700953E0,6.6109985E-2,-9.82337E-2,5.846804E-2,-9.591018E-2,-8.270074E-2,9.675192E-3,1.837192E-2,-8.059414E-2,-2.5833534E-2,8.578798E-2,-2.721946E-2,-8.952096E-2,-6.419651E-2,7.190686E-2,-3.470111E-2,-8.759977E-2],"split_indices":[5,82,133,297,80,129,129,229,