{"learner":{"attributes":{"scikit_learn":"{\"_estimator_type\": \"classifier\"}"},"feature_names":[],"feature_types":[],"gradient_booster":{"model":{"cats":{"enc":[],"feature_segments":[],"sorted_idx":[]},"gbtree_model_param":{"num_parallel_tree":"1","num_trees":"200"},"iteration_indptr":[0,1,2,3,4,5,6,7,8,9,10,11,12,13,14,15,16,17,18,19,20,21,22,23,24,25,26,27,28,29,30,31,32,33,34,35,36,37,38,39,40,41,42,43,44,45,46,47,48,49,50,51,52,53,54,55,56,57,58,59,60,61,62,63,64,65,66,67,68,69,70,71,72,73,74,75,76,77,78,79,80,81,82,83,84,85,86,87,88,89,90,91,92,93,94,95,96,97,98,99,100,101,102,103,104,105,106,107,108,109,110,111,112,113,114,115,116,117,118,119,120,121,122,123,124,125,126,127,128,129,130,131,132,133,134,135,136,137,138,139,140,141,142,143,144,145,146,147,148,149,150,151,152,153,154,155,156,157,158,159,160,161,162,163,164,165,166,167,168,169,170,171,172,173,174,175,176,177,178,179,180,181,182,183,184,185,186,187,188,189,190,191,192,193,194,195,196,197,198,199,200],"tree_info":[0,0,0,0,0,0,0,0,0,0,0,0,0,0,0,0,0,0,0,0,0,0,0,0,0,0,0,0,0,0,0,0,0,0,0,0,0,0,0,0,0,0,0,0,0,0,0,0,0,0,0,0,0,0,0,0,0,0,0,0,0,0,0,0,0,0,0,0,0,0,0,0,0,0,0,0,0,0,0,0,0,0,0,0,0,0,0,0,0,0,0,0,0,0,0,0,0,0,0,0,0,0,0,0,0,0,0,0,0,0,0,0,0,0,0,0,0,0,0,0,0,0,0,0,0,0,0,0,0,0,0,0,0,0,0,0,0,0,0,0,0,0,0,0,0,0,0,0,0,0,0,0,0,0,0,0,0,0,0,0,0,0,0,0,0,0,0,0,0,0,0,0,0,0,0,0,0,0,0,0,0,0,0,0,0,0,0,0,0,0,0,0,0,0,0,0,0,0,0,0],"trees":[{"base_weights":[-3.1792108E-4,1.0062714E0,-7.9734176E-1,1.2378616E0,-1.5228572E0,1.220106E0,-1.0947573E0,1.3345199E0,-1.4634868E0,-1.6350582E0,1.1484848E0,1.6046929E0,-1.4891752E0,-1.6064835E0,-6.506124E-1,1.4315543E0,-7.557029E-1,1.0947368E0,-1.7714812E0,-1.868613E-1,-1.6997634E0,-1.58E-1,1.5827587E0,-2.1954262E-1,1.779751E0,-1.8125547E0,9.0105265E-1,-8.422227E-1,-1.8441118E0,-1.0212047E-1,-1.5745014E0,1.5205257E0,-3.5207254E-1,7.1693003E-1,-1.3635173E0,1.6566038E0,-9.548387E-1,-4.2531645E-1,-1.86917E0,-1.7361702E-1,5.914894E-1,-1.125741E0,-1.855125E0,1.812844E0,-1.23636365E-1,9.352657E-1,-1.0776979E0,1.8472457E0,-6.933333E-1,6E-1,-1.8968326E0,1.7085714E0,-1.1586207E0,4.084097E-1,-1.6667615E0,-1.8698605E0,-4.191882E-1,2.3040736E-1,-1.6850305E0,5.308411E-1,-1.7790859E0,-4.583519E-2,1.5795727E-1,1.1613963E-1,-1.0458058E-1,-1.5515152E-1,1.3551724E-1,-2.118577E-2,-1.7117074E-1,-9.5E-2,1.7999999E-1,8.7272726E-2,-1.65E-1,1.0421053E-1,-1.6355555E-1,1.4545455E-2,-1.8841791E-1,1.4508475E-1,-7.589744E-2,-5.8562875E-2,-1.6900322E-1,-1.868339E-1,8.285715E-2,-4.4999998E-2,1.92E-1,1.4101695E-1,-1.6352941E-1,-1.3397591E-1,1.0181818E-1,1.9016935E-1,-2.3307087E-2,5.508197E-2,-1.6358975E-1,-9.6666664E-2,1.5333334E-1,1.0666668E-1,-1.9264439E-1,1.8666667E-1,1.4545455E-2,3.6000002E-2,-1.6347826E-1,-1.5012877E-1,1.0463747E-1,-9.125517E-2,-1.9251317E-1,-1.9064924E-1,-1.0267311E-1,-1.7030676E-1,1.4607143E-1,5.0146934E-2,-1.6766599E-1,-4.205714E-2,-1.7783783E-1,1.3051878E-1,-1.7092784E-1,-4.8508286E-2,-1.8420434E-1],"categories":[],"categories_nodes":[],"categories_segments":[],"categories_sizes":[],"default_left":[0,0,0,0,0,0,0,0,0,0,0,0,0,0,0,0,0,0,0,0,0,0,0,0,0,0,0,0,0,0,0,0,0,0,0,0,0,0,0,0,0,0,0,0,0,0,0,0,0,0,0,0,0,0,0,0,0,0,0,0,0,0,0,0,0,0,0,0,0,0,0,0,0,0,0,0,0,0,0,0,0,0,0,0,0,0,0,0,0,0,0,0,0,0,0,0,0,0,0,0,0,0,0,0,0,0,0,0,0,0,0,0,0,0,0,0,0],"id":0,"left_children":[1,3,5,7,9,11,13,15,17,19,21,23,25,27,29,31,33,35,37,39,41,-1,43,45,47,49,51,53,55,57,59,61,63,65,67,69,71,73,75,-1,77,79,81,83,-1,85,87,89,91,93,95,97,99,101,103,105,107,109,111,113,115,-1,-1,-1,-1,-1,-1,-1,-1,-1,-1,-1,-1,-1,-1,-1,-1,-1,-1,-1,-1,-1,-1,-1,-1,-1,-1,-1,-1,-1,-1,-1,-1,-1,-1,-1,-1,-1,-1,-1,-1,-1,-1,-1,-1,-1,-1,-1,-1,-1,-1,-1,-1,-1,-1,-1,-1],"loss_changes":[1.741297E4,5.61966E3,7.269519E3,2.2963564E3,2.4320715E2,1.6244634E3,2.3982432E3,1.7219541E3,2.4153412E2,7.192822E1,4.1603046E1,4.3605615E2,1.5167673E2,8.889297E2,2.8646846E3,1.2873633E3,3.3849017E2,3.994229E1,3.4712097E1,4.2443665E1,6.3585205E1,0E0,2.1109512E1,1.20190506E2,2.091289E2,3.608722E1,4.153617E1,1.2024065E3,1.3622656E2,1.8684594E3,9.08166E2,9.0327344E2,4.0648135E2,1.6242877E2,1.066113E2,1.1700096E1,1.136374E1,3.6838406E1,8.0980835E0,0E0,2.8442844E1,4.762381E1,2.223816E1,7.6184998E0,0E0,6.5458305E1,3.956906E1,1.3786328E2,4.0588013E1,1.1043333E1,1.6685913E1,3.8518944E0,5.958544E0,5.6652136E2,1.3485254E2,1.1121582E2,1.6603116E2,1.5171472E3,7.177112E1,3.2699982E2,1.5527051E2,0E0,0E0,0E0,0E0,0E0,0E0,0E0,0E0,0E0,0E0,0E0,0E0,0E0,0E0,0E0,0E0,0E0,0E0,0E0,0E0,0E0,0E0,0E0,0E0,0E0,0E0,0E0,0E0,0E0,0E0,0E0,0E0,0E0,0E0,0E0,0E0,0E0,0E0,0E0,0E0,0E0,0E0,0E0,0E0,0E0,0E0,0E0,0E0,0E0,0E0,0E0,0E0,0E0,0E0,0E0,0E0],"parents":[2147483647,0,0,1,1,2,2,3,3,4,4,5,5,6,6,7,7,8,8,9,9,10,10,11,11,12,12,13,13,14,14,15,15,16,16,17,17,18,18,19,19,20,20,22,22,23,23,24,24,25,25,26,26,27,27,28,28,29,29,30,30,31,31,32,32,33,33,34,34,35,35,36,36,37,37,38,38,40,40,41,41,42,42,43,43,45,45,46,46,47,47,48,48,49,49,50,50,51,51,52,52,53,53,54,54,55,55,56,56,57,57,58,58,59,59,60,60],"right_children":[2,4,6,8,10,12,14,16,18,20,22,24,26,28,30,32,34,36,38,40,42,-1,44,46,48,50,52,54,56,58,60,62,64,66,68,70,72,74,76,-1,78,80,82,84,-1,86,88,90,92,94,96,98,100,102,104,106,108,110,112,114,116,-1,-1,-1,-1,-1,-1,-1,-1,-1,-1,-1,-1,-1,-1,-1,-1,-1,-1,-1,-1,-1,-1,-1,-1,-1,-1,-1,-1,-1,-1,-1,-1,-1,-1,-1,-1,-1,-1,-1,-1,-1,-1,-1,-1,-1,-1,-1,-1,-1,-1,-1,-1,-1,-1,-1,-1],"split_conditions":[1.1317589E1,2.0871968E2,7.531829E0,-2.220322E-1,6.76219E1,-5.446051E2,-2.9152118E2,9.1999376E-1,1.7945828E0,4.001577E1,2.3049228E-1,1.4486261E-2,1.435781E0,-8.491342E0,-9.7633207E-1,-2.9187927E-1,5.323612E2,5.330753E0,4.884175E0,-1.4292854E-1,5.85299E2,-1.58E-1,2.3658192E2,1.7262936E2,-2.8922283E1,5.57491E0,6.6613083E0,-1.6919971E1,6.817306E1,4.3999007E-1,7.1535277E0,-6.300321E2,6.712156E0,-8.642964E-1,3.8638718E0,-1.1156701E0,1.8543034E1,1.2271232E1,4.3659115E0,-1.7361702E-1,1.0756593E1,1.3050742E1,7.267616E1,-2.9533952E-1,-1.23636365E-1,-7.5690436E-1,1.0566184E1,2.306357E1,1.8387543E-1,1.8594143E1,2.3015363E0,-6.7368164E1,-5.376593E2,1.1686161E-1,-1.31070795E1,1.583908E2,1.7409061E1,5.633493E-1,2.9425218E0,-5.554983E2,5.981857E0,-4.583519E-2,1.5795727E-1,1.1613963E-1,-1.0458058E-1,-1.5515152E-1,1.3551724E-1,-2.118577E-2,-1.7117074E-1,-9.5E-2,1.7999999E-1,8.7272726E-2,-1.65E-1,1.0421053E-1,-1.6355555E-1,1.4545455E-2,-1.8841791E-1,1.4508475E-1,-7.589744E-2,-5.8562875E-2,-1.6900322E-1,-1.868339E-1,8.285715E-2,-4.4999998E-2,1.92E-1,1.4101695E-1,-1.6352941E-1,-1.3397591E-1,1.0181818E-1,1.9016935E-1,-2.3307087E-2,5.508197E-2,-1.6358975E-1,-9.6666664E-2,1.5333334E-1,1.0666668E-1,-1.9264439E-1,1.8666667E-1,1.4545455E-2,3.6000002E-2,-1.6347826E-1,-1.5012877E-1,1.0463747E-1,-9.125517E-2,-1.9251317E-1,-1.9064924E-1,-1.0267311E-1,-1.7030676E-1,1.4607143E-1,5.0146934E-2,-1.6766599E-1,-4.205714E-2,-1.7783783E-1,1.3051878E-1,-1.7092784E-1,-4.8508286E-2,-1.8420434E-1],"split_indices":[132,40,129,8,296,362,160,6,73,361,33,33,35,6,24,24,280,150,139,35,280,0,40,40,90,135,136,170,297,5,127,362,127,19,63,9,124,130,45,0,145,141,297,39,0,5,64,128,241,158,142,84,362,35,170,241,47,6,140,362,130,0,0,0,0,0,0,0,0,0,0,0,0,0,0,0,0,0,0,0,0,0,0,0,0,0,0,0,0,0,0,0,0,0,0,0,0,0,0,0,0,0,0,0,0,0,0,0,0,0,0,0,0,0,0,0,0],"split_type":[0,0,0,0,0,0,0,0,0,0,0,0,0,0,0,0,0,0,0,0,0,0,0,0,0,0,0,0,0,0,0,0,0,0,0,0,0,0,0,0,0,0,0,0,0,0,0,0,0,0,0,0,0,0,0,0,0,0,0,0,0,0,0,0,0,0,0,0,0,0,0,0,0,0,0,0,0,0,0,0,0,0,0,0,0,0,0,0,0,0,0,0,0,0,0,0,0,0,0,0,0,0,0,0,0,0,0,0,0,0,0,0,0,0,0,0,0],"sum_hessian":[2.17025E4,9.59025E3,1.211225E4,8.78625E3,8.04E2,1.55575E3,1.05565E4,8.48325E3,3.03E2,7.72E2,3.2E1,1.36275E3,1.93E2,4.90375E3,5.65275E3,8.10725E3,3.76E2,3.225E1,2.7075E2,3.325E1,7.3875E2,4E0,2.8E1,1.1925E2,1.2435E3,1.7025E2,2.275E1,1.16425E3,3.7395E3,3.54775E3,2.105E3,7.72225E3,3.85E2,1.0975E2,2.6625E2,2.55E1,6.75E0,1.875E1,2.52E2,1.075E1,2.25E1,1.5925E2,5.795E2,2.625E1,1.75E0,5.075E1,6.85E1,1.21075E3,3.275E1,5.5E0,1.6475E2,1.65E1,6.25E0,4.6275E2,7.015E2,3.67275E3,6.675E1,2.9325E3,6.1525E2,1.8625E2,1.91875E3,2.235E2,7.49875E3,1.2075E2,2.6425E2,2.375E1,8.6E1,6.225E1,2.04E2,1E0,2.45E1,1.75E0,5E0,8.5E0,1.025E1,1.75E0,2.5025E2,1.375E1,8.75E0,8.25E1,7.675E1,5.77E2,2.5E0,1E0,2.525E1,4.325E1,7.5E0,6.125E1,7.25E0,1.18E3,3.075E1,1.425E1,1.85E1,2E0,3.5E0,1.25E0,1.635E2,1.475E1,1.75E0,1.5E0,4.75E0,1.155E2,3.4725E2,1.8025E2,5.2125E2,3.5185E3,1.5425E2,3.975E1,2.7E1,2.56825E3,3.6425E2,4.275E1,5.725E2,1.3875E2,4.75E1,8.95E1,1.82925E3],"tree_param":{"num_deleted":"0","num_feature":"365","num_nodes":"117","size_leaf_vector":"1"}},{"base_weights":[-1.4215466E-3,-1.3673744E0,3.452961E-1,-1.7301873E0,-1.391276E-1,8.653318E-1,-6.7287785E-1,-1.7925291E0,-1.7940988E-1,6.9483227E-1,-9.35541E-1,1.0202993E0,-1.2190793E0,4.0398993E-2,-1.3066851E0,-1.8003485E0,-2.9212055E-1,-1.7612767E0,1.3567929E0,1.0697666E0,-1.3964138E0,1.2660601E0,-1.1969098E0,1.167051E0,-2.692278E-1,6.4586693E-1,-1.5404621E0,5.19192E-1,-1.2777592E0,-5.747061E-1,-1.6584826E0,-1.3303881E0,-1.8228992E0,1.3820337E0,-1.4030181E0,-0E0,-1.8039869E-1,1.8038484E0,-1.6661468E-1,1.4777218E0,-2.0380749E-1,1.6156809E-1,-1.6355644E0,-1.2533263E0,1.630413E0,-1.6964266E0,-6.922736E-1,1.2571427E0,-7.410709E-1,1.1665968E0,-9.5159715E-1,-1.0512794E0,1.341339E0,5.218643E-1,-1.6549592E0,8.947208E-1,-1.4133954E0,3.7179413E-1,-1.5274785E0,6.399246E-1,-1.2406434E0,-7.238845E-1,-1.7105373E0,-1.7697287E-1,1.2845725E-1,-1.826408E-1,-7.994988E-2,1.4526335E-2,1.5815589E-1,-1.6997163E-1,5.286124E-2,1.9821392E-1,-1.3577907E-1,1.5712462E-1,-1.3888185E-1,4.857275E-2,-1.3027857E-1,7.3409915E-2,-1.726454E-1,-1.5682124E-1,1.3232874E-2,-1.10611476E-1,1.7281602E-1,-1.7365907E-1,9.826698E-2,-2.3976434E-2,-1.5570037E-1,1.3273765E-1,-4.5132704E-2,-1.683356E-1,1.8577185E-2,1.4699095E-1,-9.177037E-2,-1.4812717E-1,1.0768969E-1,9.067779E-2,-1.4757289E-1,1.5250532E-1,-1.4062504E-1,-1.456053E-1,1.3267998E-1,3.1666107E-2,-1.7009799E-1,1.1549089E-1,-3.9337292E-2,5.5711134E-3,-1.6880322E-1,1.01802744E-1,-1.3142437E-1,2.155948E-2,-1.6653465E-1,-5.6568194E-2,1.3942404E-1,-1.5780544E-1,3.0476421E-2,1.06163464E-1,-1.163704E-1,-1.3661687E-1,-1.7907886E-1],"categories":[],"categories_nodes":[],"categories_segments":[],"categories_sizes":[],"default_left":[0,0,0,0,0,0,0,0,0,0,0,0,0,0,0,0,0,0,0,0,0,0,0,0,0,0,0,0,0,0,0,0,0,0,0,0,0,0,0,0,0,0,0,0,0,0,0,0,0,0,0,0,0,0,0,0,0,0,0,0,0,0,0,0,0,0,0,0,0,0,0,0,0,0,0,0,0,0,0,0,0,0,0,0,0,0,0,0,0,0,0,0,0,0,0,0,0,0,0,0,0,0,0,0,0,0,0,0,0,0,0,0,0,0,0,0,0,0,0],"id":1,"left_children":[1,3,5,7,9,11,13,15,17,19,21,23,25,27,29,31,33,35,37,39,41,43,45,47,49,51,53,55,57,59,61,63,65,67,69,-1,-1,71,-1,73,75,-1,77,79,81,83,85,87,89,91,93,95,97,99,101,103,105,107,109,111,113,115,117,-1,-1,-1,-1,-1,-1,-1,-1,-1,-1,-1,-1,-1,-1,-1,-1,-1,-1,-1,-1,-1,-1,-1,-1,-1,-1,-1,-1,-1,-1,-1,-1,-1,-1,-1,-1,-1,-1,-1,-1,-1,-1,-1,-1,-1,-1,-1,-1,-1,-1,-1,-1,-1,-1,-1,-1],"loss_changes":[1.0262009E4,1.9543271E3,9.150831E3,3.2684668E2,6.657991E2,3.6963271E3,2.6416562E3,3.745508E1,3.232878E2,3.8542133E2,2.9655005E2,2.0155E3,4.757964E2,1.736192E3,7.9553467E2,3.1575195E1,3.567076E1,5.1076202E0,9.4264336E1,2.1648975E2,5.6556396E1,5.2436172E1,1.1425775E2,1.6445088E3,1.0677922E3,1.3963597E2,1.6058801E2,1.4657965E3,3.0261157E2,8.145106E2,1.00148926E2,1.7713345E2,9.360352E0,1.4981575E0,7.568611E0,0E0,0E0,3.619658E1,0E0,8.668799E1,7.77882E1,0E0,1.6413849E1,3.6067972E0,1.4918701E1,2.6510986E1,8.946809E1,1.0962119E3,3.7742657E2,2.233899E2,7.9521967E2,3.0111279E1,4.432112E1,5.9660786E1,5.880896E1,5.67052E2,1.3286969E2,1.07131386E2,1.5354688E2,3.253648E2,3.3959607E2,8.923809E1,5.190039E1,0E0,0E0,0E0,0E0,0E0,0E0,0E0,0E0,0E0,0E0,0E0,0E0,0E0,0E0,0E0,0E0,0E0,0E0,0E0,0E0,0E0,0E0,0E0,0E0,0E0,0E0,0E0,0E0,0E0,0E0,0E0,0E0,0E0,0E0,0E0,0E0,0E0,0E0,0E0,0E0,0E0,0E0,0E0,0E0,0E0,0E0,0E0,0E0,0E0,0E0,0E0,0E0,0E0,0E0,0E0,0E0],"parents":[2147483647,0,0,1,1,2,2,3,3,4,4,5,5,6,6,7,7,8,8,9,9,10,10,11,11,12,12,13,13,14,14,15,15,16,16,17,17,18,18,19,19,20,20,21,21,22,22,23,23,24,24,25,25,26,26,27,27,28,28,29,29,30,30,31,31,32,32,33,33,34,34,37,37,39,39,40,40,42,42,43,43,44,44,45,45,46,46,47,47,48,48,49,49,50,50,51,51,52,52,53,53,54,54,55,55,56,56,57,57,58,58,59,59,60,60,61,61,62,62],"right_children":[2,4,6,8,10,12,14,16,18,20,22,24,26,28,30,32,34,36,38,40,42,44,46,48,50,52,54,56,58,60,62,64,66,68,70,-1,-1,72,-1,74,76,-1,78,80,82,84,86,88,90,92,94,96,98,100,102,104,106,108,110,112,114,116,118,-1,-1,-1,-1,-1,-1,-1,-1,-1,-1,-1,-1,-1,-1,-1,-1,-1,-1,-1,-1,-1,-1,-1,-1,-1,-1,-1,-1,-1,-1,-1,-1,-1,-1,-1,-1,-1,-1,-1,-1,-1,-1,-1,-1,-1,-1,-1,-1,-1,-1,-1,-1,-1,-1,-1,-1],"split_conditions":[-6.166896E2,-2.603695E2,2.0414076E1,7.62138E1,9.227139E0,-8.699029E-1,3.3684177E1,1.1874393E1,-3.1514026E2,6.620856E2,6.8998914E0,2.4455525E-1,3.7070043E0,-1.341994E0,-3.9972218E1,2.8100305E0,9.834955E0,1.394269E2,6.2528853E0,1.1783788E1,1.1855283E0,1.7644194E1,-6.36003E2,3.1217735E1,-1.1289703E1,-2.3922768E0,3.9681573E0,-8.568025E-1,2.3963811E0,1.5945527E1,4.430948E0,6.985668E1,7.703124E1,2.7164818E1,2.961172E2,-0E0,-1.8039869E-1,-1.8567176E0,-1.6661468E-1,3.1547682E0,1.8387543E-1,1.6156809E-1,9.828643E-1,-6.276615E2,1.1771126E1,7.370544E1,-1.6670785E0,2.1157466E2,-5.1736195E1,2.606441E0,1.1817168E1,5.701666E0,1.9743658E2,-5.5902854E-2,1.5199387E0,2.7824243E2,1.8387543E-1,1.357472E-1,5.109496E0,-2.1016672E1,-5.9006294E1,6.3792696E0,-4.199165E0,-1.7697287E-1,1.2845725E-1,-1.826408E-1,-7.994988E-2,1.4526335E-2,1.5815589E-1,-1.6997163E-1,5.286124E-2,1.9821392E-1,-1.3577907E-1,1.5712462E-1,-1.3888185E-1,4.857275E-2,-1.3027857E-1,7.3409915E-2,-1.726454E-1,-1.5682124E-1,1.3232874E-2,-1.10611476E-1,1.7281602E-1,-1.7365907E-1,9.826698E-2,-2.3976434E-2,-1.5570037E-1,1.3273765E-1,-4.5132704E-2,-1.683356E-1,1.8577185E-2,1.4699095E-1,-9.177037E-2,-1.4812717E-1,1.0768969E-1,9.067779E-2,-1.4757289E-1,1.5250532E-1,-1.4062504E-1,-1.456053E-1,1.3267998E-1,3.1666107E-2,-1.7009799E-1,1.1549089E-1,-3.9337292E-2,5.5711134E-3,-1.6880322E-1,1.01802744E-1,-1.3142437E-1,2.155948E-2,-1.6653465E-1,-5.6568194E-2,1.3942404E-1,-1.5780544E-1,3.0476421E-2,1.06163464E-1,-1.163704E-1,-1.3661687E-1,-1.7907886E-1],"split_indices":[80,160,128,41,46,12,125,59,160,280,129,261,138,8,92,65,127,320,54,137,75,151,80,127,175,18,131,24,65,130,136,41,297,152,281,0,0,26,0,2,241,0,130,80,157,41,18,40,86,256,52,130,40,171,65,320,241,8,139,93,82,130,12,0,0,0,0,0,0,0,0,0,0,0,0,0,0,0,0,0,0,0,0,0,0,0,0,0,0,0,0,0,0,0,0,0,0,0,0,0,0,0,0,0,0,0,0,0,0,0,0,0,0,0,0,0,0,0,0],"split_type":[0,0,0,0,0,0,0,0,0,0,0,0,0,0,0,0,0,0,0,0,0,0,0,0,0,0,0,0,0,0,0,0,0,0,0,0,0,0,0,0,0,0,0,0,0,0,0,0,0,0,0,0,0,0,0,0,0,0,0,0,0,0,0,0,0,0,0,0,0,0,0,0,0,0,0,0,0,0,0,0,0,0,0,0,0,0,0,0,0,0,0,0,0,0,0,0,0,0,0,0,0,0,0,0,0,0,0,0,0,0,0,0,0,0,0,0,0,0,0],"sum_hessian":[2.1665879E4,4.3855615E3,1.7280318E4,3.385134E3,1.00042755E3,1.1438377E4,5.841941E3,3.2540977E3,1.3103647E2,4.8869513E2,5.1173242E2,1.0647349E4,7.91029E2,2.7490176E3,3.092923E3,3.2369617E3,1.7136032E1,6.451861E1,6.651786E1,4.1485336E2,7.384177E1,5.3856216E1,4.5787622E2,9.559611E3,1.0877366E3,1.1608443E2,6.749446E2,2.0170492E3,7.319683E2,1.0049204E3,2.0880027E3,1.5116112E2,3.0858005E3,6.701936E0,1.0434095E1,1.4961663E0,6.3022446E1,5.83282E1,8.189659E0,3.14144E2,1.0070935E2,4.9774094E0,6.886436E1,6.461643E0,4.7394573E1,2.2881883E2,2.2905737E2,9.128981E3,4.306299E2,3.50135E2,7.3760156E2,3.3552223E1,8.25322E1,3.5267807E1,6.3967676E2,1.6893698E3,3.2767944E2,9.6123375E1,6.358449E2,3.5581808E2,6.4910236E2,1.110486E2,1.9769541E3,1.2972708E2,2.1434032E1,3.0743774E3,1.1423134E1,1.240687E0,5.461249E0,9.193766E0,1.24033E0,5.5597637E1,2.730563E0,3.0468985E2,9.454136E0,6.2169308E1,3.8540043E1,2.241708E0,6.662265E1,5.216605E0,1.245038E0,1.2434623E0,4.615111E1,2.2582253E2,2.996313E0,1.5128404E2,7.777333E1,8.768786E3,3.6019586E2,2.1318483E2,2.174451E2,3.059545E2,4.4180534E1,5.8513257E2,1.5246902E2,5.7329926E0,2.7819231E1,7.781082E1,4.7213783E0,9.931245E0,2.5336563E1,1.4406757E1,6.2527E2,1.4056226E3,2.8374722E2,5.167717E1,2.760023E2,6.98185E1,2.6304882E1,4.6511272E1,5.893336E2,1.3698903E2,2.1882904E2,5.3281555E2,1.1628679E2,2.162346E1,8.942514E1,3.77277E2,1.5996771E3],"tree_param":{"num_deleted":"0","num_feature":"365","num_nodes":"119","size_leaf_vector":"1"}},{"base_weights":[-2.0270655E-3,7.607624E-1,-7.768196E-1,9.59984E-1,-1.2720617E0,1.1468576E0,-1.0372509E0,1.0834221E0,-9.007715E-1,-1.4018925E0,1.1497442E0,-2.0565441E-1,1.600975E0,3.398965E-1,-1.1827493E0,1.3267186E0,3.757044E-1,3.465335E-1,-1.3073546E0,-8.694232E-1,-1.5357765E0,1.5547476E0,-1.3641715E-1,1.0195599E0,-8.290402E-1,1.7144855E0,-1.6305578E0,-7.9244363E-1,1.1455545E0,-9.28602E-1,-1.6304197E0,1.3746706E0,-1.1544605E0,8.1130785E-1,-7.1940905E-1,1.1874149E0,-5.9564507E-1,-3.75453E-1,-1.5349028E0,-1.3088457E-2,-1.2108827E0,-1.1212647E0,-1.6145282E0,1.777183E0,-5.056576E-1,1.2539296E0,-9.34957E-1,-1.4784321E-1,-1.4131335E0,1.7365465E0,-2.7899453E-1,-1.7122114E-1,-2.0818328E-2,-3.6275975E-2,-1.4578706E0,-1.2135233E0,1.3454257E0,-1.5551604E0,-5.918902E-1,-4.8595986E-1,-1.6646476E0,1.413718E-1,-9.264591E-2,1.0339879E-1,-1.4815246E-1,-8.079897E-2,1.0126889E-1,3.600053E-2,-1.2446554E-1,-7.089701E-2,1.5054388E-1,3.4703687E-2,-1.2289023E-1,-9.907324E-2,9.447116E-2,1.1851909E-1,-1.6090491E-1,-1.147053E-1,7.216625E-2,1.559601E-3,-1.3266659E-1,9.207065E-3,-1.2925677E-1,9.909414E-2,-1.626901E-1,1.8017094E-1,5.1600326E-2,6.64968E-2,-1.2282132E-1,1.36267E-1,-1.13656834E-1,-1.5275635E-1,6.406086E-2,-8.6568706E-2,7.974948E-2,-1.5669477E-1,9.047561E-2,1.7451996E-1,-1.2050469E-1,1.1713175E-1,-1.19908325E-1,6.1669506E-2,-1.2316537E-1,-1.5603703E-1,-1.5501608E-4,-1.5315719E-1,3.624367E-2,1.5173526E-1,-6.082495E-2,7.053857E-2,-1.640601E-1,7.763604E-2,-7.958929E-2,7.933021E-2,-1.4609341E-1,-3.9347064E-2,-1.677575E-1],"categories":[],"categories_nodes":[],"categories_segments":[],"categories_sizes":[],"default_left":[0,0,0,0,0,0,0,0,0,0,0,0,0,0,0,0,0,0,0,0,0,0,0,0,0,0,0,0,0,0,0,0,0,0,0,0,0,0,0,0,0,0,0,0,0,0,0,0,0,0,0,0,0,0,0,0,0,0,0,0,0,0,0,0,0,0,0,0,0,0,0,0,0,0,0,0,0,0,0,0,0,0,0,0,0,0,0,0,0,0,0,0,0,0,0,0,0,0,0,0,0,0,0,0,0,0,0,0,0,0,0,0,0,0,0,0,0],"id":2,"left_children":[1,3,5,7,9,11,13,15,17,19,21,23,25,27,29,31,33,35,37,39,41,43,-1,45,47,49,51,53,55,57,59,61,63,65,67,69,71,73,75,77,79,81,83,85,87,89,91,93,95,97,99,-1,-1,101,103,105,107,109,111,113,115,-1,-1,-1,-1,-1,-1,-1,-1,-1,-1,-1,-1,-1,-1,-1,-1,-1,-1,-1,-1,-1,-1,-1,-1,-1,-1,-1,-1,-1,-1,-1,-1,-1,-1,-1,-1,-1,-1,-1,-1,-1,-1,-1,-1,-1,-1,-1,-1,-1,-1,-1,-1,-1,-1,-1,-1],"loss_changes":[1.2607683E4,4.3545635E3,5.303176E3,2.2497998E3,3.0343372E2,7.7580493E2,1.8683145E3,1.5803574E3,3.096882E2,6.34032E1,5.2383415E1,2.4381395E2,3.4952124E2,8.1420844E2,9.5749805E2,8.1453125E2,1.1218866E3,1.2007004E2,9.677588E1,5.4129364E1,2.1644653E1,2.0734177E1,0E0,5.05289E1,8.3771576E1,4.081079E1,3.232811E0,1.8654413E2,2.4745862E2,1.134001E3,1.1851904E2,6.0368945E2,9.4660645E1,5.493889E2,3.800422E2,4.937097E1,4.3272263E1,7.5414825E1,7.643341E1,4.58635E1,1.8980316E1,2.5082733E1,2.1287964E1,4.7302246E-2,5.038628E0,2.6687302E1,1.2324237E1,6.775161E1,4.2002502E1,2.516333E1,1.5835428E1,0E0,0E0,1.3727571E2,2.929541E1,2.1325768E1,1.6261786E2,3.643711E2,9.7798376E2,1.136236E2,4.7817383E1,0E0,0E0,0E0,0E0,0E0,0E0,0E0,0E0,0E0,0E0,0E0,0E0,0E0,0E0,0E0,0E0,0E0,0E0,0E0,0E0,0E0,0E0,0E0,0E0,0E0,0E0,0E0,0E0,0E0,0E0,0E0,0E0,0E0,0E0,0E0,0E0,0E0,0E0,0E0,0E0,0E0,0E0,0E0,0E0,0E0,0E0,0E0,0E0,0E0,0E0,0E0,0E0,0E0,0E0,0E0,0E0],"parents":[2147483647,0,0,1,1,2,2,3,3,4,4,5,5,6,6,7,7,8,8,9,9,10,10,11,11,12,12,13,13,14,14,15,15,16,16,17,17,18,18,19,19,20,20,21,21,23,23,24,24,25,25,26,26,27,27,28,28,29,29,30,30,31,31,32,32,33,33,34,34,35,35,36,36,37,37,38,38,39,39,40,40,41,41,42,42,43,43,44,44,45,45,46,46,47,47,48,48,49,49,50,50,53,53,54,54,55,55,56,56,57,57,58,58,59,59,60,60],"right_children":[2,4,6,8,10,12,14,16,18,20,22,24,26,28,30,32,34,36,38,40,42,44,-1,46,48,50,52,54,56,58,60,62,64,66,68,70,72,74,76,78,80,82,84,86,88,90,92,94,96,98,100,-1,-1,102,104,106,108,110,112,114,116,-1,-1,-1,-1,-1,-1,-1,-1,-1,-1,-1,-1,-1,-1,-1,-1,-1,-1,-1,-1,-1,-1,-1,-1,-1,-1,-1,-1,-1,-1,-1,-1,-1,-1,-1,-1,-1,-1,-1,-1,-1,-1,-1,-1,-1,-1,-1,-1,-1,-1,-1,-1,-1,-1,-1,-1],"split_conditions":[1.2667803E1,2.0871968E2,7.3913774E0,7.3631847E-1,6.600455E1,5.655403E1,7.409854E0,9.441778E0,6.3407497E0,2.161195E2,5.753845E-2,2.6322266E-2,-5.4348956E2,4.6357316E-1,-1.5684725E0,-5.493223E-2,-3.336322E1,5.401711E2,1.010811E1,8.152296E0,5.85299E2,-5.524447E1,-1.3641715E-1,-2.2815476E-1,-1.8189557E0,-3.0217522E1,3.689074E1,2.236601E2,-6.204995E2,-2.2705661E2,2.0553699E0,4.0804183E-1,1.7276188E0,-2.0790898E2,7.8326216E0,-6.5416086E-1,1.1836185E1,3.5658522E0,-1.6175089E1,-9.481642E-2,7.78458E0,2.2717173E1,3.8964714E1,-1.9095516E1,6.1913204E1,2.6523748E-1,2.2762226E1,8.4967744E-1,2.3663467E2,1.00934616E2,5.258877E1,-1.7122114E-1,-2.0818328E-2,4.986106E0,1.3648515E0,-1.2812215E2,-5.428206E-1,-1.24362955E1,-9.231233E0,-1.8936692E0,3.3268452E-1,1.413718E-1,-9.264591E-2,1.0339879E-1,-1.4815246E-1,-8.079897E-2,1.0126889E-1,3.600053E-2,-1.2446554E-1,-7.089701E-2,1.5054388E-1,3.4703687E-2,-1.2289023E-1,-9.907324E-2,9.447116E-2,1.1851909E-1,-1.6090491E-1,-1.147053E-1,7.216625E-2,1.559601E-3,-1.3266659E-1,9.207065E-3,-1.2925677E-1,9.909414E-2,-1.626901E-1,1.8017094E-1,5.1600326E-2,6.64968E-2,-1.2282132E-1,1.36267E-1,-1.13656834E-1,-1.5275635E-1,6.406086E-2,-8.6568706E-2,7.974948E-2,-1.5669477E-1,9.047561E-2,1.7451996E-1,-1.2050469E-1,1.1713175E-1,-1.19908325E-1,6.1669506E-2,-1.2316537E-1,-1.5603703E-1,-1.5501608E-4,-1.5315719E-1,3.624367E-2,1.5173526E-1,-6.082495E-2,7.053857E-2,-1.640601E-1,7.763604E-2,-7.958929E-2,7.933021E-2,-1.4609341E-1,-3.9347064E-2,-1.677575E-1],"split_indices":[132,40,127,6,296,299,130,138,132,40,242,327,80,37,12,8,90,280,136,137,280,87,0,12,19,91,155,320,80,200,65,21,75,200,146,19,130,2,4,35,127,303,361,107,123,19,155,35,363,123,288,0,0,61,35,0,24,216,10,360,136,0,0,0,0,0,0,0,0,0,0,0,0,0,0,0,0,0,0,0,0,0,0,0,0,0,0,0,0,0,0,0,0,0,0,0,0,0,0,0,0,0,0,0,0,0,0,0,0,0,0,0,0,0,0,0,0],"split_type":[0,0,0,0,0,0,0,0,0,0,0,0,0,0,0,0,0,0,0,0,0,0,0,0,0,0,0,0,0,0,0,0,0,0,0,0,0,0,0,0,0,0,0,0,0,0,0,0,0,0,0,0,0,0,0,0,0,0,0,0,0,0,0,0,0,0,0,0,0,0,0,0,0,0,0,0,0,0,0,0,0,0,0,0,0,0,0,0,0,0,0,0,0,0,0,0,0,0,0,0,0,0,0,0,0,0,0,0,0,0,0,0,0,0,0,0,0],"sum_hessian":[2.1330664E4,1.0748534E4,1.0582129E4,9.789697E3,9.5883673E2,1.2613528E3,9.320776E3,9.181116E3,6.0858167E2,9.104887E2,4.8348022E1,3.171379E2,9.4421484E2,8.9046564E2,8.430312E3,6.831569E3,2.3495469E3,1.4958635E2,4.589953E2,1.8459154E2,7.258972E2,4.2002544E1,6.3454804E0,1.0667699E2,2.104609E2,9.126573E2,3.1557518E1,3.701366E2,5.2032904E2,5.3795693E3,3.0507417E3,6.7025205E3,1.2904872E2,1.6811758E3,6.6837115E2,7.8960785E1,7.062556E1,9.0686584E1,3.6830872E2,5.3001644E1,1.3158989E2,1.1852819E2,6.07369E2,3.8077766E1,3.924775E0,9.562056E1,1.105643E1,9.781213E1,1.1264878E2,9.02845E2,9.812332E0,2.9585066E1,1.9724505E0,1.7381929E2,1.9631729E2,4.0206E1,4.8012302E2,1.8790635E3,3.5005059E3,8.911672E1,2.961625E3,6.5911064E3,1.1141391E2,1.645798E1,1.1259074E2,1.855628E2,1.495613E3,2.1881558E2,4.4955557E2,1.1118304E1,6.784248E1,2.8497522E1,4.2128036E1,6.2079117E1,2.860747E1,9.339819E0,3.589689E2,2.067233E1,3.2329315E1,1.1351057E1,1.2023883E2,1.4648921E1,1.03879265E2,2.4586468E0,6.0491034E2,3.68532E1,1.224569E0,1.4755353E0,2.4492395E0,9.191143E1,3.709128E0,8.102739E0,2.9536903E0,5.5703575E1,4.2108555E1,1.0598292E2,6.6658683E0,9.0063635E2,2.2086267E0,3.660557E0,6.151775E0,1.12672676E2,6.1146614E1,1.8327762E2,1.3039682E1,3.3530704E1,6.6752987E0,4.4154114E2,3.858188E1,6.812849E1,1.8109349E3,4.5376913E2,3.0467366E3,3.857989E1,5.0536835E1,3.020945E1,2.9314155E3],"tree_param":{"num_deleted":"0","num_feature":"365","num_nodes":"117","size_leaf_vector":"1"}},{"base_weights":[2.4780587E-3,8.663306E-1,-5.744683E-1,1.1445563E0,-2.6715547E-1,1.0079362E0,-8.000302E-1,1.2088953E0,-1.2610339E0,-8.4214467E-1,9.1568136E-1,1.3170199E0,-1.2838811E0,-3.337099E-1,-1.2012813E0,1.2918909E0,-2.540035E-1,8.360329E-1,-1.5007991E0,-1.3719349E-1,-1.2593414E0,-9.3732315E-1,1.283989E0,1.4489344E0,-4.5690832E-1,-1.60066E0,1.5389428E-1,-1.1339865E-2,-1.1788929E0,3.424615E-1,-1.2756413E0,-1.5061963E0,1.3278731E0,5.64497E-1,-1.3139566E0,1.3981262E0,-8.1573033E-1,2.2079003E-1,-1.5668756E0,-1.4387337E0,3.5086948E-1,-6.421017E-1,-1.5553116E0,1.2255979E0,-1.1765615E0,1.47083E0,-2.9936105E-1,1.5167582E0,-6.908309E-1,4.568163E-1,-1.3110518E0,-2.2684656E-2,-1.6490206E0,1.2815764E0,-9.7626776E-1,2.809263E-1,-1.1558316E0,-1.4217975E0,-8.013288E-2,-8.3216774E-1,1.4251221E0,-1.4539026E-1,-1.3742757E0,1.1853136E-1,-1.6077726E-1,1.3631175E-1,-9.3805976E-2,8.8906944E-2,-9.113201E-2,1.6742947E-2,-1.4644875E-1,1.6198063E-1,-3.0223712E-2,3.159348E-2,-1.24877945E-1,-1.1970147E-1,1.3412677E-1,-4.322306E-2,-1.5817286E-1,1.1772028E-1,-1.8398826E-1,7.112876E-2,-1.1455535E-1,-3.387138E-3,-1.5307239E-1,-1.593461E-1,-7.195252E-2,-1.7978024E-2,1.4654897E-1,-2.2237506E-2,-1.4920431E-1,1.5555881E-1,-7.130491E-2,-1.5111166E-1,1.06516205E-1,-4.639032E-2,1.5583746E-1,2.764217E-2,-1.4321855E-1,1.1104697E-1,-5.8704674E-2,5.0679125E-2,-1.47738E-1,8.839289E-2,-1.1879044E-1,-9.151098E-3,-1.6604482E-1,-9.0903796E-2,1.5017192E-1,1.821039E-2,-1.4018396E-1,5.6911748E-2,-1.4192818E-1,3.4274682E-2,-1.3945639E-1,-1.5104425E-1,-4.044899E-2,8.2016274E-2,-1.4736964E-1,-1.3946192E-1,1.1969398E-3,1.6430344E-1,-1.4318858E-1,-1.2651128E-1,8.344008E-2,-7.127681E-2,-1.4533143E-1],"categories":[],"categories_nodes":[],"categories_segments":[],"categories_sizes":[],"default_left":[0,0,0,0,0,0,0,0,0,0,0,0,0,0,0,0,0,0,0,0,0,0,0,0,0,0,0,0,0,0,0,0,0,0,0,0,0,0,0,0,0,0,0,0,0,0,0,0,0,0,0,0,0,0,0,0,0,0,0,0,0,0,0,0,0,0,0,0,0,0,0,0,0,0,0,0,0,0,0,0,0,0,0,0,0,0,0,0,0,0,0,0,0,0,0,0,0,0,0,0,0,0,0,0,0,0,0,0,0,0,0,0,0,0,0,0,0,0,0,0,0,0,0,0,0,0,0],"id":3,"left_children":[1,3,5,7,9,11,13,15,17,19,21,23,25,27,29,31,33,35,37,39,41,43,45,47,49,51,53,55,57,59,61,63,65,67,69,71,73,75,77,79,81,83,85,87,89,91,93,95,97,99,101,103,105,107,109,111,113,115,117,119,121,123,125,-1,-1,-1,-1,-1,-1,-1,-1,-1,-1,-1,-1,-1,-1,-1,-1,-1,-1,-1,-1,-1,-1,-1,-1,-1,-1,-1,-1,-1,-1,-1,-1,-1,-1,-1,-1,-1,-1,-1,-1,-1,-1,-1,-1,-1,-1,-1,-1,-1,-1,-1,-1,-1,-1,-1,-1,-1,-1,-1,-1,-1,-1,-1,-1],"loss_changes":[1.0415306E4,2.6394263E3,4.4729E3,1.0414736E3,1.122942E3,1.1092577E3,2.0514658E3,7.950547E2,8.955176E1,3.263899E2,3.698658E2,3.232876E2,8.523172E1,1.3822429E3,6.771387E2,6.255615E2,3.06326E2,1.8471403E1,1.8439697E1,2.6373032E2,1.26229004E2,4.8054733E1,1.3399152E2,1.8735327E2,7.5690735E1,1.1455078E1,4.5233883E1,1.2293087E3,3.7359448E2,3.466379E2,6.265742E2,2.356491E1,4.8971582E2,9.629834E1,3.466992E1,6.009266E0,3.089995E0,1.2193686E1,1.6802063E0,1.2103703E2,1.6364622E2,1.2297731E2,1.36311035E1,3.5680714E0,2.408171E1,7.5911804E1,8.165109E1,1.0338135E2,2.9240908E1,3.28545E1,1.5959953E1,7.0161E0,2.3100586E0,9.978992E0,9.126387E0,1.4350393E3,2.6804614E2,1.0263672E2,3.2087692E2,6.2281296E1,9.0619446E1,4.976071E2,2.6916504E2,0E0,0E0,0E0,0E0,0E0,0E0,0E0,0E0,0E0,0E0,0E0,0E0,0E0,0E0,0E0,0E0,0E0,0E0,0E0,0E0,0E0,0E0,0E0,0E0,0E0,0E0,0E0,0E0,0E0,0E0,0E0,0E0,0E0,0E0,0E0,0E0,0E0,0E0,0E0,0E0,0E0,0E0,0E0,0E0,0E0,0E0,0E0,0E0,0E0,0E0,0E0,0E0,0E0,0E0,0E0,0E0,0E0,0E0,0E0,0E0,0E0,0E0,0E0,0E0],"parents":[2147483647,0,0,1,1,2,2,3,3,4,4,5,5,6,6,7,7,8,8,9,9,10,10,11,11,12,12,13,13,14,14,15,15,16,16,17,17,18,18,19,19,20,20,21,21,22,22,23,23,24,24,25,25,26,26,27,27,28,28,29,29,30,30,31,31,32,32,33,33,34,34,35,35,36,36,37,37,38,38,39,39,40,40,41,41,42,42,43,43,44,44,45,45,46,46,47,47,48,48,49,49,50,50,51,51,52,52,53,53,54,54,55,55,56,56,57,57,58,58,59,59,60,60,61,61,62,62],"right_children":[2,4,6,8,10,12,14,16,18,20,22,24,26,28,30,32,34,36,38,40,42,44,46,48,50,52,54,56,58,60,62,64,66,68,70,72,74,76,78,80,82,84,86,88,90,92,94,96,98,100,102,104,106,108,110,112,114,116,118,120,122,124,126,-1,-1,-1,-1,-1,-1,-1,-1,-1,-1,-1,-1,-1,-1,-1,-1,-1,-1,-1,-1,-1,-1,-1,-1,-1,-1,-1,-1,-1,-1,-1,-1,-1,-1,-1,-1,-1,-1,-1,-1,-1,-1,-1,-1,-1,-1,-1,-1,-1,-1,-1,-1,-1,-1,-1,-1,-1,-1,-1,-1,-1,-1,-1,-1],"split_conditions":[1.0407388E1,2.482052E2,7.531829E0,-5.493223E-2,1.957047E1,-5.4287994E2,1.6555637E1,-3.817401E-1,1.75352E0,2.8322986E2,1.3155681E-1,1.0010751E2,-6.943012E1,2.8058356E2,7.1535277E0,-2.2167487E2,4.097017E0,5.1264286E0,3.6172218E0,4.0417694E1,5.750478E2,6.591201E0,5.8253784E2,-2.8610931E1,4.1110382E1,5.2326207E0,-5.868928E0,-8.365677E-1,1.6367663E0,6.3931797E1,-1.8496485E1,7.404242E0,1.3915191E0,6.027096E-1,-2.4710468E1,2.1828333E2,5.3938723E0,-2.4653935E-1,3.612125E0,3.6696076E0,8.043629E1,-1.8386614E0,7.70914E1,-6.3422483E-1,-4.6003647E0,-3.9356434E0,-1.2636486E-1,1.5401693E1,1.8387543E-1,3.434663E1,3.307807E1,5.8851933E0,-2.6257359E1,-5.913998E-1,3.148678E1,5.633493E-1,7.977317E0,7.62138E1,-1.2848612E1,-2.1470546E2,-5.468105E2,-3.138762E2,5.87298E0,1.1853136E-1,-1.6077726E-1,1.3631175E-1,-9.3805976E-2,8.8906944E-2,-9.113201E-2,1.6742947E-2,-1.4644875E-1,1.6198063E-1,-3.0223712E-2,3.159348E-2,-1.24877945E-1,-1.1970147E-1,1.3412677E-1,-4.322306E-2,-1.5817286E-1,1.1772028E-1,-1.8398826E-1,7.112876E-2,-1.1455535E-1,-3.387138E-3,-1.5307239E-1,-1.593461E-1,-7.195252E-2,-1.7978024E-2,1.4654897E-1,-2.2237506E-2,-1.4920431E-1,1.5555881E-1,-7.130491E-2,-1.5111166E-1,1.06516205E-1,-4.639032E-2,1.5583746E-1,2.764217E-2,-1.4321855E-1,1.1104697E-1,-5.8704674E-2,5.0679125E-2,-1.47738E-1,8.839289E-2,-1.1879044E-1,-9.151098E-3,-1.6604482E-1,-9.0903796E-2,1.5017192E-1,1.821039E-2,-1.4018396E-1,5.6911748E-2,-1.4192818E-1,3.4274682E-2,-1.3945639E-1,-1.5104425E-1,-4.044899E-2,8.2016274E-2,-1.4736964E-1,-1.3946192E-1,1.1969398E-3,1.6430344E-1,-1.4318858E-1,-1.2651128E-1,8.344008E-2,-7.127681E-2,-1.4533143E-1],"split_indices":[132,320,129,8,324,80,132,24,65,320,275,123,82,320,127,200,3,150,139,361,280,129,280,90,293,142,4,24,275,299,174,135,5,29,109,281,135,38,157,129,287,24,41,190,17,8,193,155,241,296,361,138,168,38,296,6,127,41,170,160,80,160,134,0,0,0,0,0,0,0,0,0,0,0,0,0,0,0,0,0,0,0,0,0,0,0,0,0,0,0,0,0,0,0,0,0,0,0,0,0,0,0,0,0,0,0,0,0,0,0,0,0,0,0,0,0,0,0,0,0,0,0,0,0,0,0,0],"split_type":[0,0,0,0,0,0,0,0,0,0,0,0,0,0,0,0,0,0,0,0,0,0,0,0,0,0,0,0,0,0,0,0,0,0,0,0,0,0,0,0,0,0,0,0,0,0,0,0,0,0,0,0,0,0,0,0,0,0,0,0,0,0,0,0,0,0,0,0,0,0,0,0,0,0,0,0,0,0,0,0,0,0,0,0,0,0,0,0,0,0,0,0,0,0,0,0,0,0,0,0,0,0,0,0,0,0,0,0,0,0,0,0,0,0,0,0,0,0,0,0,0,0,0,0,0,0,0],"sum_hessian":[2.0895568E4,8.367187E3,1.2528382E4,6.7182114E3,1.6489749E3,1.5625529E3,1.0965829E4,6.543734E3,1.7447719E2,1.1098419E3,5.39133E2,1.3772767E3,1.852761E2,5.0726504E3,5.893179E3,6.1925913E3,3.5114282E2,1.760387E1,1.5687332E2,4.1320465E2,6.966372E2,8.909048E1,4.5004254E2,1.2821704E3,9.510635E1,1.5178928E2,3.3486816E1,3.6728733E3,1.399777E3,2.7059387E2,5.6225854E3,7.8069046E1,6.1145225E3,1.9834953E2,1.5279329E2,1.3294024E1,4.309846E0,5.6559362E0,1.5121738E2,1.1221438E2,3.0099026E2,2.2691603E2,4.697212E2,8.420548E0,8.066993E1,4.026613E2,4.7381275E1,1.2431057E3,3.906465E1,4.6118713E1,4.8987637E1,4.61876E0,1.4717052E2,1.6739027E1,1.674779E1,2.9262666E3,7.466066E2,1.146036E3,2.53741E2,1.2985121E2,1.4074266E2,4.5156683E2,5.1710186E3,2.4153285E0,7.565372E1,6.021309E3,9.321303E1,1.6297272E2,3.537682E1,1.4022274E1,1.3877101E2,1.1854691E1,1.4393343E0,1.2037272E0,3.1061184E0,2.4271584E0,3.228778E0,2.429862E0,1.4878752E2,1.4629553E1,9.758483E1,2.4304388E2,5.7946384E1,1.3539417E2,9.1521866E1,4.482353E2,2.1485893E1,1.203531E0,7.2170177E0,2.0546896E1,6.012303E1,3.8793854E2,1.4722721E1,2.5077353E1,2.230392E1,2.5323503E1,1.2177822E3,1.7163507E1,2.1901146E1,2.8379702E1,1.7739012E1,3.8845203E0,4.5103115E1,2.6851394E0,1.9336207E0,1.2012815E0,1.4596924E2,1.2013153E0,1.5537712E1,4.5903497E0,1.215744E1,2.5027634E3,4.2350305E2,1.0247743E2,6.441292E2,1.0536418E3,9.239409E1,1.5435892E2,9.938209E1,7.760745E1,5.2243763E1,1.3119589E2,9.546775E0,2.106468E2,2.4092004E2,5.5310785E2,4.6179106E3],"tree_param":{"num_deleted":"0","num_feature":"365","num_nodes":"127","size_leaf_vector":"1"}},{"base_weights":[-2.8340654E-3,-1.1414384E0,2.7335745E-1,6.391108E-1,-1.3097132E0,7.680697E-1,-4.356642E-1,1.1098664E0,-1.4378119E0,-1.4203064E0,-4.0300265E-1,9.693706E-1,-2.1740592E-1,1.09019436E-1,-1.0215937E0,1.3506045E0,-9.440472E-1,1.12019636E-1,-1.5554601E0,-7.2760075E-1,-1.4842403E0,-1.2341665E0,3.139299E-1,-1.3951875E-1,1.1088827E0,8.944028E-1,-1.0678977E0,4.655915E-1,-1.0978798E0,-1.4550955E-2,-1.2266937E0,1.468949E0,-1.387627E0,1.0325516E0,-1.3002442E0,-1.5831679E-1,-1.8935962E-2,-1.3514402E0,1.475695E0,-4.8054215E-3,-1.499787E0,4.0503225E-1,-1.3809272E0,7.492847E-1,-1.1827083E0,1.3044028E0,-1.1821371E0,1.1918046E0,-4.4591296E-1,-1.1166815E0,1.0337778E0,-1.6529967E0,-6.374298E-1,7.426859E-1,-1.0134517E0,-6.263304E-1,-1.5094838E0,-1.0432163E0,1.0403696E0,-2.4401883E-2,-1.3268579E0,-1.0954614E-1,1.5467192E-1,-5.1822923E-3,-1.5354043E-1,1.3099632E-1,1.4869422E-3,3.693413E-2,-1.5322135E-1,-1.5198533E-1,-5.9881862E-2,1.7783716E-1,-1.14907004E-1,-1.3139084E-1,8.2169674E-2,-1.5117976E-1,-6.877387E-2,-8.33336E-2,1.2284743E-1,-1.4591156E-1,-3.4167941E-3,-6.702637E-2,1.1268186E-1,-6.3706087E-3,-1.520949E-1,1.4384457E-1,-1.4395349E-1,-1.5914586E-1,-1.2494464E-2,1.2311343E-1,-9.855183E-2,5.7078123E-2,-1.2336204E-1,-1.2150852E-2,-1.7919382E-1,1.1331737E-1,-1.3159089E-1,-1.2290013E-1,-1.7921598E-1,4.1567873E-2,-1.00366585E-1,8.7040015E-2,-1.0926237E-1,7.6544024E-2,-1.3040154E-1,-1.20017305E-1,1.7984353E-2,-3.288872E-2,-1.5759456E-1,-2.3069829E-2,-1.5260242E-1,-1.14010096E-1,1.3112606E-1,1.00921705E-1,-8.599935E-2,-1.0715532E-1,-1.5064956E-1],"categories":[],"categories_nodes":[],"categories_segments":[],"categories_sizes":[],"default_left":[0,0,0,0,0,0,0,0,0,0,0,0,0,0,0,0,0,0,0,0,0,0,0,0,0,0,0,0,0,0,0,0,0,0,0,0,0,0,0,0,0,0,0,0,0,0,0,0,0,0,0,0,0,0,0,0,0,0,0,0,0,0,0,0,0,0,0,0,0,0,0,0,0,0,0,0,0,0,0,0,0,0,0,0,0,0,0,0,0,0,0,0,0,0,0,0,0,0,0,0,0,0,0,0,0,0,0,0,0,0,0,0,0,0,0,0,0],"id":4,"left_children":[1,3,5,7,9,11,13,15,17,19,21,23,25,27,29,31,33,-1,35,37,39,41,43,45,47,49,51,53,55,57,59,61,63,65,67,-1,-1,69,71,73,75,77,79,81,83,85,87,89,91,93,95,97,99,101,103,105,107,109,111,113,115,-1,-1,-1,-1,-1,-1,-1,-1,-1,-1,-1,-1,-1,-1,-1,-1,-1,-1,-1,-1,-1,-1,-1,-1,-1,-1,-1,-1,-1,-1,-1,-1,-1,-1,-1,-1,-1,-1,-1,-1,-1,-1,-1,-1,-1,-1,-1,-1,-1,-1,-1,-1,-1,-1,-1,-1],"loss_changes":[6.4236235E3,1.1956855E3,5.7664473E3,3.3881915E2,3.6462012E2,1.9212046E3,2.1565366E3,1.406565E2,2.1086746E1,1.425039E2,2.3740936E2,1.2442188E3,1.5547472E3,1.5076692E3,6.722075E2,8.393378E1,2.2568615E1,0E0,1.861023E0,3.819816E2,6.818994E1,4.5018463E1,1.4041273E2,1.3555519E3,9.214746E2,2.0090613E2,2.333341E2,1.1090619E3,1.5391888E2,5.999787E2,3.255056E2,5.0151978E1,1.9228878E0,1.2912564E0,1.0751053E1,0E0,0E0,2.6258331E1,5.092363E1,3.5722515E1,2.7420898E1,1.7246683E1,1.765268E1,9.008686E1,1.814132E1,1.4093964E2,2.2588171E2,5.8193945E2,2.909322E2,3.0922188E1,1.572627E2,2.0749756E1,2.0812909E2,5.3494507E2,2.217992E2,1.7343039E2,3.2700684E1,1.0930228E2,1.6271906E2,1.8142288E2,1.1261279E2,0E0,0E0,0E0,0E0,0E0,0E0,0E0,0E0,0E0,0E0,0E0,0E0,0E0,0E0,0E0,0E0,0E0,0E0,0E0,0E0,0E0,0E0,0E0,0E0,0E0,0E0,0E0,0E0,0E0,0E0,0E0,0E0,0E0,0E0,0E0,0E0,0E0,0E0,0E0,0E0,0E0,0E0,0E0,0E0,0E0,0E0,0E0,0E0,0E0,0E0,0E0,0E0,0E0,0E0,0E0,0E0],"parents":[2147483647,0,0,1,1,2,2,3,3,4,4,5,5,6,6,7,7,8,8,9,9,10,10,11,11,12,12,13,13,14,14,15,15,16,16,18,18,19,19,20,20,21,21,22,22,23,23,24,24,25,25,26,26,27,27,28,28,29,29,30,30,31,31,32,32,33,33,34,34,37,37,38,38,39,39,40,40,41,41,42,42,43,43,44,44,45,45,46,46,47,47,48,48,49,49,50,50,51,51,52,52,53,53,54,54,55,55,56,56,57,57,58,58,59,59,60,60],"right_children":[2,4,6,8,10,12,14,16,18,20,22,24,26,28,30,32,34,-1,36,38,40,42,44,46,48,50,52,54,56,58,60,62,64,66,68,-1,-1,70,72,74,76,78,80,82,84,86,88,90,92,94,96,98,100,102,104,106,108,110,112,114,116,-1,-1,-1,-1,-1,-1,-1,-1,-1,-1,-1,-1,-1,-1,-1,-1,-1,-1,-1,-1,-1,-1,-1,-1,-1,-1,-1,-1,-1,-1,-1,-1,-1,-1,-1,-1,-1,-1,-1,-1,-1,-1,-1,-1,-1,-1,-1,-1,-1,-1,-1,-1,-1,-1,-1,-1],"split_conditions":[-6.1775616E2,2.4536922E0,1.830666E1,2.1486696E2,-2.206463E2,-3.0574238E1,3.4365852E1,9.247264E0,3.8651302E1,3.0869703E0,-6.36003E2,-2.1300397E2,7.727224E0,-2.6709908E-1,-1.682431E1,2.2750459E0,6.5276766E0,1.12019636E-1,3.0871167E2,1.1890089E2,5.915992E0,5.873047E0,-2.1627754E-1,-1.5074924E1,-1.121426E0,-5.9368362E1,-8.674311E1,-9.632164E-1,-3.392031E1,-7.0961225E-1,7.409854E0,-5.3696896E1,6.5122147E0,5.9719557E-1,4.7229595E0,-1.5831679E-1,-1.8935962E-2,2.5367138E1,-5.258318E0,-6.3355707E2,1.5478389E2,3.7313328E1,5.7533386E1,4.895968E1,9.89894E0,-9.809189E0,-5.710323E2,-5.6206805E-1,1.8387543E-1,-5.9829563E1,1.2983295E0,-1.326755E-1,-3.8130436E1,-6.6341114E-1,2.1312172E0,-5.209197E-2,6.200697E0,-6.7847276E0,-2.1300397E2,9.398615E0,-3.0375514E0,-1.0954614E-1,1.5467192E-1,-5.1822923E-3,-1.5354043E-1,1.3099632E-1,1.4869422E-3,3.693413E-2,-1.5322135E-1,-1.5198533E-1,-5.9881862E-2,1.7783716E-1,-1.14907004E-1,-1.3139084E-1,8.2169674E-2,-1.5117976E-1,-6.877387E-2,-8.33336E-2,1.2284743E-1,-1.4591156E-1,-3.4167941E-3,-6.702637E-2,1.1268186E-1,-6.3706087E-3,-1.520949E-1,1.4384457E-1,-1.4395349E-1,-1.5914586E-1,-1.2494464E-2,1.2311343E-1,-9.855183E-2,5.7078123E-2,-1.2336204E-1,-1.2150852E-2,-1.7919382E-1,1.1331737E-1,-1.3159089E-1,-1.2290013E-1,-1.7921598E-1,4.1567873E-2,-1.00366585E-1,8.7040015E-2,-1.0926237E-1,7.6544024E-2,-1.3040154E-1,-1.20017305E-1,1.7984353E-2,-3.288872E-2,-1.5759456E-1,-2.3069829E-2,-1.5260242E-1,-1.14010096E-1,1.3112606E-1,1.00921705E-1,-8.599935E-2,-1.0715532E-1,-1.5064956E-1],"split_indices":[80,65,128,40,160,90,125,140,361,65,80,200,144,28,172,2,130,0,281,241,129,127,5,176,12,86,82,8,90,27,130,86,46,35,138,0,0,43,180,80,321,306,315,122,130,4,80,18,241,84,5,29,92,24,65,38,144,8,200,137,12,0,0,0,0,0,0,0,0,0,0,0,0,0,0,0,0,0,0,0,0,0,0,0,0,0,0,0,0,0,0,0,0,0,0,0,0,0,0,0,0,0,0,0,0,0,0,0,0,0,0,0,0,0,0,0,0],"split_type":[0,0,0,0,0,0,0,0,0,0,0,0,0,0,0,0,0,0,0,0,0,0,0,0,0,0,0,0,0,0,0,0,0,0,0,0,0,0,0,0,0,0,0,0,0,0,0,0,0,0,0,0,0,0,0,0,0,0,0,0,0,0,0,0,0,0,0,0,0,0,0,0,0,0,0,0,0,0,0,0,0,0,0,0,0,0,0,0,0,0,0,0,0,0,0,0,0,0,0,0,0,0,0,0,0,0,0,0,0,0,0,0,0,0,0,0,0],"sum_hessian":[2.0424371E4,3.9866338E3,1.6437736E4,3.4394043E2,3.6426934E3,9.682167E3,6.75557E3,2.8080655E2,6.313388E1,3.2460854E3,3.966079E2,8.039977E3,1.6421904E3,3.5013433E3,3.2542268E3,2.5169643E2,2.9110104E1,2.363923E0,6.076996E1,2.754634E2,2.970622E3,1.8340195E2,2.1320596E2,8.98408E2,7.141569E3,7.1167773E2,9.305127E2,2.7033499E3,7.979934E2,5.508937E2,2.703333E3,2.417483E2,9.948126E0,4.112052E0,2.499805E1,5.933442E1,1.4355398E0,2.1501596E2,6.0447437E1,3.097266E1,2.9396494E3,1.4870405E1,1.6853154E2,1.6560077E2,4.760519E1,3.765614E2,5.218466E2,6.780255E3,3.6131384E2,4.562412E1,6.660536E2,3.9311377E2,5.3739886E2,2.2772744E3,4.260753E2,3.7320267E2,4.2479074E2,2.7897134E2,2.719223E2,2.0806956E2,2.4952634E3,6.692632E0,2.3505568E2,1.1928618E0,8.755263E0,2.928345E0,1.1837069E0,2.9246643E0,2.2073387E1,1.7475826E2,4.0257706E1,5.4520885E1,5.92655E0,1.1805349E1,1.916731E1,2.895834E3,4.381552E1,5.885616E0,8.98479E0,1.5913501E2,9.396528E0,3.4571133E1,1.3102965E2,1.1394093E1,3.6211098E1,3.595113E2,1.7050108E1,3.7576056E2,1.4608607E2,6.6604263E3,1.1982872E2,1.5779555E2,2.035183E2,1.8980001E1,2.6644117E1,6.395594E2,2.6494192E1,9.975007E1,2.933637E2,1.3856073E2,3.9883817E2,2.1296577E3,1.4761687E2,5.9545647E1,3.6652963E2,2.1780336E2,1.553993E2,2.303637E1,4.0175436E2,1.0460925E2,1.7436209E2,2.9653763E1,2.4226855E2,9.2866776E1,1.152028E2,1.0336879E3,1.4615757E3],"tree_param":{"num_deleted":"0","num_feature":"365","num_nodes":"117","size_leaf_vector":"1"}},{"base_weights":[1.5222281E-4,7.3381495E-1,-5.2737725E-1,8.893323E-1,-1.0496435E0,8.3397144E-1,-7.360322E-1,9.616729E-1,-9.04875E-1,-1.1558956E0,7.5391376E-1,1.1399506E0,-1.1596558E0,-3.9778882E-1,-1.1508293E0,-6.820953E-1,1.0316344E0,1.0377998E0,-1.3331462E0,-6.516858E-1,-1.3215061E0,-1.284949E-1,1.2258915E0,-5.175175E-1,1.2830292E0,-1.4399493E0,1.0929066E-1,-8.931119E-1,2.4405383E-2,-2.8416663E-1,-1.2444966E0,-1.3007804E0,2.1315661E-1,1.1031747E0,-4.0299836E-1,1.3698314E0,-5.093015E-1,-1.851095E-1,-1.4303095E0,-1.4922932E-1,-1.2681447E0,-8.738413E-1,-1.4076195E0,1.4819207E0,-9.188133E-2,-9.649299E-1,6.890494E-1,-4.809632E-1,1.359403E0,-2.0849378E-1,-1.4902296E0,8.920096E-1,-1.332011E0,-1.1557218E0,4.06704E-1,4.9711138E-1,-9.192105E-1,-1.3864199E0,4.0299222E-1,9.307326E-2,-1.3012089E0,5.7495143E-2,-1.4391443E-1,9.216046E-2,-1.1632208E-1,1.12655066E-1,-2.0550685E-1,1.0215048E-1,-8.91141E-2,-9.163219E-2,1.4561424E-1,1.0882463E-1,-1.0057487E-1,9.1439046E-2,-1.2598379E-1,1.858985E-2,-1.4436395E-1,-9.4863765E-2,3.3008136E-2,7.3672704E-2,-1.3285698E-1,-1.8586298E-2,-1.2075045E-1,1.0294535E-1,-1.4220178E-1,-7.5066745E-2,1.6042769E-1,-1.2527704E-1,7.5285636E-2,-6.832398E-2,1.0784701E-1,-1.1838416E-1,5.0140828E-2,1.3912137E-1,-1.2601918E-1,-9.325844E-2,9.81269E-2,-2.2534264E-2,-1.5143472E-1,1.2792882E-1,-1.1458565E-1,3.6048528E-2,-1.5221958E-1,-1.21909775E-1,6.0049277E-2,9.602984E-2,-1.1915242E-1,7.357925E-2,-1.1229477E-1,4.9087545E-3,-1.1548604E-1,3.197413E-2,-1.456348E-1,1.07955955E-1,-1.1300772E-1,-7.9389535E-2,1.2459736E-1,-5.6590956E-2,-1.3453865E-1],"categories":[],"categories_nodes":[],"categories_segments":[],"categories_sizes":[],"default_left":[0,0,0,0,0,0,0,0,0,0,0,0,0,0,0,0,0,0,0,0,0,0,0,0,0,0,0,0,0,0,0,0,0,0,0,0,0,0,0,0,0,0,0,0,0,0,0,0,0,0,0,0,0,0,0,0,0,0,0,0,0,0,0,0,0,0,0,0,0,0,0,0,0,0,0,0,0,0,0,0,0,0,0,0,0,0,0,0,0,0,0,0,0,0,0,0,0,0,0,0,0,0,0,0,0,0,0,0,0,0,0,0,0,0,0,0,0,0,0],"id":5,"left_children":[1,3,5,7,9,11,13,15,17,19,21,23,25,27,29,31,33,35,37,39,41,-1,43,45,47,49,51,53,55,57,59,61,63,65,67,69,71,73,75,77,79,81,83,85,-1,87,89,91,93,95,97,99,101,103,105,107,109,111,113,115,117,-1,-1,-1,-1,-1,-1,-1,-1,-1,-1,-1,-1,-1,-1,-1,-1,-1,-1,-1,-1,-1,-1,-1,-1,-1,-1,-1,-1,-1,-1,-1,-1,-1,-1,-1,-1,-1,-1,-1,-1,-1,-1,-1,-1,-1,-1,-1,-1,-1,-1,-1,-1,-1,-1,-1,-1,-1,-1],"loss_changes":[7.6591646E3,2.2967935E3,3.2706008E3,9.8916943E2,1.2821698E2,9.3484973E2,1.3999702E3,8.4251514E2,2.4732062E2,5.1365234E1,3.766744E1,3.155022E2,7.287604E1,1.1503616E3,3.6343262E2,1.661989E2,7.2114746E2,2.8475983E1,2.6641266E1,4.8405937E1,1.6716736E1,0E0,1.8447151E1,5.798378E1,1.6539294E2,9.877655E0,4.377317E1,8.6453076E2,1.3253041E3,3.329221E2,3.0712402E2,4.691208E1,1.2111308E2,4.959912E2,2.3326451E2,1.0210014E1,9.176755E0,2.5012987E1,5.2090454E0,3.405955E1,9.5707245E0,1.7744495E1,1.5313721E1,8.973816E0,0E0,3.9509026E1,1.6397476E1,3.6154705E1,9.9409424E1,7.632659E0,4.3805847E0,2.1314173E1,5.0602283E0,2.3519775E2,3.7812433E2,7.662666E2,2.2643439E2,2.0711395E1,2.8223917E2,1.7018423E2,1.2512109E2,0E0,0E0,0E0,0E0,0E0,0E0,0E0,0E0,0E0,0E0,0E0,0E0,0E0,0E0,0E0,0E0,0E0,0E0,0E0,0E0,0E0,0E0,0E0,0E0,0E0,0E0,0E0,0E0,0E0,0E0,0E0,0E0,0E0,0E0,0E0,0E0,0E0,0E0,0E0,0E0,0E0,0E0,0E0,0E0,0E0,0E0,0E0,0E0,0E0,0E0,0E0,0E0,0E0,0E0,0E0,0E0,0E0,0E0],"parents":[2147483647,0,0,1,1,2,2,3,3,4,4,5,5,6,6,7,7,8,8,9,9,10,10,11,11,12,12,13,13,14,14,15,15,16,16,17,17,18,18,19,19,20,20,22,22,23,23,24,24,25,25,26,26,27,27,28,28,29,29,30,30,31,31,32,32,33,33,34,34,35,35,36,36,37,37,38,38,39,39,40,40,41,41,42,42,43,43,45,45,46,46,47,47,48,48,49,49,50,50,51,51,52,52,53,53,54,54,55,55,56,56,57,57,58,58,59,59,60,60],"right_children":[2,4,6,8,10,12,14,16,18,20,22,24,26,28,30,32,34,36,38,40,42,-1,44,46,48,50,52,54,56,58,60,62,64,66,68,70,72,74,76,78,80,82,84,86,-1,88,90,92,94,96,98,100,102,104,106,108,110,112,114,116,118,-1,-1,-1,-1,-1,-1,-1,-1,-1,-1,-1,-1,-1,-1,-1,-1,-1,-1,-1,-1,-1,-1,-1,-1,-1,-1,-1,-1,-1,-1,-1,-1,-1,-1,-1,-1,-1,-1,-1,-1,-1,-1,-1,-1,-1,-1,-1,-1,-1,-1,-1,-1,-1,-1,-1,-1,-1,-1],"split_conditions":[1.0830369E1,2.0785643E2,8.132328E0,-3.7003648E-1,6.302428E1,-5.4348956E2,1.8014389E1,-2.1133148E2,1.9176707E0,2.161195E2,-1.7037343E-2,-2.4139243E-1,-6.890071E1,-2.7509286E2,-1.7722178E1,2.560908E1,-2.9187927E-1,5.950155E0,4.884175E0,3.279397E1,5.85299E2,-1.284949E-1,-2.024503E1,-1.0348489E2,1.7842323E1,6.5084386E0,9.811495E0,1.5565898E0,-1.1776316E0,-2.325856E2,7.1535277E0,-4.4574062E1,4.7197738E-1,5.7300816E0,4.803685E0,-4.321882E1,8.192493E0,1.1537525E1,1.3577675E1,-5.331508E1,2.303772E0,2.9661589E1,3.8964714E1,-3.0185282E-4,-9.188133E-2,6.001954E1,1.629253E1,-1.3776472E2,-1.7359195E-2,-4.179343E0,2.788836E-1,-4.309001E-2,-5.370572E2,9.851781E0,-1.4650897E1,-1.2505043E0,9.076706E0,-8.526862E0,-1.2595998E1,5.717999E1,7.283416E0,5.7495143E-2,-1.4391443E-1,9.216046E-2,-1.1632208E-1,1.12655066E-1,-2.0550685E-1,1.0215048E-1,-8.91141E-2,-9.163219E-2,1.4561424E-1,1.0882463E-1,-1.0057487E-1,9.1439046E-2,-1.2598379E-1,1.858985E-2,-1.4436395E-1,-9.4863765E-2,3.3008136E-2,7.3672704E-2,-1.3285698E-1,-1.8586298E-2,-1.2075045E-1,1.0294535E-1,-1.4220178E-1,-7.5066745E-2,1.6042769E-1,-1.2527704E-1,7.5285636E-2,-6.832398E-2,1.0784701E-1,-1.1838416E-1,5.0140828E-2,1.3912137E-1,-1.2601918E-1,-9.325844E-2,9.81269E-2,-2.2534264E-2,-1.5143472E-1,1.2792882E-1,-1.1458565E-1,3.6048528E-2,-1.5221958E-1,-1.21909775E-1,6.0049277E-2,9.602984E-2,-1.1915242E-1,7.357925E-2,-1.1229477E-1,4.9087545E-3,-1.1548604E-1,3.197413E-2,-1.456348E-1,1.07955955E-1,-1.1300772E-1,-7.9389535E-2,1.2459736E-1,-5.6590956E-2,-1.3453865E-1],"split_indices":[132,40,129,8,297,80,132,200,65,40,37,31,82,160,174,324,24,150,139,125,280,0,109,0,155,142,130,274,24,200,127,91,261,120,129,89,130,130,312,85,137,300,361,191,0,297,157,160,12,9,130,23,80,59,170,8,130,219,170,297,130,0,0,0,0,0,0,0,0,0,0,0,0,0,0,0,0,0,0,0,0,0,0,0,0,0,0,0,0,0,0,0,0,0,0,0,0,0,0,0,0,0,0,0,0,0,0,0,0,0,0,0,0,0,0,0,0,0,0],"split_type":[0,0,0,0,0,0,0,0,0,0,0,0,0,0,0,0,0,0,0,0,0,0,0,0,0,0,0,0,0,0,0,0,0,0,0,0,0,0,0,0,0,0,0,0,0,0,0,0,0,0,0,0,0,0,0,0,0,0,0,0,0,0,0,0,0,0,0,0,0,0,0,0,0,0,0,0,0,0,0,0,0,0,0,0,0,0,0,0,0,0,0,0,0,0,0,0,0,0,0,0,0,0,0,0,0,0,0,0,0,0,0,0,0,0,0,0,0,0,0],"sum_hessian":[1.9787602E4,8.276643E3,1.151096E4,7.6133193E3,6.6332294E2,1.5293553E3,9.9816045E3,7.3187544E3,2.9456488E2,6.268105E2,3.6512436E1,1.3262783E3,2.0307704E2,5.4993774E3,4.4822275E3,2.9836658E2,7.0203877E3,5.2908897E1,2.4165598E2,1.563459E2,4.7046457E2,6.4998503E0,3.0012585E1,1.0512785E2,1.2211505E3,1.6628986E2,3.6787178E1,2.530126E3,2.9692515E3,4.3767822E2,4.044549E3,1.7623436E2,1.22132225E2,6.6872197E3,3.331679E2,4.3707764E1,9.201136E0,1.9163486E1,2.224925E2,8.6911415E1,6.9434494E1,7.788489E1,3.9257968E2,2.7129585E1,2.8829997E0,7.689663E1,2.8231226E1,5.0402626E1,1.1707479E3,6.8031826E0,1.5948668E2,2.413229E1,1.2654887E1,2.105023E3,4.2510306E2,1.9786316E3,9.9061975E2,1.6773955E2,2.6993866E2,1.6441376E2,3.8801353E3,1.1840494E1,1.6439388E2,8.089637E1,4.123586E1,6.638758E3,4.8462193E1,8.469948E1,2.4846843E2,1.1980978E0,4.2509663E1,1.8510451E0,7.3500905E0,9.500326E0,9.663159E0,1.6527603E0,2.2083972E2,3.2288754E1,5.462266E1,1.6555884E0,6.777891E1,2.6043232E1,5.184166E1,1.850899E0,3.907288E2,1.1003065E0,2.602928E1,6.614241E1,1.075422E1,6.016884E0,2.2214342E1,2.9320656E1,2.1081968E1,1.1572026E3,1.3545237E1,4.4158826E0,2.3873E0,3.255138E0,1.5623154E2,2.0632565E1,3.4997246E0,1.1347996E0,1.1520087E1,2.0320555E3,7.2967285E1,3.1608072E2,1.0902233E2,1.7250847E3,2.5354688E2,1.9396686E2,7.966529E2,6.4072733E0,1.6133228E2,1.875368E2,8.240186E1,9.305093E1,7.136284E1,2.208216E2,3.6593137E3],"tree_param":{"num_deleted":"0","num_feature":"365","num_nodes":"119","size_leaf_vector":"1"}},{"base_weights":[-1.6489276E-3,-1.0138427E0,2.4640794E-1,4.225971E-1,-1.2019359E0,5.592589E-1,-6.829877E-1,9.3220615E-1,-1.3328841E0,-1.3139727E0,-2.9590017E-1,7.307994E-1,-8.319985E-1,-2.076034E-2,-1.0992953E0,1.266877E0,-6.3294226E-1,7.920608E-2,-1.391679E0,-1.3643333E0,-2.5070056E-1,-1.4263327E0,1.6641332E-1,8.626277E-1,-2.0067784E-1,4.891504E-1,-1.1122762E0,5.7120997E-1,-9.852576E-1,-7.265924E-1,-1.3917695E0,1.3732011E0,-7.930716E-1,7.6912814E-1,-1.1167023E0,-1.4167002E0,-2.0781192E-1,-1.3785651E0,9.25691E-2,1.3135409E0,-1.2756158E0,-1.4553671E0,3.5461657E-2,5.4883534E-1,-1.297018E0,9.3474865E-1,-7.8731376E-1,3.3327022E-1,-1.3114142E0,-5.904372E-1,1.1124303E0,3.693211E-1,-1.2464468E0,9.6044916E-1,-6.428829E-1,1.6654353E-1,-1.5658557E0,-1.499882E-1,-1.121742E0,-7.073137E-1,-1.4577138E0,-8.070397E-2,1.4365734E-1,-1.2796305E-1,9.3031876E-2,1.1996502E-1,-9.5036E-2,1.5173187E-2,-1.4582248E-1,-3.952358E-2,-1.435655E-1,3.7842155E-2,-7.509093E-2,-6.381771E-3,-1.3845888E-1,1.08158045E-1,-1.1430337E-1,1.8447636E-1,-7.286424E-2,-1.8882675E-2,-1.3974349E-1,2.156741E-2,-1.4771393E-1,8.633121E-2,-9.610773E-2,7.359507E-2,-1.4420791E-1,9.937892E-2,-8.0615126E-2,-1.1729861E-2,-1.3731329E-1,-1.4510135E-1,8.627122E-2,4.158118E-2,-1.3790165E-1,-1.2128978E-1,4.5195457E-2,1.2544501E-1,-6.151059E-2,8.1598304E-2,-1.1179563E-1,1.721963E-2,-1.3040167E-1,8.532076E-4,1.2324164E-1,4.2290665E-2,-1.4502124E-1,8.384909E-2,-1.2534887E-1,-8.693721E-2,-1.6821425E-1,5.3968538E-2,-8.278299E-2,3.256429E-2,-1.22641124E-1,1.5532732E-2,-1.3193974E-1,-1.2867278E-1,-1.5256308E-1],"categories":[],"categories_nodes":[],"categories_segments":[],"categories_sizes":[],"default_left":[0,0,0,0,0,0,0,0,0,0,0,0,0,0,0,0,0,0,0,0,0,0,0,0,0,0,0,0,0,0,0,0,0,0,0,0,0,0,0,0,0,0,0,0,0,0,0,0,0,0,0,0,0,0,0,0,0,0,0,0,0,0,0,0,0,0,0,0,0,0,0,0,0,0,0,0,0,0,0,0,0,0,0,0,0,0,0,0,0,0,0,0,0,0,0,0,0,0,0,0,0,0,0,0,0,0,0,0,0,0,0,0,0,0,0,0,0,0,0],"id":6,"left_children":[1,3,5,7,9,11,13,15,17,19,21,23,25,27,29,31,33,-1,35,37,39,41,43,45,47,49,51,53,55,57,59,61,63,65,67,69,71,73,75,77,79,81,-1,83,85,87,89,91,93,95,97,99,101,103,105,107,109,111,113,115,117,-1,-1,-1,-1,-1,-1,-1,-1,-1,-1,-1,-1,-1,-1,-1,-1,-1,-1,-1,-1,-1,-1,-1,-1,-1,-1,-1,-1,-1,-1,-1,-1,-1,-1,-1,-1,-1,-1,-1,-1,-1,-1,-1,-1,-1,-1,-1,-1,-1,-1,-1,-1,-1,-1,-1,-1,-1,-1],"loss_changes":[4.8124517E3,1.0199009E3,4.476341E3,3.9258325E2,3.3810303E2,2.749378E3,1.0687764E3,1.7879965E2,1.3505341E1,1.584585E2,1.9296143E2,1.2593877E3,4.6888977E2,8.557177E2,2.5826855E2,6.2525513E1,4.1897705E1,0E0,2.402954E0,5.9019043E1,2.1900789E2,6.1660614E0,1.4748386E2,1.06969E3,7.5493427E2,1.5006732E2,2.0801733E2,4.3950153E2,3.816109E2,2.3870142E2,5.8899414E1,3.809851E1,1.325184E1,1.304432E1,2.0022251E1,1.0750885E0,1.3570616E0,2.1995117E1,3.5796726E1,6.01642E1,1.0492722E1,4.2892303E0,0E0,9.9958374E1,1.7235191E1,8.855161E2,1.475474E2,8.1341406E2,4.8919495E1,5.3724934E1,3.5460617E1,5.892601E1,7.852185E1,1.8203668E2,1.9516153E2,1.8411096E2,2.8990967E1,2.0046548E2,9.474298E1,6.3250134E1,1.1858398E1,0E0,0E0,0E0,0E0,0E0,0E0,0E0,0E0,0E0,0E0,0E0,0E0,0E0,0E0,0E0,0E0,0E0,0E0,0E0,0E0,0E0,0E0,0E0,0E0,0E0,0E0,0E0,0E0,0E0,0E0,0E0,0E0,0E0,0E0,0E0,0E0,0E0,0E0,0E0,0E0,0E0,0E0,0E0,0E0,0E0,0E0,0E0,0E0,0E0,0E0,0E0,0E0,0E0,0E0,0E0,0E0,0E0,0E0],"parents":[2147483647,0,0,1,1,2,2,3,3,4,4,5,5,6,6,7,7,8,8,9,9,10,10,11,11,12,12,13,13,14,14,15,15,16,16,18,18,19,19,20,20,21,21,22,22,23,23,24,24,25,25,26,26,27,27,28,28,29,29,30,30,31,31,32,32,33,33,34,34,35,35,36,36,37,37,38,38,39,39,40,40,41,41,43,43,44,44,45,45,46,46,47,47,48,48,49,49,50,50,51,51,52,52,53,53,54,54,55,55,56,56,57,57,58,58,59,59,60,60],"right_children":[2,4,6,8,10,12,14,16,18,20,22,24,26,28,30,32,34,-1,36,38,40,42,44,46,48,50,52,54,56,58,60,62,64,66,68,70,72,74,76,78,80,82,-1,84,86,88,90,92,94,96,98,100,102,104,106,108,110,112,114,116,118,-1,-1,-1,-1,-1,-1,-1,-1,-1,-1,-1,-1,-1,-1,-1,-1,-1,-1,-1,-1,-1,-1,-1,-1,-1,-1,-1,-1,-1,-1,-1,-1,-1,-1,-1,-1,-1,-1,-1,-1,-1,-1,-1,-1,-1,-1,-1,-1,-1,-1,-1,-1,-1,-1,-1,-1,-1,-1],"split_conditions":[-6.166896E2,2.6177514E0,1.968615E1,2.1371147E2,-2.2167178E2,-1.2025721E0,7.83125E0,7.760642E0,3.8651302E1,7.467627E1,-6.470087E2,2.2354253E-1,4.248593E0,4.7418866E0,-2.5469897E0,8.663545E0,4.782975E0,7.920608E-2,6.7375435E1,7.366585E1,3.4373734E0,6.705535E1,1.0322678E-1,3.215262E1,-5.575341E2,-2.083924E0,6.084034E0,-7.264538E-1,-4.6347084E0,7.578781E1,2.7164757E0,-5.3261833E1,1.2435722E-1,3.3707932E-1,8.886917E0,6.48793E-2,3.1481388E1,3.3163865E0,1.4163187E1,-8.27347E0,3.643554E1,1.5898814E0,3.5461657E-2,-1.9656294E1,4.77453E0,-7.494007E-1,2.1977682E2,-8.810039E-1,2.4595506E0,1.9136302E-1,-1.5752849E-1,9.3037355E-1,3.9004276E0,-8.780717E-1,2.6408315E0,1.6998777E1,-3.4170618E0,-3.863135E1,-2.1997763E1,-1.5235271E0,-1.2957848E0,-8.070397E-2,1.4365734E-1,-1.2796305E-1,9.3031876E-2,1.1996502E-1,-9.5036E-2,1.5173187E-2,-1.4582248E-1,-3.952358E-2,-1.435655E-1,3.7842155E-2,-7.509093E-2,-6.381771E-3,-1.3845888E-1,1.08158045E-1,-1.1430337E-1,1.8447636E-1,-7.286424E-2,-1.8882675E-2,-1.3974349E-1,2.156741E-2,-1.4771393E-1,8.633121E-2,-9.610773E-2,7.359507E-2,-1.4420791E-1,9.937892E-2,-8.0615126E-2,-1.1729861E-2,-1.3731329E-1,-1.4510135E-1,8.627122E-2,4.158118E-2,-1.3790165E-1,-1.2128978E-1,4.5195457E-2,1.2544501E-1,-6.151059E-2,8.1598304E-2,-1.1179563E-1,1.721963E-2,-1.3040167E-1,8.532076E-4,1.2324164E-1,4.2290665E-2,-1.4502124E-1,8.384909E-2,-1.2534887E-1,-8.693721E-2,-1.6821425E-1,5.3968538E-2,-8.278299E-2,3.256429E-2,-1.22641124E-1,1.5532732E-2,-1.3193974E-1,-1.2867278E-1,-1.5256308E-1],"split_indices":[80,65,130,40,160,12,138,140,361,41,80,21,138,63,10,48,138,0,41,296,65,297,5,127,80,18,131,10,10,287,65,86,23,5,137,138,298,129,127,180,294,73,0,83,131,8,320,23,67,38,12,27,142,25,65,47,10,92,174,18,10,0,0,0,0,0,0,0,0,0,0,0,0,0,0,0,0,0,0,0,0,0,0,0,0,0,0,0,0,0,0,0,0,0,0,0,0,0,0,0,0,0,0,0,0,0,0,0,0,0,0,0,0,0,0,0,0,0,0],"split_type":[0,0,0,0,0,0,0,0,0,0,0,0,0,0,0,0,0,0,0,0,0,0,0,0,0,0,0,0,0,0,0,0,0,0,0,0,0,0,0,0,0,0,0,0,0,0,0,0,0,0,0,0,0,0,0,0,0,0,0,0,0,0,0,0,0,0,0,0,0,0,0,0,0,0,0,0,0,0,0,0,0,0,0,0,0,0,0,0,0,0,0,0,0,0,0,0,0,0,0,0,0,0,0,0,0,0,0,0,0,0,0,0,0,0,0,0,0,0,0],"sum_hessian":[1.9164582E4,3.7716628E3,1.539292E4,4.3648807E2,3.3351746E3,1.1516701E4,3.8762185E3,3.3869287E2,9.779522E1,2.9676465E3,3.6752817E2,1.0253058E4,1.2636443E3,1.4966932E3,2.3795251E3,2.792386E2,5.945428E1,2.2514555E0,9.554376E1,2.8330837E3,1.3456268E2,1.06136955E2,2.6139124E2,8.982045E3,1.2710123E3,2.2096695E2,1.0426772E3,9.276453E2,5.69048E2,1.0479451E3,1.3315802E3,2.658963E2,1.3342284E1,1.5047077E1,4.4407204E1,9.32909E1,2.2528634E0,2.8057976E3,2.7286316E1,5.3116413E1,8.144627E1,1.04669525E2,1.4674345E0,2.0778612E2,5.3605103E1,8.606346E3,3.756996E2,8.587891E2,4.122232E2,8.083842E1,1.4012852E2,8.63748E1,9.563025E2,7.026624E2,2.249829E2,1.9089262E2,3.7815533E2,4.2679553E2,6.211495E2,1.18181404E2,1.2133988E3,7.134376E0,2.5876193E2,1.0650799E1,2.6914852E0,1.2322317E1,2.7247596E0,9.475938E0,3.4931267E1,2.193816E0,9.1097084E1,1.1406754E0,1.1121879E0,1.2924917E1,2.7928726E3,1.5269647E1,1.2016669E1,4.226728E1,1.0849131E1,8.548977E0,7.289729E1,1.1725941E0,1.03496925E2,1.723785E2,3.5407635E1,3.2529948E0,5.0352108E1,8.324516E3,2.8182953E2,1.7589511E2,1.9980446E2,1.9607227E2,6.6271686E2,1.5276692E1,3.9694653E2,5.057193E1,3.0266487E1,1.2979028E2,1.0338245E1,6.6824524E1,1.9550272E1,3.7148796E1,9.191537E2,1.5645403E2,5.4620844E2,9.71213E1,1.278616E2,1.2990338E2,6.0989246E1,5.5440105E1,3.227152E2,2.1157933E2,2.152162E2,4.168302E1,5.794665E2,4.9293037E1,6.888837E1,3.5104208E2,8.623567E2],"tree_param":{"num_deleted":"0","num_feature":"365","num_nodes":"119","size_leaf_vector":"1"}},{"base_weights":[-4.799902E-3,7.513689E-1,-4.151976E-1,8.938657E-1,-8.2499725E-1,8.737349E-1,-5.708329E-1,9.5728534E-1,-7.4809325E-1,-9.291776E-1,8.89936E-1,1.1367483E0,-9.3879706E-1,-3.757258E-1,-1.270719E0,1.0039746E0,-8.3339274E-1,1.2919612E0,-1.1084039E0,-3.9784506E-1,-1.1449682E0,1.1851342E0,-1.0400158E-1,-5.76236E-1,1.2287114E0,-1.3442448E0,3.292969E-1,-8.4622204E-1,4.3877963E-2,-4.0710884E-1,-1.3145026E0,1.0581579E0,-3.400846E-1,6.773024E-1,-1.8447629E0,-7.0018865E-2,1.4018235E0,2.2646068E-1,-1.4376167E0,1.2343147E-1,-1.0070177E0,-1.2457014E0,-6.2538135E-1,1.3437518E0,-9.666879E-2,2.7370584E-1,-1.0946032E0,-3.2020006E-1,1.2818317E0,8.753151E-2,-1.3731526E0,1.0194081E0,-1.0279675E0,-1.7310089E-2,-1.1452146E0,3.695472E-1,-9.2079294E-1,5.409692E-1,-1.1745722E0,2.919164E-1,-1.3258499E0,-6.781723E-2,1.0879536E-1,5.35811E-2,-1.1808886E-1,1.1391252E-1,-1.20573856E-1,-1.2740332E-2,-1.8896191E-1,2.5644759E-2,1.4295766E-1,-1.06945865E-1,1.0134744E-1,-1.7132695E-1,-7.61875E-2,-9.174478E-2,6.0513385E-2,-1.3315034E-1,-4.6116777E-2,-1.274639E-1,6.394659E-2,-7.833007E-3,-1.2885185E-1,-2.2787677E-2,1.4396583E-1,7.1086004E-2,-1.1691612E-1,-1.3614976E-1,1.5122587E-2,5.5691507E-2,-1.3522659E-1,1.3055311E-1,-1.2460377E-1,3.4800082E-2,-1.4090167E-1,-8.840006E-2,1.275963E-1,6.991181E-3,-1.3333991E-1,5.4642957E-2,-1.2251687E-1,-1.1950854E-1,4.9708217E-2,7.528026E-2,-2.472308E-2,9.604144E-2,-1.075987E-1,-2.3052508E-2,1.2384194E-1,-1.3123465E-1,1.670224E-2,1.441351E-1,-1.1277359E-1,-1.0915195E-1,-1.3866034E-1],"categories":[],"categories_nodes":[],"categories_segments":[],"categories_sizes":[],"default_left":[0,0,0,0,0,0,0,0,0,0,0,0,0,0,0,0,0,0,0,0,0,0,0,0,0,0,0,0,0,0,0,0,0,0,0,0,0,0,0,0,0,0,0,0,0,0,0,0,0,0,0,0,0,0,0,0,0,0,0,0,0,0,0,0,0,0,0,0,0,0,0,0,0,0,0,0,0,0,0,0,0,0,0,0,0,0,0,0,0,0,0,0,0,0,0,0,0,0,0,0,0,0,0,0,0,0,0,0,0,0,0,0,0,0,0],"id":7,"left_children":[1,3,5,7,9,11,13,15,17,19,21,23,25,27,29,31,33,35,37,39,41,43,-1,45,47,49,51,53,55,57,59,61,63,65,67,-1,69,71,73,75,77,79,81,83,-1,85,87,89,91,-1,93,95,97,99,101,103,105,107,109,111,113,-1,-1,-1,-1,-1,-1,-1,-1,-1,-1,-1,-1,-1,-1,-1,-1,-1,-1,-1,-1,-1,-1,-1,-1,-1,-1,-1,-1,-1,-1,-1,-1,-1,-1,-1,-1,-1,-1,-1,-1,-1,-1,-1,-1,-1,-1,-1,-1,-1,-1,-1,-1,-1,-1],"loss_changes":[5.7633457E3,1.4683376E3,2.4153945E3,6.247368E2,9.768329E1,6.195424E2,1.4662078E3,4.832583E2,1.6558554E2,5.8047974E1,1.9194145E1,1.7932227E2,8.532439E1,1.6588158E3,8.781836E1,4.0999658E2,2.2613696E2,8.481194E0,8.41192E1,4.7663734E1,1.804187E1,1.0837196E1,0E0,2.610006E1,8.904224E1,9.285019E0,3.916228E1,9.815188E2,1.3957765E3,8.403017E1,4.1097412E1,2.8047314E2,1.6169955E2,5.3271317E1,6.369507E0,0E0,4.9954224E-1,4.0315884E1,2.6933289E1,4.1300632E1,1.1446281E1,1.740918E1,2.1943457E1,4.4263306E0,0E0,1.519238E1,1.2474201E1,3.379911E1,6.397522E1,0E0,8.25235E0,1.4609465E1,4.969592E0,7.164345E2,2.3906567E2,7.854122E2,3.2841284E2,2.8291565E1,1.2101517E1,2.8390657E1,2.9733887E1,0E0,0E0,0E0,0E0,0E0,0E0,0E0,0E0,0E0,0E0,0E0,0E0,0E0,0E0,0E0,0E0,0E0,0E0,0E0,0E0,0E0,0E0,0E0,0E0,0E0,0E0,0E0,0E0,0E0,0E0,0E0,0E0,0E0,0E0,0E0,0E0,0E0,0E0,0E0,0E0,0E0,0E0,0E0,0E0,0E0,0E0,0E0,0E0,0E0,0E0,0E0,0E0,0E0,0E0],"parents":[2147483647,0,0,1,1,2,2,3,3,4,4,5,5,6,6,7,7,8,8,9,9,10,10,11,11,12,12,13,13,14,14,15,15,16,16,17,17,18,18,19,19,20,20,21,21,23,23,24,24,25,25,26,26,27,27,28,28,29,29,30,30,31,31,32,32,33,33,34,34,36,36,37,37,38,38,39,39,40,40,41,41,42,42,43,43,45,45,46,46,47,47,48,48,50,50,51,51,52,52,53,53,54,54,55,55,56,56,57,57,58,58,59,59,60,60],"right_children":[2,4,6,8,10,12,14,16,18,20,22,24,26,28,30,32,34,36,38,40,42,44,-1,46,48,50,52,54,56,58,60,62,64,66,68,-1,70,72,74,76,78,80,82,84,-1,86,88,90,92,-1,94,96,98,100,102,104,106,108,110,112,114,-1,-1,-1,-1,-1,-1,-1,-1,-1,-1,-1,-1,-1,-1,-1,-1,-1,-1,-1,-1,-1,-1,-1,-1,-1,-1,-1,-1,-1,-1,-1,-1,-1,-1,-1,-1,-1,-1,-1,-1,-1,-1,-1,-1,-1,-1,-1,-1,-1,-1,-1,-1,-1,-1],"split_conditions":[9.427418E0,2.0569272E2,6.591201E0,9.889004E-1,6.443425E1,-5.446051E2,1.5000626E-1,-1.5786E-1,3.3163865E0,2.1486696E2,1.5414664E1,1.9324297E1,-6.943012E1,-2.8010138E2,2.9425218E0,4.0804183E-1,3.1300893E0,-6.3727385E-1,5.020255E0,7.700066E1,-5.799421E2,-1.0927638E0,-1.0400158E-1,1.8387543E-1,1.629253E1,2.3015363E0,-4.242925E0,-1.862233E1,-7.750325E-1,9.889004E-1,1.9923874E0,-1.1786901E2,-2.8894804E1,8.359747E0,2.0117363E1,-7.0018865E-2,-5.7228497E1,7.313846E-2,6.431691E0,1.4975248E1,4.190789E1,-1.1220142E2,-1.331528E0,-6.3422483E-1,-9.666879E-2,-1.4795567E1,2.624114E2,6.765581E-1,1.1295421E2,8.753151E-2,3.5132022E0,1.8768227E1,4.430948E0,-7.1849694E0,9.851781E0,1.713077E1,-4.982927E0,2.0481444E2,7.313604E1,1.0128695E1,7.974563E-1,-6.781723E-2,1.0879536E-1,5.35811E-2,-1.1808886E-1,1.1391252E-1,-1.20573856E-1,-1.2740332E-2,-1.8896191E-1,2.5644759E-2,1.4295766E-1,-1.06945865E-1,1.0134744E-1,-1.7132695E-1,-7.61875E-2,-9.174478E-2,6.0513385E-2,-1.3315034E-1,-4.6116777E-2,-1.274639E-1,6.394659E-2,-7.833007E-3,-1.2885185E-1,-2.2787677E-2,1.4396583E-1,7.1086004E-2,-1.1691612E-1,-1.3614976E-1,1.5122587E-2,5.5691507E-2,-1.3522659E-1,1.3055311E-1,-1.2460377E-1,3.4800082E-2,-1.4090167E-1,-8.840006E-2,1.275963E-1,6.991181E-3,-1.3333991E-1,5.4642957E-2,-1.2251687E-1,-1.1950854E-1,4.9708217E-2,7.528026E-2,-2.472308E-2,9.604144E-2,-1.075987E-1,-2.3052508E-2,1.2384194E-1,-1.3123465E-1,1.670224E-2,1.441351E-1,-1.1277359E-1,-1.0915195E-1,-1.3866034E-1],"split_indices":[132,40,129,5,296,80,5,10,129,40,129,151,82,160,140,21,63,38,150,285,80,5,0,241,157,142,4,166,24,5,133,82,95,146,304,0,88,15,56,157,310,0,24,190,0,104,281,29,123,0,135,154,136,10,59,130,360,121,41,128,5,0,0,0,0,0,0,0,0,0,0,0,0,0,0,0,0,0,0,0,0,0,0,0,0,0,0,0,0,0,0,0,0,0,0,0,0,0,0,0,0,0,0,0,0,0,0,0,0,0,0,0,0,0,0],"split_type":[0,0,0,0,0,0,0,0,0,0,0,0,0,0,0,0,0,0,0,0,0,0,0,0,0,0,0,0,0,0,0,0,0,0,0,0,0,0,0,0,0,0,0,0,0,0,0,0,0,0,0,0,0,0,0,0,0,0,0,0,0,0,0,0,0,0,0,0,0,0,0,0,0,0,0,0,0,0,0,0,0,0,0,0,0,0,0,0,0,0,0,0,0,0,0,0,0,0,0,0,0,0,0,0,0,0,0,0,0,0,0,0,0,0,0],"sum_hessian":[1.8569775E4,6.532463E3,1.20373125E4,5.991365E3,5.410976E2,1.2963135E3,1.0740999E4,5.7690186E3,2.2234688E2,5.1059592E2,3.0501665E1,1.1324182E3,1.6389526E2,8.400791E3,2.3402075E3,5.622905E3,1.461136E2,3.294595E1,1.8940092E2,1.4842989E2,3.6216605E2,2.6834848E1,3.666817E0,5.7373646E1,1.0750446E3,1.2420271E2,3.9692547E1,3.9598665E3,4.4409253E3,1.1352674E2,2.2266807E3,5.405287E3,2.1761751E2,5.868564E1,8.742796E1,1.3935187E0,3.1552431E1,3.747179E1,1.5192914E2,8.032663E1,6.810325E1,3.020224E2,6.014363E1,2.5385597E1,1.4492521E0,2.1841028E1,3.553262E1,3.5417374E1,1.0396272E3,1.175915E0,1.230268E2,2.6527197E1,1.316535E1,1.0500771E3,2.9097893E3,3.320618E3,1.1203073E3,5.0860977E1,6.2665764E1,1.5383059E1,2.2112976E3,9.076674E1,5.3145205E3,1.06703964E2,1.10913536E2,4.7487354E1,1.1198284E1,2.3799255E0,8.504804E1,1.0739427E0,3.0478487E1,1.3974701E1,2.3497087E1,1.06714226E2,4.521491E1,2.5061237E1,5.526539E1,4.1694843E1,2.6408407E1,2.978276E2,4.1947913E0,3.3651737E1,2.6491896E1,1.3209164E0,2.406468E1,1.7204967E1,4.6360593E0,2.9253132E1,6.279488E0,1.9342438E1,1.6074936E1,1.0304893E3,9.1379385E0,2.2766526E0,1.20750145E2,2.814044E0,2.3713152E1,2.9620183E0,1.0203331E1,7.162494E2,3.338278E2,2.8243564E3,8.5432655E1,2.0479796E3,1.2726382E3,8.493403E1,1.0353733E3,2.4398418E1,2.6462557E1,5.6917046E1,5.7487187E0,8.531006E0,6.8520527E0,4.5951797E2,1.7517797E3],"tree_param":{"num_deleted":"0","num_feature":"365","num_nodes":"115","size_leaf_vector":"1"}},{"base_weights":[1.6220488E-3,4.9537295E-1,-5.6370664E-1,7.349687E-1,-3.9216077E-1,8.984432E-1,-7.5556713E-1,8.175373E-1,-1.011593E0,-8.375046E-1,5.4694086E-1,1.1380825E0,-6.5745866E-1,2.1377599E-1,-8.6889386E-1,9.872385E-1,7.918185E-2,4.7031498E-1,-1.2476243E0,-3.7690222E-1,-1.1036619E0,9.711909E-1,-1.1606305E0,1.2440073E0,-9.453149E-1,9.9919707E-1,-8.5005647E-1,-7.966904E-1,7.801854E-1,-1.3582201E-1,-9.88723E-1,-9.908213E-1,1.0347182E0,7.8460294E-1,-7.802339E-1,-6.4289296E-1,1.1472145E0,-1.4225018E0,2.6840997E-1,-1.3780868E0,6.0109224E-2,-1.2301356E0,-5.9721035E-1,1.1403457E0,-7.264755E-1,-1.3651412E0,2.0146778E-1,1.3198179E0,-6.536292E-2,-1.3435814E0,3.567055E-1,1.2757427E0,-8.64808E-2,-1.1732343E0,-9.7506076E-2,-1.2535994E0,-6.050389E-3,9.599637E-1,-1.0371283E0,7.7042013E-1,-8.338363E-1,-1.4845765E-1,-1.0634933E0,7.609431E-2,-1.3521372E-1,1.0955872E-1,-3.488527E-2,1.1505423E-1,1.1685799E-2,-1.4804168E-1,-3.2032553E-2,9.547801E-2,-1.2213446E-1,1.3314092E-1,-8.002993E-2,-1.8991439E-2,-1.4708935E-1,-1.2757856E-1,1.0488176E-1,-1.5209843E-1,9.116067E-2,8.56409E-2,-6.884759E-2,-1.2535886E-1,2.9310865E-2,-1.22078896E-1,3.296724E-2,1.213442E-1,-1.0753047E-1,7.986333E-2,-1.4299461E-1,-2.7957228E-3,-1.4846161E-1,1.3069038E-1,-1.3294694E-1,-3.7130784E-2,1.3436626E-1,-1.2834845E-1,6.215318E-2,1.3465031E-2,-1.4053744E-1,-1.0461104E-1,1.0476686E-1,-0E0,1.465864E-1,4.7218822E-2,-1.2926959E-1,3.9618265E-2,-1.2025656E-1,7.598435E-2,-1.291617E-1,4.4390894E-2,-1.3213499E-1,1.1159748E-1,-8.7613456E-2,-1.15429655E-1,7.9537846E-2,-1.1197003E-1,1.13230646E-1,-1.1742904E-1,-1.672305E-2,-8.3248936E-2,8.2540765E-2,-8.793571E-2,-1.2337517E-1],"categories":[],"categories_nodes":[],"categories_segments":[],"categories_sizes":[],"default_left":[0,0,0,0,0,0,0,0,0,0,0,0,0,0,0,0,0,0,0,0,0,0,0,0,0,0,0,0,0,0,0,0,0,0,0,0,0,0,0,0,0,0,0,0,0,0,0,0,0,0,0,0,0,0,0,0,0,0,0,0,0,0,0,0,0,0,0,0,0,0,0,0,0,0,0,0,0,0,0,0,0,0,0,0,0,0,0,0,0,0,0,0,0,0,0,0,0,0,0,0,0,0,0,0,0,0,0,0,0,0,0,0,0,0,0,0,0,0,0,0,0,0,0,0,0],"id":8,"left_children":[1,3,5,7,9,11,13,15,17,19,21,23,25,27,29,31,33,35,37,39,41,43,45,47,49,51,53,55,57,59,61,63,65,67,69,71,73,75,77,79,81,83,85,87,89,91,93,95,97,99,101,103,-1,105,107,109,111,113,115,117,119,121,123,-1,-1,-1,-1,-1,-1,-1,-1,-1,-1,-1,-1,-1,-1,-1,-1,-1,-1,-1,-1,-1,-1,-1,-1,-1,-1,-1,-1,-1,-1,-1,-1,-1,-1,-1,-1,-1,-1,-1,-1,-1,-1,-1,-1,-1,-1,-1,-1,-1,-1,-1,-1,-1,-1,-1,-1,-1,-1,-1,-1,-1,-1],"loss_changes":[5.0130767E3,2.0389438E3,2.3494749E3,1.0895068E3,8.5301013E2,3.630688E2,8.133994E2,9.031216E2,1.2000009E2,1.6900482E2,4.7652124E2,1.8710168E2,4.239423E1,4.4448016E2,5.819492E2,5.5154443E2,8.1812476E2,3.661302E1,7.8610535E1,2.2257303E2,5.5191162E1,1.5199023E2,3.6885483E1,7.9829834E1,2.19828E1,8.346364E0,2.8282463E1,1.006541E2,1.6353604E2,5.904794E2,3.5759668E2,8.834651E1,4.8258203E2,1.8084198E2,1.9523792E2,1.8347885E1,1.1873253E1,1.5323975E1,3.8979263E1,5.2010925E1,2.1202829E2,2.5464722E1,1.0287702E2,7.8895935E1,5.296118E1,1.8035568E1,3.2044983E1,3.1174438E1,3.833101E1,3.228176E0,1.1176971E1,2.9396858E0,0E0,1.6783974E1,2.0425303E1,1.4562653E1,6.1790462E1,1.308523E2,1.0662781E1,2.790871E2,1.1933362E2,3.115999E2,1.626831E2,0E0,0E0,0E0,0E0,0E0,0E0,0E0,0E0,0E0,0E0,0E0,0E0,0E0,0E0,0E0,0E0,0E0,0E0,0E0,0E0,0E0,0E0,0E0,0E0,0E0,0E0,0E0,0E0,0E0,0E0,0E0,0E0,0E0,0E0,0E0,0E0,0E0,0E0,0E0,0E0,0E0,0E0,0E0,0E0,0E0,0E0,0E0,0E0,0E0,0E0,0E0,0E0,0E0,0E0,0E0,0E0,0E0,0E0,0E0,0E0,0E0,0E0],"parents":[2147483647,0,0,1,1,2,2,3,3,4,4,5,5,6,6,7,7,8,8,9,9,10,10,11,11,12,12,13,13,14,14,15,15,16,16,17,17,18,18,19,19,20,20,21,21,22,22,23,23,24,24,25,25,26,26,27,27,28,28,29,29,30,30,31,31,32,32,33,33,34,34,35,35,36,36,37,37,38,38,39,39,40,40,41,41,42,42,43,43,44,44,45,45,46,46,47,47,48,48,49,49,50,50,51,51,53,53,54,54,55,55,56,56,57,57,58,58,59,59,60,60,61,61,62,62],"right_children":[2,4,6,8,10,12,14,16,18,20,22,24,26,28,30,32,34,36,38,40,42,44,46,48,50,52,54,56,58,60,62,64,66,68,70,72,74,76,78,80,82,84,86,88,90,92,94,96,98,100,102,104,-1,106,108,110,112,114,116,118,120,122,124,-1,-1,-1,-1,-1,-1,-1,-1,-1,-1,-1,-1,-1,-1,-1,-1,-1,-1,-1,-1,-1,-1,-1,-1,-1,-1,-1,-1,-1,-1,-1,-1,-1,-1,-1,-1,-1,-1,-1,-1,-1,-1,-1,-1,-1,-1,-1,-1,-1,-1,-1,-1,-1,-1,-1,-1,-1,-1,-1,-1,-1,-1],"split_conditions":[1.3174533E1,2.5910297E2,7.1535277E0,1.1317562E0,9.1760266E-1,9.601264E1,7.6371984E0,-2.9912634E1,-8.132717E1,2.909314E2,-5.4691906E0,-5.394754E2,3.9004276E0,2.5315094E-1,-1.6136375E1,-2.252667E2,7.179684E0,-5.440428E2,-4.684166E1,1.780885E2,1.0985704E1,7.9519165E-1,1.2263607E1,-3.046826E1,3.3054863E1,2.1240717E2,2.6870121E1,-2.1564886E2,3.2953125E2,1.1291913E1,2.8100305E0,-1.0716103E1,-9.632164E-1,2.5397017E0,-8.700481E1,8.794952E0,-2.9109713E-1,7.6371984E0,6.7121882E0,1.1793361E0,-2.7313645E0,6.600455E1,-5.710323E2,6.167569E2,-1.1915777E1,5.047336E0,8.4171906E1,3.406807E1,-2.2167178E2,6.393771E0,3.9556466E-2,-7.728358E-1,-8.64808E-2,4.1908326E0,-1.1711082E0,-1.9406109E1,1.5000626E-1,-1.309742E-1,1.1256369E1,-2.3656046E2,-2.0306848E2,6.006891E1,1.7544662E1,7.609431E-2,-1.3521372E-1,1.0955872E-1,-3.488527E-2,1.1505423E-1,1.1685799E-2,-1.4804168E-1,-3.2032553E-2,9.547801E-2,-1.2213446E-1,1.3314092E-1,-8.002993E-2,-1.8991439E-2,-1.4708935E-1,-1.2757856E-1,1.0488176E-1,-1.5209843E-1,9.116067E-2,8.56409E-2,-6.884759E-2,-1.2535886E-1,2.9310865E-2,-1.22078896E-1,3.296724E-2,1.213442E-1,-1.0753047E-1,7.986333E-2,-1.4299461E-1,-2.7957228E-3,-1.4846161E-1,1.3069038E-1,-1.3294694E-1,-3.7130784E-2,1.3436626E-1,-1.2834845E-1,6.215318E-2,1.3465031E-2,-1.4053744E-1,-1.0461104E-1,1.0476686E-1,-0E0,1.465864E-1,4.7218822E-2,-1.2926959E-1,3.9618265E-2,-1.2025656E-1,7.598435E-2,-1.291617E-1,4.4390894E-2,-1.3213499E-1,1.1159748E-1,-8.7613456E-2,-1.15429655E-1,7.9537846E-2,-1.1197003E-1,1.13230646E-1,-1.1742904E-1,-1.672305E-2,-8.3248936E-2,8.2540765E-2,-8.793571E-2,-1.2337517E-1],"split_indices":[132,320,127,6,275,123,130,90,84,320,10,362,142,37,174,200,146,362,82,40,52,261,52,91,154,320,145,160,320,136,65,216,8,65,82,130,27,130,52,202,11,296,362,280,4,137,285,309,160,144,38,27,0,54,20,172,5,19,59,200,200,41,130,0,0,0,0,0,0,0,0,0,0,0,0,0,0,0,0,0,0,0,0,0,0,0,0,0,0,0,0,0,0,0,0,0,0,0,0,0,0,0,0,0,0,0,0,0,0,0,0,0,0,0,0,0,0,0,0,0,0,0,0,0,0],"split_type":[0,0,0,0,0,0,0,0,0,0,0,0,0,0,0,0,0,0,0,0,0,0,0,0,0,0,0,0,0,0,0,0,0,0,0,0,0,0,0,0,0,0,0,0,0,0,0,0,0,0,0,0,0,0,0,0,0,0,0,0,0,0,0,0,0,0,0,0,0,0,0,0,0,0,0,0,0,0,0,0,0,0,0,0,0,0,0,0,0,0,0,0,0,0,0,0,0,0,0,0,0,0,0,0,0,0,0,0,0,0,0,0,0,0,0,0,0,0,0,0,0,0,0,0,0],"sum_hessian":[1.7957572E4,9.585777E3,8.371796E3,7.548337E3,2.0374403E3,9.706169E2,7.4011787E3,7.2081606E3,3.4017636E2,1.3821888E3,6.5525146E2,8.4136334E2,1.2925357E2,7.745216E2,6.626657E3,5.860687E3,1.3474735E3,4.6542976E1,2.936334E2,5.0721396E2,8.7497485E2,5.2524335E2,1.3000812E2,8.0108514E2,4.0278183E1,1.297137E1,1.162822E2,2.7799655E2,4.9652505E2,9.314354E2,5.6952217E3,1.3686212E2,5.7238247E3,7.401505E2,6.07323E2,1.7562592E1,2.8980385E1,2.6337967E2,3.02537E1,1.5353764E2,3.5367633E2,6.988326E2,1.7614227E2,4.780026E2,4.7240784E1,1.1309829E2,1.690983E1,7.573067E2,4.377846E1,3.0877996E1,9.400187E0,1.1617085E1,1.354284E0,8.0863846E1,3.541835E1,1.7573038E2,1.0226618E2,4.5230725E2,4.4217823E1,4.0516144E2,5.26274E2,4.6572656E2,5.229495E3,2.3165632E1,1.1369649E2,5.48289E3,2.4093465E2,4.7756262E2,2.6258792E2,2.398022E2,3.675208E2,4.4495525E0,1.3113039E1,2.6812204E1,2.1681805E0,1.0213811E1,2.5316586E2,9.900546E0,2.0353155E1,1.448755E2,8.66214E0,1.7137134E2,1.8230498E2,6.884749E2,1.0357612E1,1.0517472E2,7.096756E1,4.6321808E2,1.4784515E1,1.4824395E1,3.241639E1,9.446164E0,1.0365212E2,9.942416E0,6.9674125E0,1.0268598E1,7.470381E2,1.5524593E1,2.8253868E1,1.1267247E0,2.9751272E1,2.884753E0,6.5154333E0,1.6925201E0,9.924565E0,5.21699E0,7.564686E1,2.4862116E1,1.0556236E1,2.8560245E0,1.7287434E2,7.663581E1,2.5630365E1,4.172967E2,3.5010536E1,4.195965E1,2.2581763E0,6.4726524E1,3.404349E2,3.477545E2,1.7851949E2,2.7371805E2,1.9200851E2,2.5155999E3,2.7138955E3],"tree_param":{"num_deleted":"0","num_feature":"365","num_nodes":"125","size_leaf_vector":"1"}},{"base_weights":[6.363088E-4,6.347497E-1,-3.858215E-1,8.5318863E-1,-2.6880997E-1,7.8916925E-1,-5.430583E-1,9.1600144E-1,-8.056026E-1,-7.305473E-1,7.054801E-1,-2.5382367E-1,1.10372E0,-3.285754E-2,-8.2278603E-1,9.6106344E-1,-8.1427205E-1,-1.4902983E0,-1.2555045E-1,-4.5436862E-1,-1.1994154E0,-8.5255766E-1,1.0188162E0,-8.601015E-1,7.437349E-1,-1.22689046E-1,1.2104608E0,1.8365607E-1,-1.2708247E0,-4.0465415E-2,-9.5335144E-1,9.986312E-1,-8.2318157E-1,4.670062E-1,-1.1740923E0,6.775122E-1,-1.6437919E0,4.4749534E-1,-1.3415067E0,-3.3083677E-2,-1.1629802E0,-1.5302902E-1,-1.3607069E0,7.913018E-1,-9.889965E-1,1.1500928E0,-4.5296493E-1,2.06984E-1,-1.2113297E0,9.618573E-1,-6.861989E-1,1.0790776E0,-5.6075233E-1,1.240061E0,-8.373024E-1,4.4335294E-1,-1.1999354E0,8.776834E-1,-1.3233942E0,8.5044354E-1,-4.9596086E-1,-1.0497199E0,-2.7991414E-1,1.031516E-1,-8.22825E-2,8.4900536E-2,-1.3802497E-1,8.6551815E-2,-9.219402E-2,-2.7368853E-2,-1.2956789E-1,-8.3235584E-2,1.1922034E-1,-1.6687882E-1,4.5730616E-3,8.2050964E-2,-7.664117E-2,-1.4863288E-1,8.7332316E-2,-8.905242E-2,3.544326E-2,-1.349855E-1,1.2129684E-2,8.5233934E-2,-1.5434524E-1,-7.445043E-2,-1.4412288E-1,1.0760166E-1,-2.0931244E-2,-1.172228E-1,2.7228205E-2,-1.0196592E-1,1.19448856E-1,-1.4261882E-1,8.945713E-2,7.574128E-2,-1.0892593E-1,-1.3194738E-1,6.226902E-2,1.0922221E-1,-7.439425E-2,1.1262279E-1,-1.16432086E-1,1.2605101E-1,-0E0,4.5474544E-2,-1.13102615E-1,1.2603064E-1,-6.772793E-2,9.3967505E-2,-1.196716E-1,6.529191E-2,-9.406511E-2,-2.8316185E-2,-1.2255379E-1,1.3595991E-1,-9.006189E-2,8.723952E-3,-1.3693202E-1,-1.0166835E-1,1.0700085E-1,-1.0198983E-1,2.2570638E-2,2.1354675E-2,-1.0917927E-1,-1.1425102E-1,2.0012181E-2],"categories":[],"categories_nodes":[],"categories_segments":[],"categories_sizes":[],"default_left":[0,0,0,0,0,0,0,0,0,0,0,0,0,0,0,0,0,0,0,0,0,0,0,0,0,0,0,0,0,0,0,0,0,0,0,0,0,0,0,0,0,0,0,0,0,0,0,0,0,0,0,0,0,0,0,0,0,0,0,0,0,0,0,0,0,0,0,0,0,0,0,0,0,0,0,0,0,0,0,0,0,0,0,0,0,0,0,0,0,0,0,0,0,0,0,0,0,0,0,0,0,0,0,0,0,0,0,0,0,0,0,0,0,0,0,0,0,0,0,0,0,0,0,0,0,0,0],"id":9,"left_children":[1,3,5,7,9,11,13,15,17,19,21,23,25,27,29,31,33,35,37,39,41,43,45,47,49,51,53,55,57,59,61,63,65,67,69,71,73,75,77,79,81,83,85,87,89,91,93,95,97,99,101,103,105,107,109,111,113,115,117,119,121,123,125,-1,-1,-1,-1,-1,-1,-1,-1,-1,-1,-1,-1,-1,-1,-1,-1,-1,-1,-1,-1,-1,-1,-1,-1,-1,-1,-1,-1,-1,-1,-1,-1,-1,-1,-1,-1,-1,-1,-1,-1,-1,-1,-1,-1,-1,-1,-1,-1,-1,-1,-1,-1,-1,-1,-1,-1,-1,-1,-1,-1,-1,-1,-1,-1],"loss_changes":[4.227002E3,1.2894658E3,1.980422E3,5.488462E2,5.728871E2,4.1545544E2,1.3489868E3,3.960244E2,8.923807E1,1.1114108E2,2.0081598E2,1.7840205E2,1.27543335E2,8.978969E2,6.234844E2,3.3202393E2,6.015982E1,3.305641E1,6.876161E1,1.6263771E2,5.355423E1,1.6292046E1,6.656677E1,6.906058E1,3.548748E1,4.1976597E1,5.5307007E1,1.0248457E3,5.752893E1,3.552087E2,3.391167E2,2.907456E2,9.6592896E1,1.6827991E1,1.0564957E1,6.463146E0,4.027405E0,3.1014692E1,1.1494751E1,1.14378365E2,4.9056732E1,6.27143E1,1.24313965E1,1.9620161E0,1.5262337E1,3.1468323E1,3.886113E1,3.3742496E1,2.8290787E1,2.2480972E1,1.4564705E1,4.2875214E0,3.4392616E1,3.516211E1,9.642383E0,6.970294E2,1.0082153E1,1.19534855E1,3.1811096E1,1.2247981E2,2.1933652E2,2.435581E2,2.7214722E2,0E0,0E0,0E0,0E0,0E0,0E0,0E0,0E0,0E0,0E0,0E0,0E0,0E0,0E0,0E0,0E0,0E0,0E0,0E0,0E0,0E0,0E0,0E0,0E0,0E0,0E0,0E0,0E0,0E0,0E0,0E0,0E0,0E0,0E0,0E0,0E0,0E0,0E0,0E0,0E0,0E0,0E0,0E0,0E0,0E0,0E0,0E0,0E0,0E0,0E0,0E0,0E0,0E0,0E0,0E0,0E0,0E0,0E0,0E0,0E0,0E0,0E0,0E0,0E0],"parents":[2147483647,0,0,1,1,2,2,3,3,4,4,5,5,6,6,7,7,8,8,9,9,10,10,11,11,12,12,13,13,14,14,15,15,16,16,17,17,18,18,19,19,20,20,21,21,22,22,23,23,24,24,25,25,26,26,27,27,28,28,29,29,30,30,31,31,32,32,33,33,34,34,35,35,36,36,37,37,38,38,39,39,40,40,41,41,42,42,43,43,44,44,45,45,46,46,47,47,48,48,49,49,50,50,51,51,52,52,53,53,54,54,55,55,56,56,57,57,58,58,59,59,60,60,61,61,62,62],"right_children":[2,4,6,8,10,12,14,16,18,20,22,24,26,28,30,32,34,36,38,40,42,44,46,48,50,52,54,56,58,60,62,64,66,68,70,72,74,76,78,80,82,84,86,88,90,92,94,96,98,100,102,104,106,108,110,112,114,116,118,120,122,124,126,-1,-1,-1,-1,-1,-1,-1,-1,-1,-1,-1,-1,-1,-1,-1,-1,-1,-1,-1,-1,-1,-1,-1,-1,-1,-1,-1,-1,-1,-1,-1,-1,-1,-1,-1,-1,-1,-1,-1,-1,-1,-1,-1,-1,-1,-1,-1,-1,-1,-1,-1,-1,-1,-1,-1,-1,-1,-1,-1,-1,-1,-1,-1,-1],"split_conditions":[1.0005978E1,2.482052E2,7.603009E0,9.889004E-1,1.957047E1,4.3782555E1,7.6519384E0,-1.4615695E-1,-7.0803136E-1,-1.7329077E0,6.1968267E-2,-4.7880006E-1,2.1227484E1,1.6998777E1,9.076706E0,-2.0111476E-1,4.0213757E0,3.3268452E-1,1.1002149E1,7.338952E1,-4.5101156E0,6.591201E0,-4.8411846E0,6.2366085E0,-1.4522617E1,-7.080855E1,-3.517056E-1,2.095823E2,-2.0089897E1,-4.0080566E1,1.5371376E1,1.6269379E0,5.873047E0,9.382303E0,2.6286552E1,1.3121854E-1,1.894807E1,2.1427965E0,1.0234683E1,1.8987747E1,1.5488953E1,7.7391267E-3,6.4255553E-1,-4.541696E1,1.1245296E1,4.665693E0,1.238236E1,2.4171637E2,2.6507095E1,2.0871968E2,4.958125E0,-5.6412918E1,6.915785E-1,6.200656E1,2.2034216E0,-6.872958E-1,2.1673548E0,2.392689E2,-7.1863923E0,-2.146732E2,1.047895E-2,-1.623089E1,-2.2167487E2,1.031516E-1,-8.22825E-2,8.4900536E-2,-1.3802497E-1,8.6551815E-2,-9.219402E-2,-2.7368853E-2,-1.2956789E-1,-8.3235584E-2,1.1922034E-1,-1.6687882E-1,4.5730616E-3,8.2050964E-2,-7.664117E-2,-1.4863288E-1,8.7332316E-2,-8.905242E-2,3.544326E-2,-1.349855E-1,1.2129684E-2,8.5233934E-2,-1.5434524E-1,-7.445043E-2,-1.4412288E-1,1.0760166E-1,-2.0931244E-2,-1.172228E-1,2.7228205E-2,-1.0196592E-1,1.19448856E-1,-1.4261882E-1,8.945713E-2,7.574128E-2,-1.0892593E-1,-1.3194738E-1,6.226902E-2,1.0922221E-1,-7.439425E-2,1.1262279E-1,-1.16432086E-1,1.2605101E-1,-0E0,4.5474544E-2,-1.13102615E-1,1.2603064E-1,-6.772793E-2,9.3967505E-2,-1.196716E-1,6.529191E-2,-9.406511E-2,-2.8316185E-2,-1.2255379E-1,1.3595991E-1,-9.006189E-2,8.723952E-3,-1.3693202E-1,-1.0166835E-1,1.0700085E-1,-1.0198983E-1,2.2570638E-2,2.1354675E-2,-1.0917927E-1,-1.1425102E-1,2.0012181E-2],"split_indices":[132,320,127,5,324,305,138,8,2,24,275,167,155,47,130,20,51,136,136,287,11,129,10,142,104,81,12,40,4,92,334,6,127,134,298,35,332,5,54,155,334,349,241,88,337,76,52,320,44,40,151,87,27,147,129,24,65,281,216,200,38,204,200,0,0,0,0,0,0,0,0,0,0,0,0,0,0,0,0,0,0,0,0,0,0,0,0,0,0,0,0,0,0,0,0,0,0,0,0,0,0,0,0,0,0,0,0,0,0,0,0,0,0,0,0,0,0,0,0,0,0,0,0,0,0,0,0],"split_type":[0,0,0,0,0,0,0,0,0,0,0,0,0,0,0,0,0,0,0,0,0,0,0,0,0,0,0,0,0,0,0,0,0,0,0,0,0,0,0,0,0,0,0,0,0,0,0,0,0,0,0,0,0,0,0,0,0,0,0,0,0,0,0,0,0,0,0,0,0,0,0,0,0,0,0,0,0,0,0,0,0,0,0,0,0,0,0,0,0,0,0,0,0,0,0,0,0,0,0,0,0,0,0,0,0,0,0,0,0,0,0,0,0,0,0,0,0,0,0,0,0,0,0,0,0,0,0],"sum_hessian":[1.7246879E4,6.530698E3,1.0716182E4,5.259388E3,1.27131E3,1.264233E3,9.451948E3,5.067989E3,1.9139954E2,8.62775E2,4.085351E2,2.9290115E2,9.7133185E2,3.347626E3,6.1043223E3,4.9398413E3,1.2814737E2,9.470719E1,9.669235E1,5.4432947E2,3.1844553E2,6.806207E1,3.4047302E2,1.8232753E2,1.1057364E2,7.768429E1,8.936475E2,2.8499556E3,4.9767056E2,8.7336676E2,5.2309556E3,4.838463E3,1.0137863E2,2.7970798E1,1.00176575E2,5.9935822E0,8.871361E1,6.609391E1,3.0598448E1,3.4211972E2,2.0220976E2,4.287308E1,2.7557245E2,4.792146E0,6.3269928E1,3.1285428E2,2.7618736E1,4.51824E1,1.3714513E2,9.628377E1,1.4289871E1,2.0300653E1,5.7383636E1,8.813509E2,1.2296628E1,2.400196E3,4.497593E2,1.1465823E1,4.8620474E2,2.950968E2,5.7826996E2,4.5754976E3,6.554582E2,4.753137E3,8.532529E1,2.515767E1,7.622096E1,2.2083517E1,5.887281E0,1.2402658E1,8.777392E1,1.3174125E0,4.67617E0,8.749065E1,1.2229582E0,5.08691E1,1.5224808E1,2.9071598E1,1.5268494E0,1.061675E2,2.3595221E2,1.7654723E2,2.566255E1,2.5064709E1,1.7808374E1,3.317616E1,2.4239629E2,3.7497697E0,1.0423766E0,5.5375214E1,7.894714E0,5.787382E0,3.070669E2,1.6045868E1,1.1572869E1,3.206103E1,1.3121368E1,1.29825E2,7.3201213E0,8.9836395E1,6.447372E0,2.656217E0,1.1633654E1,1.7308544E1,2.9921083E0,2.0646048E1,3.6737587E1,8.7253265E2,8.818275E0,1.7502944E0,1.0546333E1,2.0850742E3,3.151219E2,1.2652811E1,4.371065E2,9.250613E0,2.2152095E0,1.5233229E1,4.709715E2,3.0620628E1,2.6447617E2,3.3487372E2,2.4339626E2,1.4726622E2,4.428231E3,2.3392932E2,4.2152884E2],"tree_param":{"num_deleted":"0","num_feature":"365","num_nodes":"127","size_leaf_vector":"1"}},{"base_weights":[-9.3857927E-4,4.0507427E-1,-5.4664385E-1,5.283783E-1,-8.806537E-1,6.9771194E-1,-7.3509276E-1,6.2441003E-1,-9.3785733E-1,-1.0110968E0,9.1836077E-1,-2.7942303E-1,1.169951E0,-5.031988E-1,-1.1832429E0,8.3489114E-1,4.8696566E-2,5.4537594E-1,-1.0863899E0,-2.4359426E-1,-1.0647607E0,1.1780624E0,-1.10503554E-1,7.9950875E-1,-6.4548033E-1,1.2650479E0,-1.2925339E-1,5.167139E-1,-7.1419835E-1,2.9154536E-1,-1.2116542E0,9.1011375E-1,-4.1502383E-1,4.49161E-1,-6.1063135E-1,-8.84374E-1,1.132116E0,-3.2261875E-1,-1.2822527E0,-7.872481E-1,6.412903E-1,-5.1060236E-1,-1.1351033E0,1.3289964E0,-6.625968E-1,1.0256108E0,-6.4131534E-1,-1.3575399E-1,-1.1581589E0,1.2801254E0,-1.3074985E-1,-7.460269E-1,8.2660764E-1,-9.7293705E-1,-2.8951427E-1,-9.888816E-1,9.330425E-1,-4.39127E-1,-1.2327808E0,9.4267435E-2,-1.814907E-1,-1.407214E-1,1.0268593E-1,-4.9461953E-2,7.586714E-2,1.3406882E-2,-1.0642755E-1,7.040685E-2,-1.13243245E-1,-6.2046546E-2,1.2647964E-1,-8.316149E-2,7.166407E-2,1.9054253E-2,-1.3361534E-1,6.4427964E-2,-1.02673076E-1,1.3265535E-1,-6.3338295E-2,6.093484E-2,-9.488764E-2,-3.3985794E-2,-1.1544329E-1,-4.5951393E-2,1.3889919E-1,2.1245949E-2,-1.0476853E-1,1.1342267E-1,-9.1496035E-2,9.094155E-2,-1.0622525E-1,-1.1019677E-1,3.338128E-2,-1.2393844E-1,5.3836644E-2,1.303622E-1,1.8711755E-2,4.368741E-2,-1.1682377E-1,1.0750115E-1,-6.821051E-2,-1.03205286E-1,4.3965466E-2,5.5770826E-2,-5.814266E-2,4.8987158E-2,-1.2657857E-1,1.4054899E-1,-5.3744253E-2,4.5239456E-2,-1.229815E-1,-3.7336927E-2,-1.2487407E-1],"categories":[],"categories_nodes":[],"categories_segments":[],"categories_sizes":[],"default_left":[0,0,0,0,0,0,0,0,0,0,0,0,0,0,0,0,0,0,0,0,0,0,0,0,0,0,0,0,0,0,0,0,0,0,0,0,0,0,0,0,0,0,0,0,0,0,0,0,0,0,0,0,0,0,0,0,0,0,0,0,0,0,0,0,0,0,0,0,0,0,0,0,0,0,0,0,0,0,0,0,0,0,0,0,0,0,0,0,0,0,0,0,0,0,0,0,0,0,0,0,0,0,0,0,0,0,0,0,0,0,0,0,0],"id":10,"left_children":[1,3,5,7,9,11,13,15,17,19,21,23,25,27,29,31,33,35,37,39,41,43,-1,45,47,49,-1,51,53,55,57,59,61,63,65,67,69,71,73,75,77,79,81,83,85,87,89,91,93,95,-1,97,99,101,103,105,107,109,111,-1,-1,-1,-1,-1,-1,-1,-1,-1,-1,-1,-1,-1,-1,-1,-1,-1,-1,-1,-1,-1,-1,-1,-1,-1,-1,-1,-1,-1,-1,-1,-1,-1,-1,-1,-1,-1,-1,-1,-1,-1,-1,-1,-1,-1,-1,-1,-1,-1,-1,-1,-1,-1,-1],"loss_changes":[3.6756277E3,1.5084373E3,1.6601343E3,1.2228003E3,1.9634839E2,4.3014993E2,6.380581E2,9.8715796E2,1.18272736E2,3.160968E1,3.1139668E1,1.20633835E2,1.4872089E2,8.7255664E2,8.823682E1,5.6136523E2,5.765058E2,4.230324E1,7.208533E1,2.5627481E1,2.7546143E1,1.5071144E1,0E0,2.5921822E1,5.922754E1,2.514917E1,0E0,2.726747E2,3.6864062E2,3.405258E1,3.2845947E1,5.009668E2,4.868631E2,3.972139E2,2.7894867E2,6.683138E0,9.075199E0,5.380939E1,3.1022522E1,1.1961027E1,1.867939E1,4.1707886E1,9.342529E0,5.814003E0,1.8123643E0,1.5260742E1,8.199745E0,5.281504E1,1.6351639E1,1.5075745E1,0E0,6.9234474E1,2.1017969E2,1.747472E2,3.1518402E2,6.388649E0,1.9907162E1,4.039593E1,2.6810547E1,0E0,0E0,0E0,0E0,0E0,0E0,0E0,0E0,0E0,0E0,0E0,0E0,0E0,0E0,0E0,0E0,0E0,0E0,0E0,0E0,0E0,0E0,0E0,0E0,0E0,0E0,0E0,0E0,0E0,0E0,0E0,0E0,0E0,0E0,0E0,0E0,0E0,0E0,0E0,0E0,0E0,0E0,0E0,0E0,0E0,0E0,0E0,0E0,0E0,0E0,0E0,0E0,0E0,0E0],"parents":[2147483647,0,0,1,1,2,2,3,3,4,4,5,5,6,6,7,7,8,8,9,9,10,10,11,11,12,12,13,13,14,14,15,15,16,16,17,17,18,18,19,19,20,20,21,21,23,23,24,24,25,25,27,27,28,28,29,29,30,30,31,31,32,32,33,33,34,34,35,35,36,36,37,37,38,38,39,39,40,40,41,41,42,42,43,43,44,44,45,45,46,46,47,47,48,48,49,49,51,51,52,52,53,53,54,54,55,55,56,56,57,57,58,58],"right_children":[2,4,6,8,10,12,14,16,18,20,22,24,26,28,30,32,34,36,38,40,42,44,-1,46,48,50,-1,52,54,56,58,60,62,64,66,68,70,72,74,76,78,80,82,84,86,88,90,92,94,96,-1,98,100,102,104,106,108,110,112,-1,-1,-1,-1,-1,-1,-1,-1,-1,-1,-1,-1,-1,-1,-1,-1,-1,-1,-1,-1,-1,-1,-1,-1,-1,-1,-1,-1,-1,-1,-1,-1,-1,-1,-1,-1,-1,-1,-1,-1,-1,-1,-1,-1,-1,-1,-1,-1,-1,-1,-1,-1,-1,-1],"split_conditions":[1.3951172E1,2.0871968E2,8.158667E0,9.1999376E-1,6.3108013E1,6.1000904E1,-1.4605006E0,9.853142E0,-8.6060974E1,2.2076662E0,5.753845E-2,1.8387543E-1,-5.4121686E2,7.0099077E0,6.7495584E-1,7.712054E0,-3.511304E1,9.732075E-3,1.010811E1,-2.9173934E-1,5.894609E0,-8.50431E-1,-1.10503554E-1,-2.2815476E-1,-1.6710138E0,2.584655E1,-1.2925339E-1,-3.2423703E2,-2.742663E2,-5.1908016E0,2.0121887E0,5.7300816E0,1.2935085E0,2.8783578E-2,1.0650307E1,5.981857E0,-2.7868122E1,2.9756083E0,3.250089E0,3.1511025E0,-3.2153946E1,-2.9649317E1,1.577782E0,1.6614549E-1,3.6898254E1,-1.2643929E1,1.3135638E0,-2.9795905E2,2.3783398E2,-3.2927895E1,-1.3074985E-1,-5.7180095E0,-9.9398667E-1,7.2170654E1,8.557081E0,2.7549284E1,-1.5823556E0,-5.8569604E2,2.7906404E0,9.4267435E-2,-1.814907E-1,-1.407214E-1,1.0268593E-1,-4.9461953E-2,7.586714E-2,1.3406882E-2,-1.0642755E-1,7.040685E-2,-1.13243245E-1,-6.2046546E-2,1.2647964E-1,-8.316149E-2,7.166407E-2,1.9054253E-2,-1.3361534E-1,6.4427964E-2,-1.02673076E-1,1.3265535E-1,-6.3338295E-2,6.093484E-2,-9.488764E-2,-3.3985794E-2,-1.1544329E-1,-4.5951393E-2,1.3889919E-1,2.1245949E-2,-1.0476853E-1,1.1342267E-1,-9.1496035E-2,9.094155E-2,-1.0622525E-1,-1.1019677E-1,3.338128E-2,-1.2393844E-1,5.3836644E-2,1.303622E-1,1.8711755E-2,4.368741E-2,-1.1682377E-1,1.0750115E-1,-6.821051E-2,-1.03205286E-1,4.3965466E-2,5.5770826E-2,-5.814266E-2,4.8987158E-2,-1.2657857E-1,1.4054899E-1,-5.3744253E-2,4.5239456E-2,-1.229815E-1,-3.7336927E-2,-1.2487407E-1],"split_indices":[132,40,127,6,296,299,12,138,84,138,242,241,80,136,136,60,90,11,136,23,137,15,0,12,19,128,0,160,160,176,65,120,276,37,137,130,96,2,132,146,92,95,140,33,315,104,131,160,121,91,0,218,24,296,137,300,10,80,142,0,0,0,0,0,0,0,0,0,0,0,0,0,0,0,0,0,0,0,0,0,0,0,0,0,0,0,0,0,0,0,0,0,0,0,0,0,0,0,0,0,0,0,0,0,0,0,0,0,0,0,0,0,0],"split_type":[0,0,0,0,0,0,0,0,0,0,0,0,0,0,0,0,0,0,0,0,0,0,0,0,0,0,0,0,0,0,0,0,0,0,0,0,0,0,0,0,0,0,0,0,0,0,0,0,0,0,0,0,0,0,0,0,0,0,0,0,0,0,0,0,0,0,0,0,0,0,0,0,0,0,0,0,0,0,0,0,0,0,0,0,0,0,0,0,0,0,0,0,0,0,0,0,0,0,0,0,0,0,0,0,0,0,0,0,0,0,0,0,0],"sum_hessian":[1.658745E4,9.511114E3,7.076336E3,8.679407E3,8.317067E2,9.302863E2,6.14605E3,8.1464917E3,5.329156E2,7.759384E2,5.5768284E1,3.0317245E2,6.2711383E2,4.0518027E3,2.0942468E3,5.9650444E3,2.1814473E3,4.820452E1,4.847111E2,5.119196E1,7.2474646E2,4.983872E1,5.929568E0,7.6433136E1,2.2673933E2,6.043035E2,2.28103E1,6.942191E2,3.3575835E3,3.9340744E1,2.0549062E3,5.6267656E3,3.3827896E2,1.3574349E3,8.240122E2,1.3828923E1,3.43756E1,9.957474E1,3.8513635E2,3.1848364E1,1.9343596E1,8.272442E1,6.4202203E2,4.6368786E1,3.4699316E0,6.637482E1,1.005832E1,1.1442906E2,1.1231027E2,6.0132056E2,2.9830317E0,1.3645766E2,5.577615E2,2.0854792E3,1.2721042E3,1.289832E1,2.6442423E1,5.5406532E1,1.9994996E3,5.561009E3,6.57564E1,2.0044319E2,1.3783577E2,3.3500214E2,1.0224328E3,3.1212054E2,5.1189163E2,1.5651348E0,1.2263788E1,2.107499E0,3.22681E1,6.703779E1,3.253695E1,1.3442426E1,3.7169394E2,4.262293E0,2.7586071E1,1.2604941E1,6.7386546E0,2.3093513E1,5.96309E1,1.579868E1,6.262234E2,1.234725E0,4.513406E1,1.1180141E0,2.3519175E0,6.3298958E1,3.0758612E0,1.8489131E0,8.209407E0,3.70528E1,7.737626E1,1.0749221E2,4.8180647E0,5.8838776E2,1.2932787E1,3.5822575E1,1.0063509E2,4.7921436E2,7.85471E1,2.002036E3,8.3443344E1,3.2566565E2,9.4643854E2,1.8560747E0,1.1042246E1,2.0097551E1,6.3448725E0,2.6184357E1,2.9222176E1,3.7013866E1,1.9624857E3],"tree_param":{"num_deleted":"0","num_feature":"365","num_nodes":"113","size_leaf_vector":"1"}},{"base_weights":[4.0500774E-3,3.8219848E-1,-5.0852907E-1,6.106691E-1,-2.936259E-1,6.8234617E-1,-6.88386E-1,7.0443267E-1,-8.0633825E-1,-6.359609E-1,5.7544994E-1,-5.695561E-1,1.0220889E0,-4.749244E-1,-1.1475341E0,7.716716E-1,-8.506208E-1,1.0818142E0,-1.0295781E0,-3.0245835E-1,-1.0663323E0,9.5337844E-1,-9.545002E-1,4.8888564E-1,-9.7107875E-1,1.1757108E0,-5.2120316E-1,4.5684502E-1,-6.757033E-1,1.6723542E-1,-1.1705321E0,8.7492454E-1,-2.0903178E-1,-1.1171343E0,4.554958E-1,-1.0579921E-1,1.2170069E0,-1.2312506E0,-6.320485E-2,2.1725442E-1,-1.1063399E0,-1.1550583E0,6.9736147E-1,1.0921634E0,-5.462677E-1,-1.4049168E0,-4.335997E-1,8.643939E-1,-5.7698023E-1,3.570759E-1,-1.1124573E0,1.2276697E0,-1.1158756E-1,7.642766E-1,-1.0267916E0,-3.0670705E-1,9.215556E-1,-1.1594484E0,-4.765671E-1,-6.817288E-1,1.1399747E0,-2.7547625E-1,-1.1952902E0,-1.1182203E-1,9.2284046E-2,6.430862E-2,-6.906279E-2,3.7780534E-3,-1.2544562E-1,9.320211E-2,-9.32817E-2,-4.8115056E-2,1.2778601E-1,-8.4224954E-2,-1.459654E-1,-1.1918362E-1,8.3539896E-2,5.8408737E-2,-7.150673E-2,8.5153006E-2,-1.2080965E-1,1.7673787E-2,-1.22942366E-1,1.20900564E-1,-1.22660115E-1,-1.3663632E-1,1.1463734E-1,9.539255E-2,-1.3049988E-1,-1.5165825E-1,3.9733093E-2,7.625911E-2,-9.5001474E-2,1.0886192E-1,-2.3768404E-2,6.812972E-2,-1.1803835E-1,9.855374E-2,-7.1499266E-2,3.3751085E-2,-1.1672962E-1,1.2478584E-1,-2.549292E-2,5.18659E-2,-1.1157232E-1,1.2077739E-1,-5.1263906E-2,-1.1428311E-1,7.2520904E-2,2.794235E-2,-8.844912E-2,1.07690394E-1,-1.2411394E-1,5.5300146E-2,-1.21041276E-1,6.358137E-2,-6.0592562E-2,7.62632E-2,-1.04860984E-1,1.4418344E-1,-3.6617424E-2,5.6231756E-2,-1.16938904E-1,-2.2967495E-2,-1.205488E-1],"categories":[],"categories_nodes":[],"categories_segments":[],"categories_sizes":[],"default_left":[0,0,0,0,0,0,0,0,0,0,0,0,0,0,0,0,0,0,0,0,0,0,0,0,0,0,0,0,0,0,0,0,0,0,0,0,0,0,0,0,0,0,0,0,0,0,0,0,0,0,0,0,0,0,0,0,0,0,0,0,0,0,0,0,0,0,0,0,0,0,0,0,0,0,0,0,0,0,0,0,0,0,0,0,0,0,0,0,0,0,0,0,0,0,0,0,0,0,0,0,0,0,0,0,0,0,0,0,0,0,0,0,0,0,0,0,0,0,0,0,0,0,0,0,0],"id":11,"left_children":[1,3,5,7,9,11,13,15,17,19,21,23,25,27,29,31,33,35,37,39,41,43,45,47,49,51,53,55,57,59,61,63,65,67,69,-1,71,73,75,77,79,81,83,85,87,89,91,93,95,97,99,101,103,105,107,109,111,113,115,117,119,121,123,-1,-1,-1,-1,-1,-1,-1,-1,-1,-1,-1,-1,-1,-1,-1,-1,-1,-1,-1,-1,-1,-1,-1,-1,-1,-1,-1,-1,-1,-1,-1,-1,-1,-1,-1,-1,-1,-1,-1,-1,-1,-1,-1,-1,-1,-1,-1,-1,-1,-1,-1,-1,-1,-1,-1,-1,-1,-1,-1,-1,-1,-1],"loss_changes":[3.088177E3,1.4158934E3,1.4491906E3,9.110149E2,6.897173E2,3.7828333E2,5.7528906E2,6.727478E2,1.8054312E2,2.3820197E2,3.7976038E2,8.131752E1,1.6635547E2,7.5119904E2,5.6665283E1,6.242207E2,9.345761E1,1.4451355E1,7.409381E1,3.9236356E2,1.1437207E2,1.1012137E2,2.976345E1,2.16927E1,2.6428375E1,4.2782776E1,4.2339607E1,2.5300035E2,3.1742554E2,2.7950476E1,4.012964E1,5.3347754E2,2.416207E2,3.5371246E1,3.1212894E1,0E0,5.164665E0,2.6552734E1,6.8946335E1,1.955772E2,7.451663E1,6.87713E1,3.6245922E1,6.5759094E1,5.26816E1,1.4659958E1,3.900699E1,1.0123161E1,1.1716646E1,1.0155824E1,1.0435471E1,1.8717834E1,1.6784698E1,1.1196344E1,1.0292141E1,9.1768906E1,1.5014761E2,8.471228E1,3.3729388E2,1.0425693E1,7.790613E0,3.8710587E1,1.7133545E1,0E0,0E0,0E0,0E0,0E0,0E0,0E0,0E0,0E0,0E0,0E0,0E0,0E0,0E0,0E0,0E0,0E0,0E0,0E0,0E0,0E0,0E0,0E0,0E0,0E0,0E0,0E0,0E0,0E0,0E0,0E0,0E0,0E0,0E0,0E0,0E0,0E0,0E0,0E0,0E0,0E0,0E0,0E0,0E0,0E0,0E0,0E0,0E0,0E0,0E0,0E0,0E0,0E0,0E0,0E0,0E0,0E0,0E0,0E0,0E0,0E0,0E0],"parents":[2147483647,0,0,1,1,2,2,3,3,4,4,5,5,6,6,7,7,8,8,9,9,10,10,11,11,12,12,13,13,14,14,15,15,16,16,17,17,18,18,19,19,20,20,21,21,22,22,23,23,24,24,25,25,26,26,27,27,28,28,29,29,30,30,31,31,32,32,33,33,34,34,36,36,37,37,38,38,39,39,40,40,41,41,42,42,43,43,44,44,45,45,46,46,47,47,48,48,49,49,50,50,51,51,52,52,53,53,54,54,55,55,56,56,57,57,58,58,59,59,60,60,61,61,62,62],"right_children":[2,4,6,8,10,12,14,16,18,20,22,24,26,28,30,32,34,36,38,40,42,44,46,48,50,52,54,56,58,60,62,64,66,68,70,-1,72,74,76,78,80,82,84,86,88,90,92,94,96,98,100,102,104,106,108,110,112,114,116,118,120,122,124,-1,-1,-1,-1,-1,-1,-1,-1,-1,-1,-1,-1,-1,-1,-1,-1,-1,-1,-1,-1,-1,-1,-1,-1,-1,-1,-1,-1,-1,-1,-1,-1,-1,-1,-1,-1,-1,-1,-1,-1,-1,-1,-1,-1,-1,-1,-1,-1,-1,-1,-1,-1,-1,-1,-1,-1,-1,-1,-1,-1,-1,-1],"split_conditions":[1.3951172E1,2.4930104E2,8.158667E0,7.350279E-1,1.2417576E0,2.4396275E1,-1.3528513E0,1.1317562E0,4.967595E0,7.2457375E1,-1.167771E1,3.0033547E-1,-5.501369E2,7.0994053E0,6.7495584E-1,-4.9300247E-1,-5.281277E2,-4.360788E-1,-4.1930046E1,-2.9986248E0,6.443425E1,7.1813184E-1,1.6626017E1,-1.690657E1,4.1096106E0,-3.039475E1,-7.118523E-1,3.173843E1,-2.3656046E2,-1.8084061E-1,1.9706972E0,-2.3451352E2,8.85111E0,1.0868387E1,-4.0080566E1,-1.0579921E-1,-8.388334E-2,1.3915191E0,1.4746226E-1,-1.5849155E0,-8.117338E0,-1.7967731E1,-4.2036753E0,1.4424576E1,-2.9707323E1,9.310964E0,1.4682762E1,1.713077E1,1.154921E1,-3.1299795E1,1.0565516E0,1.06890274E2,3.9066517E1,6.40384E-1,2.7952356E2,4.9434385E0,1.8357782E1,-1.24362955E1,-1.8850906E1,4.667344E0,-1.5752849E-1,-5.8569604E2,1.9109236E0,-1.1182203E-1,9.2284046E-2,6.430862E-2,-6.906279E-2,3.7780534E-3,-1.2544562E-1,9.320211E-2,-9.32817E-2,-4.8115056E-2,1.2778601E-1,-8.4224954E-2,-1.459654E-1,-1.1918362E-1,8.3539896E-2,5.8408737E-2,-7.150673E-2,8.5153006E-2,-1.2080965E-1,1.7673787E-2,-1.22942366E-1,1.20900564E-1,-1.22660115E-1,-1.3663632E-1,1.1463734E-1,9.539255E-2,-1.3049988E-1,-1.5165825E-1,3.9733093E-2,7.625911E-2,-9.5001474E-2,1.0886192E-1,-2.3768404E-2,6.812972E-2,-1.1803835E-1,9.855374E-2,-7.1499266E-2,3.3751085E-2,-1.1672962E-1,1.2478584E-1,-2.549292E-2,5.18659E-2,-1.1157232E-1,1.2077739E-1,-5.1263906E-2,-1.1428311E-1,7.2520904E-2,2.794235E-2,-8.844912E-2,1.07690394E-1,-1.2411394E-1,5.5300146E-2,-1.21041276E-1,6.358137E-2,-6.0592562E-2,7.62632E-2,-1.04860984E-1,1.4418344E-1,-3.6617424E-2,5.6231756E-2,-1.16938904E-1,-2.2967495E-2,-1.205488E-1],"split_indices":[132,320,127,5,275,145,12,6,133,287,170,327,80,136,136,24,80,34,82,7,296,261,44,104,142,91,24,156,200,176,65,200,127,128,92,0,37,5,15,24,188,174,11,44,164,55,130,130,135,92,138,123,361,27,281,63,47,216,172,142,12,80,142,0,0,0,0,0,0,0,0,0,0,0,0,0,0,0,0,0,0,0,0,0,0,0,0,0,0,0,0,0,0,0,0,0,0,0,0,0,0,0,0,0,0,0,0,0,0,0,0,0,0,0,0,0,0,0,0,0,0,0,0,0,0],"split_type":[0,0,0,0,0,0,0,0,0,0,0,0,0,0,0,0,0,0,0,0,0,0,0,0,0,0,0,0,0,0,0,0,0,0,0,0,0,0,0,0,0,0,0,0,0,0,0,0,0,0,0,0,0,0,0,0,0,0,0,0,0,0,0,0,0,0,0,0,0,0,0,0,0,0,0,0,0,0,0,0,0,0,0,0,0,0,0,0,0,0,0,0,0,0,0,0,0,0,0,0,0,0,0,0,0,0,0,0,0,0,0,0,0,0,0,0,0,0,0,0,0,0,0,0,0],"sum_hessian":[1.5930379E4,9.167573E3,6.762805E3,6.8515645E3,2.3160093E3,8.869238E2,5.8758813E3,6.4268706E3,4.2469373E2,1.6617986E3,6.542107E2,1.8911008E2,6.978137E2,4.0126301E3,1.8632515E3,6.1610415E3,2.6582907E2,4.4449337E1,3.8024442E2,9.3735803E2,7.244405E2,5.249738E2,1.2923688E2,5.1881134E1,1.3722894E2,6.349161E2,6.2897655E1,7.110473E2,3.3015828E3,3.184913E1,1.8314023E3,5.5743574E3,5.86684E2,2.2096281E2,4.4866276E1,2.1918378E0,4.22575E1,3.1427975E2,6.596464E1,5.696697E2,3.6768842E2,6.901243E2,3.431621E1,4.808151E2,4.4158722E1,6.829441E1,6.094246E1,3.8574165E1,1.3306969E1,1.2987481E1,1.2424146E2,6.104026E2,2.4513529E1,1.7554684E1,4.534297E1,2.6907047E2,4.4197684E2,9.612276E2,2.3403552E3,1.7111408E1,1.4737722E1,4.9729828E1,1.7816725E3,1.3029008E2,5.4440674E3,2.11652E2,3.75032E2,2.3480644E1,1.9748216E2,3.3699825E1,1.116645E1,1.1661117E0,4.1091385E1,1.18161125E2,1.9611864E2,2.9144543E1,3.68201E1,4.0916113E2,1.605085E2,1.7753176E1,3.4993524E2,3.635358E1,6.537707E2,2.7442059E1,6.874151E0,9.811142E0,4.7100394E2,1.4701426E1,2.9457298E1,6.451134E1,3.783076E0,1.8174307E1,4.276815E1,3.2138348E1,6.435818E0,4.217465E0,9.089503E0,8.297414E0,4.6900673E0,4.273362E0,1.199681E2,6.0242505E2,7.977514E0,1.52965355E1,9.216994E0,1.3127658E1,4.4270263E0,4.2905975E1,2.4369986E0,1.337409E2,1.3532954E2,4.128684E2,2.9108421E1,2.7439009E1,9.3378864E2,2.4331877E2,2.0970364E3,3.1923406E0,1.3919067E1,1.2368039E1,2.3696835E0,2.5804443E1,2.3925385E1,1.8967695E1,1.7627048E3],"tree_param":{"num_deleted":"0","num_feature":"365","num_nodes":"125","size_leaf_vector":"1"}},{"base_weights":[-1.436296E-3,-9.4085145E-1,1.6255146E-1,1.0864836E-1,-1.0768303E0,3.8413298E-1,-6.255283E-1,-8.9481944E-1,8.044648E-1,-1.1254417E0,6.6593274E-2,6.703673E-1,-1.7532913E-1,-9.1590345E-1,4.5515783E-2,-1.2410519E0,-2.3359534E-1,1.0448248E0,-1.2894872E0,3.705598E-1,-1.1594685E0,-1.0715847E0,1.3123031E0,7.4366283E-1,-7.6427937E-1,7.472176E-2,-9.777907E-1,-5.185887E-1,-1.262821E0,5.221274E-1,-9.930147E-1,-9.6401356E-2,-1.3005841E0,5.7586354E-1,-8.456494E-1,1.1867248E0,-7.7433056E-1,2.8641442E-2,-1.417797E-1,1.0429506E0,-1.1095928E0,-1.1882875E0,-6.698188E-1,5.6068385E-1,-1.1887707E0,-1.04061924E-1,1.6074628E0,7.996186E-1,-9.681977E-1,-1.1276479E0,9.766485E-2,-9.6770746E-1,3.205488E-1,-6.3539314E-1,-1.2642645E0,5.8578692E-2,-9.6237683E-1,-7.8073704E-1,-1.3416584E0,8.2664686E-1,-7.413339E-1,3.7885398E-1,-1.1316457E0,-7.855832E-2,8.063914E-2,6.4387396E-3,-1.3266347E-1,-7.25184E-2,1.03084266E-1,6.3731536E-2,-1.09582566E-1,-4.6125782E-4,1.331779E-1,3.4988992E-2,-1.1004125E-1,1.2944083E-1,-9.7766496E-2,6.9230266E-2,-1.48508E-1,-1.2269676E-1,-9.875743E-2,-2.2630969E-3,-1.354904E-1,1.4995272E-1,-6.6381626E-2,-1.2109645E-1,-1.5541728E-2,1.7312887E-1,-7.285904E-2,9.314891E-2,2.3653394E-2,-1.255643E-1,-2.1967603E-2,6.158313E-3,-1.228364E-1,5.626895E-2,-1.23520926E-1,-1.18283965E-1,-4.522217E-2,4.796092E-2,-1.00096405E-1,-1.0132203E-1,-4.5253523E-3,-1.0957769E-1,-1.3778865E-1,5.4647356E-2,-5.5060495E-2,3.0284528E-2,-1.0586311E-1,-4.1198254E-2,-1.304406E-1,-1.5136287E-1,-1.2541257E-1,1.04318105E-1,-5.961408E-2,2.1073658E-2,-1.1228005E-1,1.0576347E-1,-7.223233E-2,4.9186125E-3,-1.1917988E-1],"categories":[],"categories_nodes":[],"categories_segments":[],"categories_sizes":[],"default_left":[0,0,0,0,0,0,0,0,0,0,0,0,0,0,0,0,0,0,0,0,0,0,0,0,0,0,0,0,0,0,0,0,0,0,0,0,0,0,0,0,0,0,0,0,0,0,0,0,0,0,0,0,0,0,0,0,0,0,0,0,0,0,0,0,0,0,0,0,0,0,0,0,0,0,0,0,0,0,0,0,0,0,0,0,0,0,0,0,0,0,0,0,0,0,0,0,0,0,0,0,0,0,0,0,0,0,0,0,0,0,0,0,0,0,0,0,0,0,0,0,0],"id":12,"left_children":[1,3,5,7,9,11,13,15,17,19,21,23,25,27,29,31,33,35,37,39,41,43,45,47,49,51,53,55,57,59,61,63,65,67,69,71,73,-1,-1,75,77,79,81,83,85,-1,87,89,91,93,95,97,99,101,103,105,107,109,111,113,115,117,119,-1,-1,-1,-1,-1,-1,-1,-1,-1,-1,-1,-1,-1,-1,-1,-1,-1,-1,-1,-1,-1,-1,-1,-1,-1,-1,-1,-1,-1,-1,-1,-1,-1,-1,-1,-1,-1,-1,-1,-1,-1,-1,-1,-1,-1,-1,-1,-1,-1,-1,-1,-1,-1,-1,-1,-1,-1,-1],"loss_changes":[2.3627725E3,3.25516E2,2.2803643E3,1.8384753E2,1.12358154E2,1.63238E3,5.5856067E2,2.4245483E1,7.95724E1,9.906006E1,1.1934043E2,7.096282E2,6.925189E2,2.7490186E2,4.2933182E2,4.534363E0,1.9530582E1,3.71147E1,3.8380795E0,4.469069E1,2.5734375E1,9.138927E0,2.96456E1,6.153308E2,1.0300198E2,6.7459863E2,7.942987E1,2.3946634E2,3.9298096E1,2.2939299E2,5.2391144E1,3.521511E0,2.586441E0,1.0871632E1,9.029677E0,2.2667953E1,4.378415E0,0E0,0E0,1.686765E1,1.0649826E1,1.2437012E1,4.7593063E1,5.180018E0,6.245804E-1,0E0,1.1817726E1,4.6103906E2,4.335637E1,2.7863037E1,6.1470913E1,5.5008484E1,4.48201E2,8.361125E1,6.7664795E0,1.2126174E2,6.474048E1,2.8750267E1,1.1607056E1,1.4844101E2,4.2435818E1,2.0024008E1,1.7795868E1,0E0,0E0,0E0,0E0,0E0,0E0,0E0,0E0,0E0,0E0,0E0,0E0,0E0,0E0,0E0,0E0,0E0,0E0,0E0,0E0,0E0,0E0,0E0,0E0,0E0,0E0,0E0,0E0,0E0,0E0,0E0,0E0,0E0,0E0,0E0,0E0,0E0,0E0,0E0,0E0,0E0,0E0,0E0,0E0,0E0,0E0,0E0,0E0,0E0,0E0,0E0,0E0,0E0,0E0,0E0,0E0,0E0,0E0],"parents":[2147483647,0,0,1,1,2,2,3,3,4,4,5,5,6,6,7,7,8,8,9,9,10,10,11,11,12,12,13,13,14,14,15,15,16,16,17,17,18,18,19,19,20,20,21,21,22,22,23,23,24,24,25,25,26,26,27,27,28,28,29,29,30,30,31,31,32,32,33,33,34,34,35,35,36,36,39,39,40,40,41,41,42,42,43,43,44,44,46,46,47,47,48,48,49,49,50,50,51,51,52,52,53,53,54,54,55,55,56,56,57,57,58,58,59,59,60,60,61,61,62,62],"right_children":[2,4,6,8,10,12,14,16,18,20,22,24,26,28,30,32,34,36,38,40,42,44,46,48,50,52,54,56,58,60,62,64,66,68,70,72,74,-1,-1,76,78,80,82,84,86,-1,88,90,92,94,96,98,100,102,104,106,108,110,112,114,116,118,120,-1,-1,-1,-1,-1,-1,-1,-1,-1,-1,-1,-1,-1,-1,-1,-1,-1,-1,-1,-1,-1,-1,-1,-1,-1,-1,-1,-1,-1,-1,-1,-1,-1,-1,-1,-1,-1,-1,-1,-1,-1,-1,-1,-1,-1,-1,-1,-1,-1,-1,-1,-1,-1,-1,-1,-1,-1,-1],"split_conditions":[-6.254896E2,7.91732E0,2.0681948E1,-4.0477165E1,7.540861E1,-3.3212814E1,-1.37052E1,-1.374445E0,5.157589E-2,3.1314032E1,-3.1013464E2,1.0285339E0,2.3601131E1,-2.5469897E0,1.024691E1,2.788836E-1,9.777949E0,1.5399585E0,1.3050219E1,-8.6130613E-1,-1.9510423E2,1.5474467E2,-1.1192752E0,9.889004E-1,-5.4232007E2,-4.224363E-1,2.8157303E1,7.614786E1,3.6135008E0,2.5168514E1,-1.5133263E1,2.2816687E2,1.7020497E0,-6.470087E2,1.0704951E1,-1.9198774E0,6.4344226E2,2.8641442E-2,-1.417797E-1,-2.2815476E-1,5.851589E0,-3.4604973E1,6.5151154E2,1.2884817E1,6.6140274E1,-1.04061924E-1,-7.063585E-1,2.6010736E2,-5.6955803E1,7.6371984E0,4.596405E1,-1.3772232E1,-4.1418564E-1,1.760604E-1,-1.6445005E0,-3.8850094E1,-2.1997763E1,-2.185247E-1,-3.9786603E0,1.6508411E-1,-2.3230367E0,1.1262493E1,4.297357E0,-7.855832E-2,8.063914E-2,6.4387396E-3,-1.3266347E-1,-7.25184E-2,1.03084266E-1,6.3731536E-2,-1.09582566E-1,-4.6125782E-4,1.331779E-1,3.4988992E-2,-1.1004125E-1,1.2944083E-1,-9.7766496E-2,6.9230266E-2,-1.48508E-1,-1.2269676E-1,-9.875743E-2,-2.2630969E-3,-1.354904E-1,1.4995272E-1,-6.6381626E-2,-1.2109645E-1,-1.5541728E-2,1.7312887E-1,-7.285904E-2,9.314891E-2,2.3653394E-2,-1.255643E-1,-2.1967603E-2,6.158313E-3,-1.228364E-1,5.626895E-2,-1.23520926E-1,-1.18283965E-1,-4.522217E-2,4.796092E-2,-1.00096405E-1,-1.0132203E-1,-4.5253523E-3,-1.0957769E-1,-1.3778865E-1,5.4647356E-2,-5.5060495E-2,3.0284528E-2,-1.0586311E-1,-4.1198254E-2,-1.304406E-1,-1.5136287E-1,-1.2541257E-1,1.04318105E-1,-5.961408E-2,2.1073658E-2,-1.1228005E-1,1.0576347E-1,-7.223233E-2,4.9186125E-3,-1.1917988E-1],"split_indices":[80,45,130,86,41,92,105,14,17,361,160,6,127,10,140,130,137,2,315,9,160,320,25,5,80,35,127,287,63,128,172,281,67,80,127,14,280,0,0,12,155,88,280,47,311,0,38,320,82,130,124,105,12,38,7,92,174,10,5,37,8,134,146,0,0,0,0,0,0,0,0,0,0,0,0,0,0,0,0,0,0,0,0,0,0,0,0,0,0,0,0,0,0,0,0,0,0,0,0,0,0,0,0,0,0,0,0,0,0,0,0,0,0,0,0,0,0,0,0,0,0],"split_type":[0,0,0,0,0,0,0,0,0,0,0,0,0,0,0,0,0,0,0,0,0,0,0,0,0,0,0,0,0,0,0,0,0,0,0,0,0,0,0,0,0,0,0,0,0,0,0,0,0,0,0,0,0,0,0,0,0,0,0,0,0,0,0,0,0,0,0,0,0,0,0,0,0,0,0,0,0,0,0,0,0,0,0,0,0,0,0,0,0,0,0,0,0,0,0,0,0,0,0,0,0,0,0,0,0,0,0,0,0,0,0,0,0,0,0,0,0,0,0,0,0],"sum_hessian":[1.5334944E4,2.2784663E3,1.3056479E4,2.6128732E2,2.017179E3,1.0191587E4,2.864892E3,1.0681498E2,1.5447235E2,1.9350171E3,8.216183E1,6.7421304E3,3.4494563E3,1.9994648E3,8.654272E2,6.94311E1,3.738388E1,1.3905888E2,1.5413469E1,4.2748302E1,1.8922688E3,4.2965076E1,3.919675E1,6.414945E3,3.2718567E2,2.630547E3,8.18909E2,9.333309E2,1.066134E3,5.936004E2,2.7182678E2,3.645064E0,6.578603E1,1.6051311E1,2.1332571E1,1.2937021E2,9.688674E0,1.0090266E0,1.4404443E1,2.9644566E1,1.3103736E1,1.7855472E3,1.06721596E2,2.5673158E0,4.039776E1,4.049664E0,3.5147087E1,6.2124683E3,2.0247621E2,2.3002298E2,9.7162674E1,5.013271E2,2.1292202E3,3.7466776E2,4.442412E2,4.0597885E2,5.27352E2,1.5155563E2,9.1457837E2,4.7865887E2,1.149415E2,2.4722546E1,2.4710425E2,2.2035196E0,1.4415445E0,1.1325659E0,6.4653465E1,3.9480083E0,